[
    {
        "class": "keras.layers.core.dense.Dense",
        "config": {
            "name": "dense_47",
            "trainable": true,
            "dtype": "float32",
            "units": 128,
            "activation": "tanh",
            "use_bias": true,
            "kernel_initializer": {
                "class_name": "GlorotUniform",
                "config": {
                    "seed": null
                }
            },
            "bias_initializer": {
                "class_name": "Zeros",
                "config": {}
            },
            "kernel_regularizer": null,
            "bias_regularizer": null,
            "activity_regularizer": null,
            "kernel_constraint": null,
            "bias_constraint": null
        },
        "weights": [
            {
                "_type": "ndarray",
                "shape": [
                    4,
                    128
                ],
                "dtype": "float32",
                "data": [
                    0.14324739575386047,
                    0.07118542492389679,
                    -0.04990876838564873,
                    0.07675685733556747,
                    0.13026373088359833,
                    -0.15997715294361115,
                    0.08610982447862625,
                    0.24226298928260803,
                    -0.12490738183259964,
                    0.0679919570684433,
                    -0.37803685665130615,
                    0.03387397155165672,
                    -0.17469899356365204,
                    0.10472961515188217,
                    0.24792149662971497,
                    0.10887514799833298,
                    0.1152966320514679,
                    0.034972913563251495,
                    0.4261769652366638,
                    -0.10531315952539444,
                    -0.15427574515342712,
                    0.4139704704284668,
                    -0.15520349144935608,
                    0.13074594736099243,
                    0.3796631693840027,
                    0.16516272723674774,
                    -0.33664441108703613,
                    -0.11256122589111328,
                    0.14563427865505219,
                    0.1488276869058609,
                    0.16733138263225555,
                    0.050815608352422714,
                    0.07628031820058823,
                    -0.08472438901662827,
                    0.18174077570438385,
                    -0.05335773900151253,
                    0.03206471726298332,
                    -0.03796527907252312,
                    0.011724146082997322,
                    -0.0634259581565857,
                    -0.4193665683269501,
                    -0.04056742414832115,
                    0.02678644470870495,
                    -0.08338921517133713,
                    0.055179618299007416,
                    -0.14107272028923035,
                    0.05751864239573479,
                    -0.011115031316876411,
                    0.0907832458615303,
                    -0.11252088099718094,
                    0.059005256742239,
                    -0.11004051566123962,
                    0.05007191747426987,
                    -0.11632569879293442,
                    0.1415734440088272,
                    0.049456242471933365,
                    0.07785791158676147,
                    0.37819331884384155,
                    0.098000168800354,
                    0.022814258933067322,
                    -0.010305589996278286,
                    -0.32032907009124756,
                    0.08837462216615677,
                    -0.05520271137356758,
                    -0.05993557348847389,
                    0.03990540653467178,
                    -0.06935567408800125,
                    -0.09124551713466644,
                    0.019379841163754463,
                    -0.429741770029068,
                    -0.07137564569711685,
                    -0.12796860933303833,
                    -0.1499534547328949,
                    -0.0498998649418354,
                    -0.15384355187416077,
                    0.05820685252547264,
                    -0.1757073700428009,
                    -0.33910873532295227,
                    -0.02897672913968563,
                    -0.07779066264629364,
                    0.11148548871278763,
                    0.04256878420710564,
                    -0.06773380935192108,
                    0.1819978505373001,
                    0.06191268935799599,
                    -0.08763199299573898,
                    0.29584604501724243,
                    -0.17186060547828674,
                    0.04483285918831825,
                    -0.10940489917993546,
                    -0.026115216314792633,
                    0.14663399755954742,
                    0.16540232300758362,
                    -0.06042233109474182,
                    0.09171266108751297,
                    -0.10734923928976059,
                    0.12862780690193176,
                    0.1961258202791214,
                    -0.0805787444114685,
                    0.12616761028766632,
                    -0.37986260652542114,
                    0.09639622271060944,
                    -0.03237971290946007,
                    -0.13823647797107697,
                    -0.0634906142950058,
                    -0.08347097784280777,
                    0.06441140919923782,
                    -0.06138376519083977,
                    0.15533147752285004,
                    0.14780056476593018,
                    -0.1291598230600357,
                    0.11804241687059402,
                    0.11256060749292374,
                    -0.05366601422429085,
                    -0.037267860025167465,
                    -0.09529519826173782,
                    0.11244721710681915,
                    0.09203233569860458,
                    -0.10503967851400375,
                    0.05214090272784233,
                    0.16795989871025085,
                    -0.16656064987182617,
                    -0.07997655123472214,
                    0.09958850592374802,
                    0.06647063791751862,
                    -0.04250114783644676,
                    0.168802872300148,
                    0.06573417037725449,
                    0.15919475257396698,
                    0.08651542663574219,
                    -0.1485966593027115,
                    -0.45068618655204773,
                    -0.07638312131166458,
                    0.20390450954437256,
                    0.025101199746131897,
                    -0.05639206990599632,
                    0.1672012060880661,
                    0.09169641137123108,
                    0.0008245770586654544,
                    -0.1514476090669632,
                    0.16739094257354736,
                    0.23092597723007202,
                    -0.15918363630771637,
                    0.0387982614338398,
                    -0.17024269700050354,
                    0.06756547093391418,
                    -0.055662065744400024,
                    -0.1548207849264145,
                    0.09821400046348572,
                    0.10890000313520432,
                    0.10869699716567993,
                    -0.1517719179391861,
                    0.3853801488876343,
                    -0.09926402568817139,
                    -0.009452617727220058,
                    -0.044521212577819824,
                    -0.1695953607559204,
                    -0.027845516800880432,
                    -0.1097932755947113,
                    0.30269482731819153,
                    0.0884755477309227,
                    0.1444438099861145,
                    0.05871186405420303,
                    0.1920802891254425,
                    0.06441902369260788,
                    -0.10774488002061844,
                    -0.41727033257484436,
                    -0.09823057055473328,
                    0.041196051985025406,
                    -0.12303498387336731,
                    0.0981551930308342,
                    0.24881494045257568,
                    -0.12778933346271515,
                    0.054931383579969406,
                    0.03423995152115822,
                    0.11645831167697906,
                    0.04807982221245766,
                    -0.04756874218583107,
                    0.09094725549221039,
                    -0.07029471546411514,
                    -0.1406629979610443,
                    0.04513522610068321,
                    0.023823656141757965,
                    -0.43503692746162415,
                    0.07812754809856415,
                    -0.022283898666501045,
                    0.0327359139919281,
                    -0.11676272004842758,
                    -0.11895499378442764,
                    0.08366800099611282,
                    0.07673300057649612,
                    -0.3121376037597656,
                    -0.09957883507013321,
                    0.1175825297832489,
                    -0.011655554175376892,
                    -0.06281862407922745,
                    -0.13774272799491882,
                    0.09690891951322556,
                    -0.10675797611474991,
                    0.1864093393087387,
                    0.058004721999168396,
                    -0.08940107375383377,
                    0.12247902899980545,
                    -0.14028385281562805,
                    -0.05080735310912132,
                    -0.2820531725883484,
                    0.39202845096588135,
                    -0.08354949951171875,
                    0.014460170641541481,
                    -0.16538025438785553,
                    -0.11475030332803726,
                    -0.11809591203927994,
                    0.15075647830963135,
                    0.15189170837402344,
                    0.04460756853222847,
                    -0.11939709633588791,
                    0.10537318140268326,
                    -0.11888659745454788,
                    -0.05450284853577614,
                    -0.1563422530889511,
                    -0.1813281923532486,
                    -0.09114014357328415,
                    0.08007781207561493,
                    -0.17287753522396088,
                    0.31292015314102173,
                    0.11699655652046204,
                    -0.0791935920715332,
                    -0.03380092978477478,
                    -0.04608483612537384,
                    0.13352307677268982,
                    -0.05011916160583496,
                    0.07976128160953522,
                    -0.07690531015396118,
                    0.06259956955909729,
                    -0.15027400851249695,
                    -0.09371156990528107,
                    0.07542649656534195,
                    -0.17556187510490417,
                    0.009126981720328331,
                    -0.007253598887473345,
                    -0.159880131483078,
                    0.13485652208328247,
                    -0.3427411913871765,
                    0.13902676105499268,
                    -0.14692139625549316,
                    -0.053652454167604446,
                    -0.033711452037096024,
                    0.07448634505271912,
                    -0.18912556767463684,
                    0.12187063694000244,
                    -0.07457336783409119,
                    -0.11242897063493729,
                    -0.18010835349559784,
                    0.1319657266139984,
                    -0.17033229768276215,
                    -0.34472784399986267,
                    0.16814133524894714,
                    0.01447068341076374,
                    0.015501165762543678,
                    0.007245274260640144,
                    0.03476764261722565,
                    0.0728638544678688,
                    0.1984994113445282,
                    -0.06747039407491684,
                    -0.04191119223833084,
                    -0.02879200503230095,
                    0.033154264092445374,
                    0.09632881730794907,
                    0.05759817361831665,
                    -0.014413137920200825,
                    0.03699805960059166,
                    0.0869702473282814,
                    -0.07323690503835678,
                    0.10940881073474884,
                    0.002493580337613821,
                    -0.24736575782299042,
                    -0.0666913241147995,
                    -0.03751348704099655,
                    -0.16489660739898682,
                    -0.06952311843633652,
                    -0.17630143463611603,
                    0.014621802605688572,
                    0.0226042028516531,
                    -0.04882568493485451,
                    0.05835955962538719,
                    0.04645378142595291,
                    -0.04043293744325638,
                    -9.724906703922898e-05,
                    -0.04930543154478073,
                    0.038023680448532104,
                    -0.026921231299638748,
                    -0.023852933198213577,
                    -0.17716743052005768,
                    -0.07180280238389969,
                    -0.011842855252325535,
                    -0.03475497290492058,
                    -0.011242683045566082,
                    -0.01820574887096882,
                    -0.1010819599032402,
                    -0.07957471907138824,
                    -0.014270754531025887,
                    0.12708669900894165,
                    -0.31892266869544983,
                    0.053005874156951904,
                    0.0751757025718689,
                    -0.03188140690326691,
                    0.19753055274486542,
                    0.12062136828899384,
                    -0.1329863965511322,
                    -0.171547994017601,
                    -0.08443547040224075,
                    0.0677809938788414,
                    -0.18276341259479523,
                    -0.007809487637132406,
                    -0.11669307947158813,
                    0.15772151947021484,
                    0.040654782205820084,
                    0.11047347635030746,
                    -0.09404148161411285,
                    0.3283604383468628,
                    -0.06835053861141205,
                    0.0731125995516777,
                    -0.04243336617946625,
                    -0.003983897157013416,
                    -0.11481834948062897,
                    -0.06974463909864426,
                    -0.29455599188804626,
                    -0.1491190493106842,
                    -0.008500083349645138,
                    -0.04572942852973938,
                    0.004044886212795973,
                    -0.0598706491291523,
                    0.012754883617162704,
                    -0.003917390946298838,
                    0.02152918465435505,
                    0.004816818982362747,
                    -0.06178663671016693,
                    -0.10922497510910034,
                    0.03483173996210098,
                    -0.06182023882865906,
                    -0.16904814541339874,
                    0.06944745779037476,
                    0.0009413316729478538,
                    -0.21273048222064972,
                    0.0599575974047184,
                    0.056937526911497116,
                    -0.24364368617534637,
                    0.11645755916833878,
                    0.032271649688482285,
                    -0.024094292894005775,
                    0.01601678878068924,
                    -0.18560199439525604,
                    0.027468886226415634,
                    -0.3384682536125183,
                    -0.052090343087911606,
                    -0.008176106959581375,
                    -0.009460276924073696,
                    -0.013658761978149414,
                    0.16197896003723145,
                    0.08675695210695267,
                    0.07678370177745819,
                    -0.11458468437194824,
                    0.024557309225201607,
                    0.02234060876071453,
                    -0.15693414211273193,
                    -0.11015012860298157,
                    -0.11580605804920197,
                    -0.043325234204530716,
                    0.09356287866830826,
                    -0.10359268635511398,
                    0.026096438989043236,
                    0.007680537644773722,
                    -0.049888238310813904,
                    -0.0574987567961216,
                    -0.06205923855304718,
                    -0.06708364188671112,
                    -0.0350821390748024,
                    -0.09053859114646912,
                    -0.0005897826631553471,
                    -0.14623785018920898,
                    -0.034759726375341415,
                    -0.15746775269508362,
                    -0.1735946536064148,
                    -0.009472442790865898,
                    0.29433318972587585,
                    -0.017983855679631233,
                    0.010843195021152496,
                    -0.021683061495423317,
                    0.13516660034656525,
                    -0.037961214780807495,
                    -0.049685221165418625,
                    -0.10868170112371445,
                    -0.009385024197399616,
                    -0.0402347706258297,
                    -0.08462498337030411,
                    -0.18681007623672485,
                    -0.03523435443639755,
                    0.046623777598142624,
                    -0.13313964009284973,
                    0.012972895056009293,
                    -0.10656096786260605,
                    -0.2563219964504242,
                    0.021254487335681915,
                    -0.10694415122270584,
                    0.07612457126379013,
                    0.020161766558885574,
                    0.02129148505628109,
                    0.09939610958099365,
                    0.3672580420970917,
                    0.055193763226270676,
                    -0.05998111888766289,
                    0.010187065228819847,
                    0.04625116288661957,
                    -0.03120642900466919,
                    0.08662517368793488,
                    0.009601966477930546,
                    0.024661796167492867,
                    0.09817947447299957,
                    0.06678229570388794,
                    0.003636159235611558,
                    -0.2437419891357422,
                    0.07347100228071213,
                    0.05024675652384758,
                    -0.04837082698941231,
                    0.08121747523546219,
                    -0.0033212194684892893,
                    -0.04875100404024124,
                    -0.011837298050522804,
                    0.06687947362661362,
                    0.0222897008061409,
                    0.006689740810543299,
                    -0.1608869582414627,
                    -0.06943470984697342,
                    -0.006736359558999538,
                    0.1421474814414978,
                    0.2658000588417053,
                    -0.03915492445230484,
                    -0.14588665962219238,
                    0.0030095388647168875,
                    -0.011056466028094292,
                    0.05563028156757355,
                    -0.009279116056859493,
                    -0.07925904542207718,
                    -0.011102125979959965,
                    0.016488661989569664,
                    0.03751293569803238,
                    -0.09082415699958801,
                    0.040502868592739105,
                    0.017020585015416145,
                    0.050915516912937164,
                    -0.1504446119070053,
                    0.0546206533908844,
                    0.15343917906284332,
                    -0.12321360409259796,
                    -0.07743573933839798,
                    -0.16495980322360992,
                    -0.11474623531103134,
                    0.10063812136650085,
                    0.047793563455343246,
                    0.10461874306201935,
                    -0.02379598468542099,
                    0.35363754630088806,
                    -0.028929857537150383,
                    -0.07600602507591248,
                    0.04991501197218895,
                    -0.2545669674873352,
                    0.030602218583226204,
                    -0.11594641953706741,
                    0.24014142155647278,
                    0.035874251276254654,
                    -0.036441151052713394,
                    0.13262984156608582,
                    0.0211936067789793,
                    -0.3128160536289215,
                    0.13685210049152374,
                    -0.15903997421264648,
                    -0.08374983072280884,
                    0.03941958397626877,
                    0.025526639074087143,
                    0.2648736238479614,
                    -0.024245163425803185,
                    0.01945977471768856,
                    0.0388430692255497,
                    0.06723586469888687,
                    -0.003331423969939351,
                    -0.01832984760403633,
                    -0.23605979979038239,
                    -0.07305705547332764,
                    0.1057640090584755,
                    0.21865025162696838,
                    -0.01340982224792242,
                    -0.0235296618193388,
                    0.16242946684360504,
                    0.09768040478229523,
                    -0.09916987270116806,
                    -0.08239085227251053,
                    0.05489491671323776,
                    0.09552320837974548,
                    -0.06749174743890762,
                    0.05028248578310013,
                    0.09746251255273819,
                    -0.2332855761051178,
                    0.04018444940447807,
                    0.015890244394540787,
                    -0.06708534806966782,
                    0.0022803684696555138,
                    -0.1819642037153244,
                    -0.09386657923460007,
                    0.23063944280147552,
                    -0.15528833866119385,
                    -0.03059873916208744,
                    -0.007933225482702255
                ]
            },
            {
                "_type": "ndarray",
                "shape": [
                    128
                ],
                "dtype": "float32",
                "data": [
                    0.2892351448535919,
                    -0.29101231694221497,
                    0.2250366061925888,
                    0.00029765392537228763,
                    -0.302589476108551,
                    -0.2599574327468872,
                    -0.2666997015476227,
                    -0.12859052419662476,
                    -0.19127157330513,
                    -0.23984235525131226,
                    0.09624651819467545,
                    0.2425188273191452,
                    0.002130810171365738,
                    -0.16545741260051727,
                    0.36408039927482605,
                    -0.3228600025177002,
                    0.2529984712600708,
                    0.05116666480898857,
                    -0.017567485570907593,
                    -0.2826482355594635,
                    0.227975532412529,
                    -0.05388969928026199,
                    0.23076769709587097,
                    0.14680930972099304,
                    0.25608184933662415,
                    -0.2334662228822708,
                    0.123252734541893,
                    0.2443755567073822,
                    0.2598307430744171,
                    -0.3154045045375824,
                    -0.1488623023033142,
                    -0.0963355302810669,
                    -0.27996301651000977,
                    -0.21211616694927216,
                    -0.16170234978199005,
                    -0.20901888608932495,
                    0.162570059299469,
                    0.27367421984672546,
                    0.049573808908462524,
                    0.33198991417884827,
                    0.08402852714061737,
                    0.21421779692173004,
                    -0.29421085119247437,
                    -0.10163719207048416,
                    0.21416810154914856,
                    0.2958405911922455,
                    0.19024662673473358,
                    0.2167517989873886,
                    -0.31624969840049744,
                    0.3449867069721222,
                    -0.19450250267982483,
                    -0.20128153264522552,
                    0.31259170174598694,
                    -0.19034463167190552,
                    -0.26609668135643005,
                    -0.012224750593304634,
                    -0.36028027534484863,
                    -0.10295721888542175,
                    -0.37718427181243896,
                    0.21086497604846954,
                    0.22817528247833252,
                    -0.020992526784539223,
                    -0.15609677135944366,
                    0.025577424094080925,
                    0.30106815695762634,
                    -0.272882342338562,
                    0.08161724358797073,
                    0.33184584975242615,
                    0.26547157764434814,
                    -0.32370197772979736,
                    -0.29131266474723816,
                    0.3670291304588318,
                    0.27238190174102783,
                    0.30317720770835876,
                    0.22577433288097382,
                    0.2037220001220703,
                    0.1871313750743866,
                    -0.3320235311985016,
                    -0.07235303521156311,
                    0.342674195766449,
                    -0.2778257429599762,
                    0.17904788255691528,
                    0.17538265883922577,
                    -0.19131168723106384,
                    0.2474694550037384,
                    -0.23131293058395386,
                    -0.13941487669944763,
                    -0.3573630452156067,
                    -0.339348167181015,
                    -0.2868558466434479,
                    -0.2515353262424469,
                    -0.2859446704387665,
                    0.007312511559575796,
                    0.3466360569000244,
                    -0.34090420603752136,
                    -0.33680373430252075,
                    -0.03183658793568611,
                    0.40049633383750916,
                    0.35406526923179626,
                    -0.2755105793476105,
                    0.06744428724050522,
                    -0.12191585451364517,
                    0.03814607858657837,
                    0.11186855286359787,
                    0.23000763356685638,
                    -0.2768752872943878,
                    0.20245063304901123,
                    0.30687215924263,
                    0.060645364224910736,
                    -0.33727169036865234,
                    0.2842891216278076,
                    -0.2792792320251465,
                    0.24562212824821472,
                    -0.2627921998500824,
                    0.1366494596004486,
                    -0.13275623321533203,
                    0.21694429218769073,
                    -0.36371615529060364,
                    0.30272218585014343,
                    -0.26941338181495667,
                    -0.07361989468336105,
                    0.2550642192363739,
                    0.31958314776420593,
                    0.2856491804122925,
                    0.1271897852420807,
                    -0.28527525067329407,
                    -0.34980273246765137,
                    0.000927822373341769
                ]
            }
        ]
    },
    {
        "class": "keras.layers.core.dense.Dense",
        "config": {
            "name": "dense_48",
            "trainable": true,
            "dtype": "float32",
            "units": 64,
            "activation": "tanh",
            "use_bias": true,
            "kernel_initializer": {
                "class_name": "GlorotUniform",
                "config": {
                    "seed": null
                }
            },
            "bias_initializer": {
                "class_name": "Zeros",
                "config": {}
            },
            "kernel_regularizer": null,
            "bias_regularizer": null,
            "activity_regularizer": null,
            "kernel_constraint": null,
            "bias_constraint": null
        },
        "weights": [
            {
                "_type": "ndarray",
                "shape": [
                    128,
                    64
                ],
                "dtype": "float32",
                "data": [
                    -0.06212747469544411,
                    0.2815494239330292,
                    -0.09019612520933151,
                    -0.10701753199100494,
                    0.21368709206581116,
                    -0.2263004183769226,
                    -0.10056199133396149,
                    0.11258713155984879,
                    0.04373496025800705,
                    0.027987824752926826,
                    -0.15026603639125824,
                    -0.2117938995361328,
                    -0.016784610226750374,
                    -0.061260491609573364,
                    0.19642361998558044,
                    0.05642213672399521,
                    -0.08465644717216492,
                    -0.19250011444091797,
                    -0.16978494822978973,
                    -0.0622713603079319,
                    0.0035837613977491856,
                    -0.09647896140813828,
                    0.20802566409111023,
                    0.09576455503702164,
                    -0.12921041250228882,
                    0.04131888225674629,
                    0.19335772097110748,
                    0.005995144136250019,
                    -0.06072138249874115,
                    -0.1860283613204956,
                    0.10896890610456467,
                    0.15197156369686127,
                    0.06490903347730637,
                    -0.1790200024843216,
                    -0.2108437418937683,
                    0.06742150336503983,
                    -0.03295866400003433,
                    0.11426492035388947,
                    0.0854334756731987,
                    0.037936415523290634,
                    0.07355004549026489,
                    0.012315106578171253,
                    -0.10730967670679092,
                    0.17400826513767242,
                    0.09878363460302353,
                    0.23042209446430206,
                    0.08683723211288452,
                    0.026677394285798073,
                    -0.16564883291721344,
                    0.23808446526527405,
                    0.09960074722766876,
                    0.10785677284002304,
                    -0.10920169949531555,
                    0.0165847297757864,
                    0.3381856679916382,
                    -0.025755593553185463,
                    0.09601180255413055,
                    -0.060774046927690506,
                    0.07605282962322235,
                    0.09771784394979477,
                    -0.16809815168380737,
                    -0.06253954023122787,
                    0.03692866489291191,
                    0.12369204312562943,
                    -0.1969698667526245,
                    -0.04526551067829132,
                    0.37351199984550476,
                    0.13940005004405975,
                    -0.17145967483520508,
                    0.10935136675834656,
                    0.2377680242061615,
                    -0.08202645927667618,
                    0.18994808197021484,
                    -0.006086362060159445,
                    -0.06461276113986969,
                    -0.027860719710588455,
                    -0.039844777435064316,
                    -0.047035954892635345,
                    0.03303355351090431,
                    0.09955822676420212,
                    -0.0368642657995224,
                    -0.27176541090011597,
                    -0.044455014169216156,
                    0.20402216911315918,
                    -0.11500094830989838,
                    0.16869769990444183,
                    0.06250561028718948,
                    0.19077837467193604,
                    0.16758985817432404,
                    0.024130478501319885,
                    0.01277801301330328,
                    0.26392674446105957,
                    0.054560717195272446,
                    0.14850223064422607,
                    -0.06944303959608078,
                    -0.05573822557926178,
                    -0.1252192109823227,
                    0.24595186114311218,
                    0.12981846928596497,
                    0.05110793188214302,
                    -0.049420684576034546,
                    -0.10032093524932861,
                    -0.10944145917892456,
                    -0.19985666871070862,
                    -0.10425661504268646,
                    0.03661506623029709,
                    -0.1431170403957367,
                    0.025594139471650124,
                    0.09564924240112305,
                    -0.32545197010040283,
                    -0.07815198600292206,
                    0.05862855166196823,
                    0.13569603860378265,
                    -0.05692872405052185,
                    0.08676943928003311,
                    -0.15806281566619873,
                    -0.1921578198671341,
                    0.08225750923156738,
                    -0.09531226754188538,
                    -0.05854959040880203,
                    -0.12405980378389359,
                    0.13461244106292725,
                    -0.0007807210786268115,
                    0.16217578947544098,
                    0.23358602821826935,
                    0.24442440271377563,
                    -0.03582549840211868,
                    -0.1309206485748291,
                    0.10680414736270905,
                    -0.10795746743679047,
                    -0.1558322012424469,
                    -0.11318300664424896,
                    0.09022786468267441,
                    0.007910783402621746,
                    -0.197988823056221,
                    0.18562354147434235,
                    -0.13120655715465546,
                    -0.18491636216640472,
                    -0.1451893150806427,
                    -0.10360094904899597,
                    0.07432588934898376,
                    -0.1642766296863556,
                    0.12009038031101227,
                    -0.20539559423923492,
                    -0.023210858926177025,
                    -0.10293015092611313,
                    0.17790882289409637,
                    0.17051665484905243,
                    0.1045125350356102,
                    -0.14172790944576263,
                    -0.12954305112361908,
                    -0.21262292563915253,
                    -0.23198337852954865,
                    -0.13140784204006195,
                    0.07052960991859436,
                    -0.2635164260864258,
                    -0.008225302211940289,
                    -0.009879942052066326,
                    -0.20868460834026337,
                    -0.07146956026554108,
                    0.029172133654356003,
                    -0.14547745883464813,
                    0.01496107503771782,
                    -0.0968712791800499,
                    0.19101259112358093,
                    0.04009551554918289,
                    0.04108491167426109,
                    -0.16370615363121033,
                    0.233933225274086,
                    -0.13433372974395752,
                    0.1253759115934372,
                    -0.02089020609855652,
                    0.007604724727571011,
                    0.03153849020600319,
                    0.11187737435102463,
                    -0.16208986937999725,
                    0.10478337854146957,
                    0.04004437103867531,
                    0.13702167570590973,
                    0.15932214260101318,
                    -0.030485039576888084,
                    0.09573415666818619,
                    -0.036331210285425186,
                    0.24302005767822266,
                    -0.03444970026612282,
                    -0.15711331367492676,
                    -0.23105938732624054,
                    0.02616090327501297,
                    0.08458027988672256,
                    -0.22394181787967682,
                    0.08833808451890945,
                    -0.12365526705980301,
                    0.240128293633461,
                    -0.13621671497821808,
                    -0.05393659695982933,
                    -0.27098336815834045,
                    0.18262246251106262,
                    -0.14024260640144348,
                    0.12628762423992157,
                    0.09857658296823502,
                    -0.14714334905147552,
                    0.06456711888313293,
                    -0.2517663836479187,
                    -0.08451385796070099,
                    0.10216660052537918,
                    0.11709585040807724,
                    -0.11087674647569656,
                    -0.11801192164421082,
                    0.02402607910335064,
                    -0.29242515563964844,
                    -0.10466721653938293,
                    0.11003280431032181,
                    0.006740981712937355,
                    -0.17619362473487854,
                    -0.11788316071033478,
                    -0.2324797660112381,
                    0.008235657587647438,
                    0.008015320636332035,
                    -0.010345290414988995,
                    -0.06765418499708176,
                    -0.018759770318865776,
                    -0.03976767882704735,
                    0.011130208149552345,
                    0.2525348365306854,
                    0.15755139291286469,
                    -0.031328365206718445,
                    0.10877826809883118,
                    -0.007974434643983841,
                    -0.05488857626914978,
                    0.027229953557252884,
                    0.1339040994644165,
                    -0.13597270846366882,
                    0.2027541697025299,
                    0.16356392204761505,
                    0.4597967267036438,
                    -0.12081200629472733,
                    -0.1834229826927185,
                    -0.2859835922718048,
                    -0.09199743717908859,
                    0.23477192223072052,
                    0.0862981379032135,
                    0.1122024804353714,
                    -0.17271757125854492,
                    0.1884857416152954,
                    -0.014765367843210697,
                    0.16948164999485016,
                    -0.04881008714437485,
                    0.1896870881319046,
                    -0.023642495274543762,
                    0.08408045768737793,
                    0.11632353812456131,
                    -0.22773632407188416,
                    -0.30450958013534546,
                    -0.1069084033370018,
                    0.1352536380290985,
                    -0.19891873002052307,
                    -0.1362612247467041,
                    -0.07685783505439758,
                    0.22899042069911957,
                    0.1116982027888298,
                    -0.06945913285017014,
                    0.3192838430404663,
                    0.02201303280889988,
                    -0.1343078464269638,
                    -0.022988975048065186,
                    0.1187814325094223,
                    -0.24598294496536255,
                    0.27867233753204346,
                    -0.119761161506176,
                    0.15512561798095703,
                    0.004649425856769085,
                    -0.16122758388519287,
                    -0.12260089069604874,
                    -0.14595820009708405,
                    -0.1837407648563385,
                    -0.1902669370174408,
                    -0.08997722715139389,
                    0.1250585913658142,
                    -0.08784876018762589,
                    -0.13025252521038055,
                    -0.16719503700733185,
                    -0.016353901475667953,
                    -0.006457840092480183,
                    0.155770406126976,
                    -0.18469662964344025,
                    0.10221421718597412,
                    0.09899099171161652,
                    0.10109534859657288,
                    -0.07015853375196457,
                    0.20745521783828735,
                    0.011437113396823406,
                    -0.14937466382980347,
                    0.11230503022670746,
                    -0.05882294848561287,
                    -0.11341876536607742,
                    -0.09310181438922882,
                    0.05341248959302902,
                    0.0677625760436058,
                    0.25308892130851746,
                    -0.16142666339874268,
                    -0.07249784469604492,
                    -0.36659926176071167,
                    0.05853573977947235,
                    0.10611697286367416,
                    0.11180853843688965,
                    0.2586989104747772,
                    -0.09510886669158936,
                    -0.1501314640045166,
                    -0.0987415611743927,
                    -0.1202382817864418,
                    -0.039181143045425415,
                    0.09529225528240204,
                    0.14124663174152374,
                    -0.043317168951034546,
                    0.1658802479505539,
                    0.046048931777477264,
                    0.08797571808099747,
                    0.18224585056304932,
                    0.2779574692249298,
                    -0.22947412729263306,
                    -0.26556819677352905,
                    -0.15600451827049255,
                    0.1712881326675415,
                    0.27806559205055237,
                    -0.27959302067756653,
                    -0.19290579855442047,
                    0.16921725869178772,
                    -0.17860648036003113,
                    -0.041282862424850464,
                    -0.156529039144516,
                    0.19238609075546265,
                    -0.013741020113229752,
                    0.12524046003818512,
                    0.19756965339183807,
                    -0.13434940576553345,
                    0.18058983981609344,
                    -0.1210724264383316,
                    -0.16435402631759644,
                    -0.13304570317268372,
                    0.031942468136548996,
                    -0.09248902648687363,
                    0.22137434780597687,
                    0.07388758659362793,
                    0.06466709077358246,
                    0.13916991651058197,
                    -0.06071801111102104,
                    -0.08961205929517746,
                    -0.03906290978193283,
                    0.08214125037193298,
                    0.09203077852725983,
                    0.11365867406129837,
                    -0.0664501041173935,
                    -0.20173750817775726,
                    0.019009144976735115,
                    -0.10519210249185562,
                    0.16272315382957458,
                    -0.06879695504903793,
                    -0.30406415462493896,
                    0.08066029101610184,
                    0.007291541900485754,
                    -0.2372743785381317,
                    -0.110263891518116,
                    -0.10540848225355148,
                    0.05307644233107567,
                    -0.055822666734457016,
                    -0.1422518640756607,
                    0.009858015924692154,
                    -0.21092811226844788,
                    -0.08159258216619492,
                    -0.33716776967048645,
                    -0.1349795013666153,
                    -0.003711157012730837,
                    -0.24490290880203247,
                    -0.006368126720190048,
                    0.12732847034931183,
                    -0.1268622726202011,
                    -0.05307481065392494,
                    0.07003142684698105,
                    0.22716620564460754,
                    0.1608572155237198,
                    0.2865345776081085,
                    -0.14508499205112457,
                    0.007479086518287659,
                    -0.2668914198875427,
                    -0.2012048065662384,
                    -0.1499052345752716,
                    0.24325567483901978,
                    -0.07582950592041016,
                    -0.11016374081373215,
                    0.33594217896461487,
                    0.2731003761291504,
                    -0.2928564250469208,
                    -0.09590376913547516,
                    -0.020639978349208832,
                    -0.018493814393877983,
                    0.48944494128227234,
                    0.01601644605398178,
                    0.329108864068985,
                    0.15315879881381989,
                    0.03013773448765278,
                    0.24012407660484314,
                    -0.10181107372045517,
                    -0.09507402777671814,
                    0.20929713547229767,
                    0.12058455497026443,
                    -0.008727805688977242,
                    0.15967509150505066,
                    -0.07356279343366623,
                    -0.10724116861820221,
                    -0.17978335916996002,
                    0.03254793956875801,
                    0.20006267726421356,
                    -0.010458778589963913,
                    0.3414740264415741,
                    0.18652303516864777,
                    0.0161692276597023,
                    0.012073983438313007,
                    0.3304327130317688,
                    0.048488520085811615,
                    -0.13924725353717804,
                    -0.057335395365953445,
                    -0.09598898887634277,
                    -0.05067775771021843,
                    -0.2316548079252243,
                    -0.08361297100782394,
                    0.2294888198375702,
                    -0.00535565847530961,
                    -0.25364530086517334,
                    0.06453327089548111,
                    -0.22163371741771698,
                    0.061680473387241364,
                    -0.17079202830791473,
                    0.17933988571166992,
                    0.02727320045232773,
                    0.07710827887058258,
                    0.020663147792220116,
                    -0.19504913687705994,
                    -0.12094078212976456,
                    0.07916153222322464,
                    0.18390746414661407,
                    0.17782169580459595,
                    -0.01774154044687748,
                    0.012630289420485497,
                    0.03457814082503319,
                    0.14013643562793732,
                    0.10104133188724518,
                    0.05263565480709076,
                    -0.16611982882022858,
                    -0.12996864318847656,
                    -0.05625063180923462,
                    -0.029053350910544395,
                    0.08074221760034561,
                    0.07576405256986618,
                    0.18606996536254883,
                    0.03813374787569046,
                    -0.08896807581186295,
                    -0.05839470773935318,
                    0.024588903412222862,
                    0.12053727358579636,
                    0.18712498247623444,
                    -0.10681463778018951,
                    0.1004004031419754,
                    0.05678078904747963,
                    -0.1659056395292282,
                    -0.06304338574409485,
                    0.07279819250106812,
                    -0.24125216901302338,
                    0.0031352583318948746,
                    -0.02893543429672718,
                    0.023106765002012253,
                    -0.025705724954605103,
                    0.07405275106430054,
                    0.1448311060667038,
                    0.09814263880252838,
                    0.1700574904680252,
                    -0.1576618254184723,
                    -0.26148828864097595,
                    0.28623589873313904,
                    0.07854588329792023,
                    -0.12436610460281372,
                    0.08765081316232681,
                    -0.06539039313793182,
                    -0.1479262113571167,
                    -0.11062955111265182,
                    -0.15661033987998962,
                    -0.08630461990833282,
                    -0.13965541124343872,
                    -0.04041258245706558,
                    -0.12327314168214798,
                    0.007593121379613876,
                    0.06065206974744797,
                    -0.06914332509040833,
                    -0.14435191452503204,
                    -0.008142393082380295,
                    0.26946592330932617,
                    0.17613667249679565,
                    -0.09432439506053925,
                    0.15724720060825348,
                    -0.257955938577652,
                    -0.09960037469863892,
                    -0.12626737356185913,
                    -0.29765504598617554,
                    -0.1000395268201828,
                    -0.04720556363463402,
                    0.24150249361991882,
                    -0.06597228348255157,
                    -0.07490485161542892,
                    0.15059246122837067,
                    -0.02659454010426998,
                    0.22749657928943634,
                    0.052033428102731705,
                    0.06685565412044525,
                    -0.14137212932109833,
                    -0.20664921402931213,
                    0.3112877905368805,
                    0.2289513349533081,
                    -0.1204342246055603,
                    -0.03472227230668068,
                    -0.0736435279250145,
                    0.1292901337146759,
                    -0.05089540779590607,
                    -0.10460732877254486,
                    0.2061116248369217,
                    -0.0265168696641922,
                    -0.2055564522743225,
                    0.2571496367454529,
                    0.04912687838077545,
                    -0.01332857459783554,
                    0.11781178414821625,
                    -0.18150903284549713,
                    0.17154043912887573,
                    0.006024761591106653,
                    -0.06251858919858932,
                    0.21638420224189758,
                    0.20951685309410095,
                    0.10904651135206223,
                    0.11474980413913727,
                    0.031103726476430893,
                    -0.16267167031764984,
                    0.11591027677059174,
                    0.20185008645057678,
                    -0.06719670444726944,
                    0.06917470693588257,
                    0.15966255962848663,
                    -0.030814798548817635,
                    -0.20535385608673096,
                    -0.12081372737884521,
                    0.10477475076913834,
                    -0.08876490592956543,
                    -0.16872359812259674,
                    -0.2089141607284546,
                    0.07028581202030182,
                    -0.18393617868423462,
                    0.16631050407886505,
                    0.02363598719239235,
                    -0.073102205991745,
                    -0.054255228489637375,
                    -0.03417222201824188,
                    0.04918232932686806,
                    0.024697789922356606,
                    0.028610922396183014,
                    -0.2535801827907562,
                    -0.01975429244339466,
                    0.16318683326244354,
                    -0.2739461362361908,
                    -0.13908034563064575,
                    0.005664092022925615,
                    -0.217802032828331,
                    -0.18070130050182343,
                    0.254317969083786,
                    -0.0418233759701252,
                    0.08276289701461792,
                    -0.038682084530591965,
                    -0.11242363601922989,
                    -0.1983756721019745,
                    -0.03114737942814827,
                    0.08295608311891556,
                    -0.12455898523330688,
                    0.3473101854324341,
                    0.288928359746933,
                    -0.20082297921180725,
                    0.2393786609172821,
                    0.15529222786426544,
                    0.06315606087446213,
                    -0.05384707450866699,
                    -0.12645895779132843,
                    0.03381505608558655,
                    0.21728725731372833,
                    -0.1720360368490219,
                    -0.07534318417310715,
                    0.06477264314889908,
                    0.048816900700330734,
                    0.12011224776506424,
                    -0.2394731342792511,
                    -0.06325990706682205,
                    0.21937580406665802,
                    -0.0231022909283638,
                    0.0023898088838905096,
                    0.026447443291544914,
                    0.28426897525787354,
                    0.23517301678657532,
                    0.2529127597808838,
                    0.0818071961402893,
                    0.27063772082328796,
                    0.13597773015499115,
                    0.13078749179840088,
                    0.1773681342601776,
                    0.2739877998828888,
                    -0.08908544480800629,
                    0.07015465945005417,
                    0.06909497082233429,
                    0.2699989676475525,
                    -0.17199458181858063,
                    0.0001856339513324201,
                    0.028521951287984848,
                    -0.034881819039583206,
                    -0.11013886332511902,
                    0.276557594537735,
                    -0.07552873343229294,
                    -0.20918934047222137,
                    0.18052683770656586,
                    -0.05847209692001343,
                    0.022261152043938637,
                    0.06483601033687592,
                    0.13950325548648834,
                    -0.16723985970020294,
                    -0.10334619134664536,
                    -0.08005945384502411,
                    0.06449972838163376,
                    -0.023405376821756363,
                    0.010882147587835789,
                    0.039870597422122955,
                    -0.03832937031984329,
                    -0.05352390184998512,
                    0.24261347949504852,
                    0.2611639201641083,
                    0.06989070028066635,
                    0.2683824896812439,
                    0.125492125749588,
                    -0.08034273982048035,
                    -0.12557440996170044,
                    -0.07732672244310379,
                    0.15423583984375,
                    0.05194360390305519,
                    0.19387151300907135,
                    -0.0966620147228241,
                    0.03106272965669632,
                    0.2874528467655182,
                    -0.0405983105301857,
                    -0.15774212777614594,
                    -0.013423025608062744,
                    -0.03813934326171875,
                    0.1162470132112503,
                    0.13413800299167633,
                    0.18480141460895538,
                    -0.17723719775676727,
                    -0.02789771929383278,
                    -0.13094022870063782,
                    0.4903000295162201,
                    0.03900548815727234,
                    0.02750173769891262,
                    -0.03450150042772293,
                    -0.1196335181593895,
                    0.11168693751096725,
                    0.12619729340076447,
                    0.22845226526260376,
                    -0.1267874389886856,
                    -0.0703141838312149,
                    0.1733684092760086,
                    -0.2550395131111145,
                    -0.27702704071998596,
                    0.09771103411912918,
                    -0.10044250637292862,
                    0.01793440617620945,
                    -0.19308467209339142,
                    0.08183476328849792,
                    0.22532637417316437,
                    0.0039017628878355026,
                    0.20455464720726013,
                    -0.21665021777153015,
                    0.11785687506198883,
                    -0.10269144922494888,
                    -0.005919062532484531,
                    0.24424847960472107,
                    -0.09440375119447708,
                    -0.011199106462299824,
                    -0.39557045698165894,
                    0.03971661999821663,
                    -0.24903906881809235,
                    0.09153373539447784,
                    0.24748045206069946,
                    -0.027051594108343124,
                    0.0976080596446991,
                    0.14389018714427948,
                    0.18250946700572968,
                    0.24061046540737152,
                    -0.2023625522851944,
                    0.025950629264116287,
                    -0.15763713419437408,
                    -0.16325652599334717,
                    -0.00023013190366327763,
                    -0.15789543092250824,
                    0.1319466531276703,
                    -0.11886180937290192,
                    0.06495092064142227,
                    -0.06469734758138657,
                    -0.10425923019647598,
                    -0.28744906187057495,
                    0.21450521051883698,
                    -0.10701150447130203,
                    0.05155723914504051,
                    -0.14330492913722992,
                    0.08970792591571808,
                    -0.018555622547864914,
                    0.075320765376091,
                    0.04383363574743271,
                    0.2768840193748474,
                    -0.2710004150867462,
                    0.058930955827236176,
                    0.012765494175255299,
                    0.007472105789929628,
                    -0.04087252914905548,
                    -0.047395821660757065,
                    -0.12677407264709473,
                    0.039764516055583954,
                    -0.16454583406448364,
                    -0.010751431807875633,
                    0.028721604496240616,
                    -0.09337063878774643,
                    -0.07730606943368912,
                    0.13310635089874268,
                    -0.08117639273405075,
                    -0.12194831669330597,
                    -0.10984690487384796,
                    -0.00875076837837696,
                    -0.2143717110157013,
                    -0.017012979835271835,
                    -0.2618926763534546,
                    0.14317189157009125,
                    -0.18003098666667938,
                    -0.04410248249769211,
                    0.3095085918903351,
                    0.28545132279396057,
                    -0.0182185061275959,
                    0.1020968109369278,
                    -0.12173684686422348,
                    0.26532894372940063,
                    0.07357218116521835,
                    0.004454982932657003,
                    0.08267256617546082,
                    0.16554784774780273,
                    0.016298606991767883,
                    0.0013075179886072874,
                    0.19850677251815796,
                    -0.15827718377113342,
                    -0.034503962844610214,
                    0.024498041719198227,
                    0.22667302191257477,
                    0.00979653187096119,
                    0.24561049044132233,
                    -0.06411676108837128,
                    -0.24152904748916626,
                    -0.23862327635288239,
                    -0.1583937704563141,
                    -0.1288985311985016,
                    -0.16689199209213257,
                    0.03874314948916435,
                    0.0010941829532384872,
                    -0.02699309028685093,
                    -0.04283135011792183,
                    0.036447662860155106,
                    -0.11579184979200363,
                    -0.11151301860809326,
                    -0.07232725620269775,
                    0.004118330776691437,
                    0.008696242235600948,
                    0.02599925920367241,
                    0.07837551832199097,
                    -0.009617806412279606,
                    -0.05218399688601494,
                    -0.1040552631020546,
                    0.175883486866951,
                    0.04627618566155434,
                    0.013584524393081665,
                    -0.13460581004619598,
                    -0.17058467864990234,
                    -0.0031061305198818445,
                    0.06960481405258179,
                    -0.11682388186454773,
                    -0.02008344791829586,
                    0.021587682887911797,
                    -0.1172032579779625,
                    0.04037312790751457,
                    0.02364831417798996,
                    0.04161509871482849,
                    0.157088503241539,
                    0.19153593480587006,
                    -0.13303570449352264,
                    -0.0718381330370903,
                    -0.17579632997512817,
                    -0.12416096776723862,
                    -0.21951185166835785,
                    -0.11181589961051941,
                    0.017181338742375374,
                    0.008939006365835667,
                    -0.16723626852035522,
                    0.1101914569735527,
                    0.1988861858844757,
                    -0.13878343999385834,
                    0.03686791658401489,
                    0.02828339673578739,
                    -0.03578115999698639,
                    0.1353975534439087,
                    -0.12766025960445404,
                    -0.07217156141996384,
                    0.047432079911231995,
                    -0.01845405250787735,
                    -0.18203474581241608,
                    0.21761523187160492,
                    0.20358888804912567,
                    -0.22662213444709778,
                    0.08482431620359421,
                    0.01769993267953396,
                    0.05486519634723663,
                    0.05695139989256859,
                    -0.09379306435585022,
                    -0.048031024634838104,
                    0.034608956426382065,
                    0.1361255943775177,
                    0.10261888802051544,
                    -0.037641867995262146,
                    -0.05202408879995346,
                    0.14355868101119995,
                    0.1899029016494751,
                    0.007259054109454155,
                    -0.005198498722165823,
                    -0.10810902714729309,
                    -0.09887566417455673,
                    0.061434000730514526,
                    0.0018513188697397709,
                    0.19673749804496765,
                    0.0016710490453988314,
                    0.012706998735666275,
                    -0.03256615623831749,
                    0.00010566644050413743,
                    -0.0939045324921608,
                    0.03314552456140518,
                    0.07258762419223785,
                    0.015206506475806236,
                    -0.024774866178631783,
                    -0.04639500379562378,
                    -0.17811529338359833,
                    -0.060366131365299225,
                    0.16802461445331573,
                    0.12053874880075455,
                    0.12570717930793762,
                    0.03201238438487053,
                    0.10604403167963028,
                    -0.1150897815823555,
                    0.1767483651638031,
                    -0.03464188054203987,
                    0.02186480164527893,
                    0.22979363799095154,
                    0.12167022377252579,
                    -0.15013712644577026,
                    -0.08005248010158539,
                    -0.027412207797169685,
                    0.10684625059366226,
                    0.019825508818030357,
                    -0.03308098390698433,
                    -0.21236883103847504,
                    -0.0002753708977252245,
                    -0.10363912582397461,
                    -0.04464445635676384,
                    -0.24000361561775208,
                    -0.044993966817855835,
                    0.14218461513519287,
                    -0.009710032492876053,
                    0.27935606241226196,
                    0.10125348716974258,
                    0.0552901029586792,
                    -0.08806835114955902,
                    -0.19010908901691437,
                    -0.13141994178295135,
                    -0.004808817990124226,
                    -0.036583755165338516,
                    -0.14228598773479462,
                    -0.0006992040434852242,
                    -0.011686150915920734,
                    -0.06830344349145889,
                    0.13253727555274963,
                    0.21934248507022858,
                    0.18448756635189056,
                    0.10038106888532639,
                    -0.05686718970537186,
                    0.022564774379134178,
                    -0.07039733231067657,
                    0.20808948576450348,
                    -0.2671620547771454,
                    -0.028681635856628418,
                    0.3261326551437378,
                    0.027501164004206657,
                    -0.24642877280712128,
                    0.14350636303424835,
                    -0.13525128364562988,
                    -0.019153133034706116,
                    -0.053736358880996704,
                    -0.02821337804198265,
                    0.04662259295582771,
                    -0.05646465718746185,
                    0.03269267827272415,
                    -0.02843380719423294,
                    0.12553028762340546,
                    0.20777857303619385,
                    -0.027440760284662247,
                    -0.23012220859527588,
                    0.2921816408634186,
                    0.05272820591926575,
                    -0.0845852643251419,
                    -0.19645869731903076,
                    -0.009746498428285122,
                    0.22129572927951813,
                    -0.04530474543571472,
                    -0.1749783158302307,
                    -0.12589813768863678,
                    -0.1583745926618576,
                    0.07690804451704025,
                    -0.2522501051425934,
                    -0.02842249907553196,
                    -0.1296517699956894,
                    0.020157890394330025,
                    0.08785764127969742,
                    -0.11366115510463715,
                    0.03301491588354111,
                    0.0068745543248951435,
                    -0.05888326093554497,
                    0.22254414856433868,
                    0.07625558972358704,
                    -0.030272724106907845,
                    -0.0457208976149559,
                    -0.14987047016620636,
                    -0.01946643553674221,
                    0.32634198665618896,
                    -0.1086726114153862,
                    -0.035246461629867554,
                    0.27167850732803345,
                    0.08767455071210861,
                    -0.128366619348526,
                    0.015719527378678322,
                    0.033682502806186676,
                    0.052120476961135864,
                    0.017290929332375526,
                    -0.058632396161556244,
                    0.028477519750595093,
                    0.0659070760011673,
                    -0.17065739631652832,
                    -0.17437878251075745,
                    0.022234681993722916,
                    -0.13717836141586304,
                    0.2727508842945099,
                    -0.2102784961462021,
                    0.12968409061431885,
                    0.2374253123998642,
                    0.1556786298751831,
                    -0.05880321189761162,
                    0.12080764025449753,
                    0.06844893097877502,
                    -0.3174488842487335,
                    0.11192505806684494,
                    0.05663178861141205,
                    -0.21960096061229706,
                    0.07895180583000183,
                    0.10385891050100327,
                    0.15944460034370422,
                    0.1719382107257843,
                    -0.06709732860326767,
                    0.22793656587600708,
                    -0.22703856229782104,
                    -0.2694508731365204,
                    -0.028119366616010666,
                    -0.2128751575946808,
                    -0.04626276344060898,
                    0.2534402310848236,
                    0.03345079347491264,
                    0.10253582149744034,
                    -0.145302414894104,
                    0.20382536947727203,
                    0.2459438145160675,
                    -0.04104867950081825,
                    0.22532323002815247,
                    0.016875389963388443,
                    0.29734623432159424,
                    -0.15351301431655884,
                    0.16202430427074432,
                    0.1396515816450119,
                    -0.12227082252502441,
                    -0.048579372465610504,
                    -0.1548766791820526,
                    -0.07238420099020004,
                    -0.28572747111320496,
                    0.0027722204104065895,
                    0.16074703633785248,
                    -0.1029885858297348,
                    -0.11469031125307083,
                    0.12893959879875183,
                    -0.45385071635246277,
                    -0.019217614084482193,
                    0.16057343780994415,
                    0.06602637469768524,
                    -0.1434168666601181,
                    0.03630271181464195,
                    -0.1010906919836998,
                    -0.012321692891418934,
                    -0.17338114976882935,
                    0.17704658210277557,
                    -0.14465172588825226,
                    0.060283105820417404,
                    0.15124447643756866,
                    0.007327290717512369,
                    -0.08313873410224915,
                    -0.08535952866077423,
                    0.2182440608739853,
                    0.11012151837348938,
                    -0.22438551485538483,
                    0.15793238580226898,
                    0.06104850769042969,
                    -0.2978903651237488,
                    -0.08999074250459671,
                    0.13163894414901733,
                    0.1902625411748886,
                    -0.03443194180727005,
                    0.0999520942568779,
                    -0.007657183799892664,
                    -0.037780553102493286,
                    -0.044482093304395676,
                    0.13033726811408997,
                    0.08166387677192688,
                    -0.1464897245168686,
                    0.2124507874250412,
                    -0.12692219018936157,
                    -0.09639717638492584,
                    0.1348346769809723,
                    0.07127656042575836,
                    -0.037068530917167664,
                    0.30551785230636597,
                    -0.06101493909955025,
                    -0.18638794124126434,
                    0.06698974221944809,
                    -0.13046768307685852,
                    -0.00761691527441144,
                    -0.009118521586060524,
                    -0.08195377886295319,
                    -0.17828865349292755,
                    0.1699424386024475,
                    -0.006108833011239767,
                    -0.24682022631168365,
                    -0.028270473703742027,
                    0.05973690375685692,
                    0.11916115134954453,
                    -0.024187881499528885,
                    -0.014599442481994629,
                    0.09036179631948471,
                    0.1636526882648468,
                    -0.00581029849126935,
                    0.18095199763774872,
                    -0.15034623444080353,
                    0.1505761742591858,
                    0.023638496175408363,
                    -0.2201816290616989,
                    0.04221383482217789,
                    0.03207405284047127,
                    -0.021252276375889778,
                    -0.2181037813425064,
                    0.31053513288497925,
                    0.155209019780159,
                    -0.2314506471157074,
                    0.12372547388076782,
                    0.19876232743263245,
                    -0.07513434439897537,
                    0.04901823028922081,
                    -0.17138400673866272,
                    -0.24269194900989532,
                    -0.14021152257919312,
                    -0.1528891623020172,
                    -0.12858368456363678,
                    0.13878612220287323,
                    -0.04115108400583267,
                    0.3731701374053955,
                    0.08682824671268463,
                    -0.03398367762565613,
                    -0.2494714856147766,
                    0.14545205235481262,
                    -0.10251183062791824,
                    -0.05172223225235939,
                    0.03349143639206886,
                    0.14188484847545624,
                    -0.16317035257816315,
                    0.12463780492544174,
                    0.06316648423671722,
                    0.11743593961000443,
                    -0.13356277346611023,
                    -0.015137774869799614,
                    0.015778962522745132,
                    -0.07783877849578857,
                    0.07934454083442688,
                    -0.15766195952892303,
                    -0.06893229484558105,
                    -0.06654088199138641,
                    -0.04001809284090996,
                    0.12823937833309174,
                    0.00889498833566904,
                    0.029602207243442535,
                    0.21069608628749847,
                    0.29635298252105713,
                    -0.024848468601703644,
                    -0.08318233489990234,
                    0.10603006929159164,
                    -0.1349198967218399,
                    0.04848751425743103,
                    -0.030422860756516457,
                    0.048603519797325134,
                    0.03467192128300667,
                    -0.1610586941242218,
                    0.25726187229156494,
                    0.06614594906568527,
                    -0.01764015108346939,
                    -0.031305942684412,
                    -0.07584138959646225,
                    -0.14493456482887268,
                    0.12477380037307739,
                    -0.28513002395629883,
                    -0.00713068712502718,
                    0.11889932304620743,
                    0.2404043823480606,
                    0.17685900628566742,
                    -0.09196902066469193,
                    -0.15958385169506073,
                    0.029010241851210594,
                    0.1404932290315628,
                    0.04790399223566055,
                    -0.2123735100030899,
                    0.02894347719848156,
                    -0.07100661098957062,
                    -0.014549252577126026,
                    -0.17105987668037415,
                    0.05337474122643471,
                    0.15385784208774567,
                    -0.08166470378637314,
                    -0.13874150812625885,
                    0.09022758901119232,
                    -0.10141956061124802,
                    -0.06347097456455231,
                    -0.16186726093292236,
                    -0.062027230858802795,
                    -0.0976458191871643,
                    0.08254896104335785,
                    0.04435962438583374,
                    0.40073344111442566,
                    -0.08043187856674194,
                    -0.08318673074245453,
                    -0.14474855363368988,
                    0.21339234709739685,
                    0.19585968554019928,
                    0.08673974126577377,
                    0.07636471092700958,
                    -0.02455759048461914,
                    0.04843601584434509,
                    -0.009013723582029343,
                    0.16765551269054413,
                    0.17599089443683624,
                    -0.30530664324760437,
                    0.1051856279373169,
                    0.06070484593510628,
                    -0.05033685639500618,
                    0.07295212149620056,
                    0.08929058909416199,
                    -0.0701630562543869,
                    -0.06380464136600494,
                    0.06699076294898987,
                    0.04343186691403389,
                    0.019648613408207893,
                    0.07158174365758896,
                    0.23073339462280273,
                    -0.2388407438993454,
                    0.16834034025669098,
                    -0.09769365191459656,
                    0.026625869795680046,
                    -0.05236145481467247,
                    -0.06248840317130089,
                    0.1541658341884613,
                    0.12366746366024017,
                    0.2164936363697052,
                    0.18811771273612976,
                    0.14654640853405,
                    -0.03961361572146416,
                    -0.10456808656454086,
                    -0.053840141743421555,
                    0.08050978183746338,
                    0.02372881956398487,
                    -0.1319105476140976,
                    0.04146433249115944,
                    -0.06304693967103958,
                    -0.11713998019695282,
                    -0.023660732433199883,
                    0.16120687127113342,
                    -0.11988978832960129,
                    -0.1426493525505066,
                    -0.08001548051834106,
                    -0.05213615298271179,
                    0.07510867714881897,
                    0.052432745695114136,
                    0.11262016743421555,
                    0.009997522458434105,
                    0.21419575810432434,
                    0.1082935705780983,
                    0.25296851992607117,
                    -0.05807975307106972,
                    -0.0641467422246933,
                    0.11309349536895752,
                    0.026573335751891136,
                    -0.16201403737068176,
                    0.0870450884103775,
                    -0.06885673105716705,
                    0.10546427220106125,
                    0.05813444405794144,
                    -0.17670276761054993,
                    0.09194087237119675,
                    0.1530608981847763,
                    0.02687332220375538,
                    0.0016978360945358872,
                    -0.004963889252394438,
                    0.07819235324859619,
                    -0.021678408607840538,
                    0.01683865301311016,
                    0.008011789992451668,
                    0.36374276876449585,
                    -0.058179955929517746,
                    0.24357332289218903,
                    0.1305065006017685,
                    0.044900570064783096,
                    -0.003030484076589346,
                    -0.22287234663963318,
                    -0.021998144686222076,
                    0.00954720564186573,
                    -0.2892381548881531,
                    -0.019983194768428802,
                    -0.01008039340376854,
                    0.07188262790441513,
                    -0.07743917405605316,
                    0.1583535224199295,
                    -0.10355336964130402,
                    0.11812420189380646,
                    0.2884974777698517,
                    -0.1560661494731903,
                    0.017895987257361412,
                    -0.007372852880507708,
                    -0.05055367201566696,
                    -0.0022113134618848562,
                    0.24651215970516205,
                    0.05366629362106323,
                    0.008749575354158878,
                    -0.36501002311706543,
                    0.029919708147644997,
                    -0.20396685600280762,
                    -0.033025968819856644,
                    -0.2790772318840027,
                    0.04802395775914192,
                    -0.1581953465938568,
                    0.20197738707065582,
                    -0.029646122828125954,
                    -0.0971548780798912,
                    -0.013572045601904392,
                    -0.001929356367327273,
                    0.2312476485967636,
                    0.13553331792354584,
                    0.16569776833057404,
                    0.17807038128376007,
                    0.11570349335670471,
                    -0.028418151661753654,
                    -0.04112595319747925,
                    -0.06261276453733444,
                    -0.12223021686077118,
                    -0.0983881875872612,
                    0.03217173367738724,
                    -0.05204342305660248,
                    -0.06312291324138641,
                    0.11986108869314194,
                    0.039139311760663986,
                    0.009666718542575836,
                    -0.1991109997034073,
                    -0.005185946822166443,
                    -0.179864302277565,
                    0.09965550154447556,
                    -0.05332212150096893,
                    -0.05845353379845619,
                    -0.09365061670541763,
                    -0.195408433675766,
                    0.06978844851255417,
                    0.07672260701656342,
                    -0.050119731575250626,
                    -0.08630505949258804,
                    -0.006811864674091339,
                    -0.014644297771155834,
                    0.05709114298224449,
                    0.030437517911195755,
                    0.06495396047830582,
                    -0.06664233654737473,
                    -0.09388726949691772,
                    0.30779531598091125,
                    -0.20924901962280273,
                    -0.1469944268465042,
                    0.08470609784126282,
                    -0.020084891468286514,
                    -0.355682373046875,
                    -0.18550026416778564,
                    -0.15924552083015442,
                    0.3123660683631897,
                    -0.09152808785438538,
                    0.11584767699241638,
                    0.25918424129486084,
                    -0.051214855164289474,
                    0.00879801157861948,
                    -0.07244694977998734,
                    0.16270342469215393,
                    -0.02307037264108658,
                    0.2877105474472046,
                    -0.14138194918632507,
                    -0.23557685315608978,
                    -0.10444844514131546,
                    0.03696201369166374,
                    0.2507255971431732,
                    0.1204257532954216,
                    -0.09282730519771576,
                    0.29092979431152344,
                    -0.020098460838198662,
                    -0.09647747129201889,
                    0.0030709265265613794,
                    -0.01109069399535656,
                    -0.18746031820774078,
                    -0.16296187043190002,
                    0.0012357295490801334,
                    -0.2597506046295166,
                    0.06255266815423965,
                    0.09017965942621231,
                    -0.17649346590042114,
                    0.12947037816047668,
                    -0.23972707986831665,
                    -0.14086724817752838,
                    0.07779008150100708,
                    0.07703649997711182,
                    0.1496918648481369,
                    -0.2532769739627838,
                    0.14337943494319916,
                    0.006799423601478338,
                    -0.07296789437532425,
                    -0.18707627058029175,
                    -0.2131148874759674,
                    0.0992264524102211,
                    -0.03603271767497063,
                    0.004890006966888905,
                    0.06656809896230698,
                    0.07754211127758026,
                    -0.2621705234050751,
                    -0.16676393151283264,
                    0.15822868049144745,
                    0.07631372660398483,
                    -0.06390848010778427,
                    0.12456770241260529,
                    -0.15826186537742615,
                    0.022308381274342537,
                    0.03152504563331604,
                    0.12731949985027313,
                    -0.07225025445222855,
                    0.043129123747348785,
                    0.034575339406728745,
                    0.1465989351272583,
                    -0.02598579227924347,
                    -0.12996312975883484,
                    -0.03007476218044758,
                    0.1564527153968811,
                    -0.24947449564933777,
                    -0.0804869681596756,
                    0.013165988959372044,
                    0.20477646589279175,
                    -0.15785564482212067,
                    0.06258479505777359,
                    -0.19846440851688385,
                    -0.11403192579746246,
                    0.07123704999685287,
                    -0.03587999939918518,
                    -0.06852717697620392,
                    -0.070560023188591,
                    -0.009140758775174618,
                    -0.13111428916454315,
                    0.07124066352844238,
                    -0.0015278708888217807,
                    -0.12972082197666168,
                    -0.09038984775543213,
                    -0.07954969257116318,
                    -0.012954688630998135,
                    0.015196964144706726,
                    0.0789443626999855,
                    0.055035535246133804,
                    0.06878961622714996,
                    -0.1690341830253601,
                    0.17892928421497345,
                    -0.009367219172418118,
                    0.19439664483070374,
                    0.052306536585092545,
                    -0.1266704499721527,
                    0.11461801826953888,
                    -0.04870900139212608,
                    0.0012918149586766958,
                    -0.3126547336578369,
                    -0.1070876196026802,
                    0.22612465918064117,
                    0.10776296257972717,
                    -0.04230569675564766,
                    0.27285638451576233,
                    -0.1287580132484436,
                    -0.027148034423589706,
                    0.09736047685146332,
                    0.0834270715713501,
                    0.11644726246595383,
                    -0.19463148713111877,
                    -0.09353693574666977,
                    0.00945975724607706,
                    -0.11490101367235184,
                    -0.1030331626534462,
                    0.06869203597307205,
                    0.004954412113875151,
                    -0.0005574114620685577,
                    -0.011772259138524532,
                    -0.06307437270879745,
                    -0.13335467875003815,
                    0.12230084091424942,
                    0.055840108543634415,
                    -0.22711621224880219,
                    -0.1892392486333847,
                    -0.1525392383337021,
                    -0.0318937748670578,
                    -0.44634902477264404,
                    -0.09116924554109573,
                    0.06867518275976181,
                    0.10734781622886658,
                    0.001982208574190736,
                    -0.12521909177303314,
                    0.2704584002494812,
                    0.05173947289586067,
                    0.07039980590343475,
                    0.019587954506278038,
                    0.03424026444554329,
                    -0.01845908723771572,
                    0.2458163946866989,
                    0.14384393393993378,
                    -0.09512413293123245,
                    -0.23994258046150208,
                    -0.09816412627696991,
                    0.19639399647712708,
                    0.262696236371994,
                    -0.0765981376171112,
                    -0.0009132092818617821,
                    -0.047751881182193756,
                    -0.15755164623260498,
                    -0.21892467141151428,
                    0.09088823199272156,
                    0.04069953411817551,
                    -0.0216565802693367,
                    -0.03591374680399895,
                    -0.0721655935049057,
                    -0.06208648905158043,
                    0.07239414006471634,
                    0.12815620005130768,
                    0.1337437927722931,
                    -0.05447635054588318,
                    -0.1182619258761406,
                    0.24202699959278107,
                    0.04401956871151924,
                    -0.1215125098824501,
                    0.04516537860035896,
                    -0.05227721855044365,
                    -0.0348605178296566,
                    -0.007582744117826223,
                    0.12293881922960281,
                    0.16368912160396576,
                    -0.0253017358481884,
                    -0.05443147197365761,
                    -0.1899372935295105,
                    0.031174933537840843,
                    -0.08688360452651978,
                    0.019861942157149315,
                    -0.2068021297454834,
                    -0.02859879657626152,
                    0.033536896109580994,
                    0.024955524131655693,
                    -0.22793453931808472,
                    -0.08000629395246506,
                    0.13880477845668793,
                    -0.018442664295434952,
                    -0.07728689908981323,
                    -0.1938406378030777,
                    -0.09476040303707123,
                    -0.07601206004619598,
                    -0.024431897327303886,
                    -0.04009179398417473,
                    -0.04436122998595238,
                    0.16022300720214844,
                    -0.168015256524086,
                    0.05251021310687065,
                    0.20290425419807434,
                    -0.09007559716701508,
                    -0.09940169751644135,
                    -0.06517621129751205,
                    0.09380519390106201,
                    0.06293691694736481,
                    0.015682892873883247,
                    -0.19938014447689056,
                    0.03089175745844841,
                    0.002869323128834367,
                    0.2000955045223236,
                    -0.007764187175780535,
                    0.10202004760503769,
                    -0.09823378920555115,
                    -0.083072230219841,
                    0.2369624823331833,
                    -0.0952364131808281,
                    0.05562411993741989,
                    0.2079380303621292,
                    0.11405353248119354,
                    -0.01307112816721201,
                    -0.05257797986268997,
                    -0.21168747544288635,
                    -0.17071282863616943,
                    -0.04000434651970863,
                    0.22785283625125885,
                    0.12124373763799667,
                    0.1327980011701584,
                    0.24152123928070068,
                    -0.09854909777641296,
                    -0.24601884186267853,
                    0.03439869359135628,
                    -0.2504393756389618,
                    -0.1863672137260437,
                    0.15739412605762482,
                    0.042497579008340836,
                    -0.04102480784058571,
                    -0.016213122755289078,
                    -0.07482718676328659,
                    -0.001631725812330842,
                    -0.08359577506780624,
                    -0.15306268632411957,
                    0.07055933773517609,
                    -0.10140056908130646,
                    0.03144736588001251,
                    -0.13877789676189423,
                    -0.08046369254589081,
                    -0.022325433790683746,
                    -0.16402865946292877,
                    -0.15575654804706573,
                    -0.11448511481285095,
                    -0.048943568021059036,
                    0.2263222336769104,
                    0.13280467689037323,
                    -0.016698462888598442,
                    0.12571930885314941,
                    0.04594627395272255,
                    -0.07802483439445496,
                    -0.1237005814909935,
                    -0.1464012712240219,
                    -0.38019073009490967,
                    -0.07906695455312729,
                    0.16094619035720825,
                    -0.16133162379264832,
                    -0.13910728693008423,
                    0.17235831916332245,
                    0.049772631376981735,
                    0.030853336676955223,
                    -0.010055703110992908,
                    -0.20295391976833344,
                    0.1950359344482422,
                    -0.1505085825920105,
                    0.15394757688045502,
                    0.2978927195072174,
                    0.1565828174352646,
                    0.18855911493301392,
                    0.03131560981273651,
                    -0.10542406141757965,
                    0.010495255701243877,
                    0.043461285531520844,
                    0.32378894090652466,
                    0.0549289807677269,
                    -0.25853225588798523,
                    -0.04096005856990814,
                    -0.099943608045578,
                    -0.028692539781332016,
                    0.01626599393785,
                    0.017988959327340126,
                    -0.005175693426281214,
                    0.07831598073244095,
                    0.170303076505661,
                    0.17175713181495667,
                    0.23697957396507263,
                    0.01607508212327957,
                    -0.06546121835708618,
                    -0.005831282120198011,
                    0.25480854511260986,
                    0.11451829969882965,
                    0.0923919528722763,
                    -0.1550881564617157,
                    -0.0351477712392807,
                    -0.06359326094388962,
                    0.1758788377046585,
                    -0.030107304453849792,
                    0.07843900471925735,
                    0.2969459295272827,
                    0.07602249085903168,
                    0.09755858778953552,
                    -0.16341730952262878,
                    -0.12126220762729645,
                    -0.09046993404626846,
                    0.21234416961669922,
                    -0.2254474014043808,
                    -0.15007483959197998,
                    -0.09199433028697968,
                    -0.2006881833076477,
                    0.04596872255206108,
                    0.07729113847017288,
                    0.01913178153336048,
                    -0.13488782942295074,
                    0.23715493083000183,
                    0.08004467189311981,
                    -0.05542096123099327,
                    -0.006949800066649914,
                    0.40721607208251953,
                    0.12488680332899094,
                    -0.007592996582388878,
                    0.033244818449020386,
                    -0.045369066298007965,
                    0.0350988507270813,
                    -0.23629935085773468,
                    -0.051142819225788116,
                    0.10208721458911896,
                    0.1763942390680313,
                    -0.23870377242565155,
                    -0.19293229281902313,
                    -0.09249062091112137,
                    0.06592778116464615,
                    -0.01280142180621624,
                    0.10596521198749542,
                    0.315677285194397,
                    -0.18825460970401764,
                    0.06520789861679077,
                    -0.12996868789196014,
                    -0.21882791817188263,
                    -0.05725952982902527,
                    -0.12542101740837097,
                    0.00611498486250639,
                    -0.14223723113536835,
                    0.19540643692016602,
                    0.09062161296606064,
                    -0.01827135495841503,
                    0.056960005313158035,
                    0.046528007835149765,
                    -0.09393692016601562,
                    -0.010013223625719547,
                    -0.030889252200722694,
                    0.012799013406038284,
                    -0.009170005097985268,
                    0.0552615188062191,
                    -0.05911692604422569,
                    0.07308341562747955,
                    0.3177031874656677,
                    -0.005214005708694458,
                    -0.24924856424331665,
                    -0.24633972346782684,
                    -0.0015138693852350116,
                    -0.08486509323120117,
                    -0.10305517911911011,
                    0.09128443151712418,
                    -0.11896172910928726,
                    -0.27380868792533875,
                    -0.12526026368141174,
                    0.4383579194545746,
                    -0.14059875905513763,
                    0.02697059139609337,
                    -0.19253282248973846,
                    -0.17028182744979858,
                    -0.10531065613031387,
                    0.11028382927179337,
                    -0.01314783189445734,
                    -0.061527084559202194,
                    -0.0034354731906205416,
                    0.19935423135757446,
                    -0.19052323698997498,
                    -0.0857727900147438,
                    -0.03240066021680832,
                    0.013326801359653473,
                    0.1372794359922409,
                    -0.016587259247899055,
                    0.1286540925502777,
                    0.38826918601989746,
                    -0.08148173987865448,
                    0.0556761659681797,
                    0.07272706925868988,
                    0.0813727155327797,
                    -0.2334773689508438,
                    0.07089247554540634,
                    0.24412651360034943,
                    -0.020598214119672775,
                    -0.0555228553712368,
                    -0.2784104347229004,
                    0.17132039368152618,
                    -0.1792413294315338,
                    -0.1386866271495819,
                    0.3132585287094116,
                    0.11415229737758636,
