[
    {
        "class": "keras.layers.normalization.batch_normalization.BatchNormalization",
        "config": {
            "name": "batch_normalization",
            "trainable": true,
            "dtype": "float32",
            "axis": [
                1
            ],
            "momentum": 0.99,
            "epsilon": 0.001,
            "center": true,
            "scale": true,
            "beta_initializer": {
                "class_name": "Zeros",
                "config": {}
            },
            "gamma_initializer": {
                "class_name": "Ones",
                "config": {}
            },
            "moving_mean_initializer": {
                "class_name": "Zeros",
                "config": {}
            },
            "moving_variance_initializer": {
                "class_name": "Ones",
                "config": {}
            },
            "beta_regularizer": null,
            "gamma_regularizer": null,
            "beta_constraint": null,
            "gamma_constraint": null
        },
        "weights": [
            {
                "_type": "ndarray",
                "shape": [
                    2
                ],
                "dtype": "float32",
                "data": [
                    0.9955832958221436,
                    1.0319302082061768
                ]
            },
            {
                "_type": "ndarray",
                "shape": [
                    2
                ],
                "dtype": "float32",
                "data": [
                    -0.022433819249272346,
                    0.018295668065547943
                ]
            },
            {
                "_type": "ndarray",
                "shape": [
                    2
                ],
                "dtype": "float32",
                "data": [
                    0.0,
                    0.0
                ]
            },
            {
                "_type": "ndarray",
                "shape": [
                    2
                ],
                "dtype": "float32",
                "data": [
                    1.0,
                    1.0
                ]
            }
        ]
    },
    {
        "class": "keras.layers.core.dense.Dense",
        "config": {
            "name": "dense",
            "trainable": true,
            "dtype": "float32",
            "units": 64,
            "activation": "tanh",
            "use_bias": true,
            "kernel_initializer": {
                "class_name": "GlorotUniform",
                "config": {
                    "seed": null
                }
            },
            "bias_initializer": {
                "class_name": "Zeros",
                "config": {}
            },
            "kernel_regularizer": null,
            "bias_regularizer": null,
            "activity_regularizer": null,
            "kernel_constraint": null,
            "bias_constraint": null
        },
        "weights": [
            {
                "_type": "ndarray",
                "shape": [
                    2,
                    64
                ],
                "dtype": "float32",
                "data": [
                    0.003215588629245758,
                    -0.0007243911386467516,
                    0.29622146487236023,
                    -0.00017606552864890546,
                    0.15910282731056213,
                    0.0004488284175749868,
                    0.053818754851818085,
                    9.684764518169686e-05,
                    -0.33889320492744446,
                    1.7158008631668054e-05,
                    2.6858806450036354e-05,
                    -7.702795846853405e-05,
                    0.14165036380290985,
                    0.06446307897567749,
                    -0.000155479516251944,
                    -0.0007340079755522311,
                    1.2796467672160361e-05,
                    0.02723097987473011,
                    0.5285396575927734,
                    -0.6444115042686462,
                    -0.04878872260451317,
                    0.4856771230697632,
                    -0.3155832886695862,
                    -0.21806174516677856,
                    0.1931033581495285,
                    -0.389365017414093,
                    0.00012592770508490503,
                    -1.63170880114194e-05,
                    -0.000185679760761559,
                    0.04681478068232536,
                    -0.4452916085720062,
                    -0.0004895442398265004,
                    -0.00012177387543488294,
                    -0.11103274673223495,
                    3.598819603212178e-05,
                    -0.055652786046266556,
                    0.21027837693691254,
                    -3.272297908551991e-05,
                    -0.5427694916725159,
                    -0.0003373779763933271,
                    -0.00012532563414424658,
                    -0.00019485660595819354,
                    0.28082889318466187,
                    -0.028963420540094376,
                    -0.11997488141059875,
                    -0.0849054828286171,
                    0.17453159391880035,
                    -0.22816874086856842,
                    -0.00014000498049426824,
                    0.6200401186943054,
                    0.3103139102458954,
                    -0.00010873984865611419,
                    0.00014384514361154288,
                    -3.451349402894266e-05,
                    -0.6923158168792725,
                    0.10587877035140991,
                    0.49133336544036865,
                    -0.000334162701619789,
                    0.0005290478584356606,
                    -0.00013599118392448872,
                    0.00016967936244327575,
                    -0.06699817627668381,
                    -0.00010330134682590142,
                    7.487527909688652e-05,
                    0.0028616597410291433,
                    -0.0009629843989387155,
                    -0.1114073321223259,
                    -0.0002062823186861351,
                    0.13748781383037567,
                    0.0005759824416600168,
                    0.20741738379001617,
                    0.0001473529846407473,
                    -0.05814995616674423,
                    0.0004584261041600257,
                    4.5456356019712985e-05,
                    -0.00010312131053069606,
                    -0.5335387587547302,
                    0.19214098155498505,
                    -0.00019701251585502177,
                    -0.00098378153052181,
                    2.9945505957584828e-05,
                    0.8478899002075195,
                    0.07018204778432846,
                    -0.07138821482658386,
                    -0.4951622486114502,
                    -0.023278838023543358,
                    0.27111735939979553,
                    0.1812930554151535,
                    0.1052391529083252,
                    0.4309491813182831,
                    0.00017982764984481037,
                    0.0006399360718205571,
                    -0.00021309888688847423,
                    0.6686491370201111,
                    0.40561240911483765,
                    -0.0006027935305610299,
                    -0.0001646579330554232,
                    -0.20283707976341248,
                    5.952971332590096e-05,
                    -0.24611765146255493,
                    0.093729667365551,
                    -5.1041315600741655e-05,
                    0.1586674600839615,
                    -0.0004156207724008709,
                    -0.00016630144091323018,
                    -0.0002309030678588897,
                    0.2403254508972168,
                    -0.4243178069591522,
                    -0.2378792017698288,
                    0.28956153988838196,
                    -0.04462862014770508,
                    0.4043477475643158,
                    -0.00034575219615362585,
                    0.17603617906570435,
                    0.3975062072277069,
                    -0.00015205932140816003,
                    0.006603891495615244,
                    -4.663494473788887e-05,
                    -0.06829303503036499,
                    0.2351277470588684,
                    -0.002928938018158078,
                    -0.00042168417712673545,
                    0.0007048030383884907,
                    -0.00020616260007955134,
                    0.00022627967700827867,
                    -0.2511100769042969,
                    -0.0001400942273903638,
                    0.00011016336793545634
                ]
            },
            {
                "_type": "ndarray",
                "shape": [
                    64
                ],
                "dtype": "float32",
                "data": [
                    -0.0013413733104243875,
                    0.028066733852028847,
                    0.0770377591252327,
                    0.004945894703269005,
                    0.058443162590265274,
                    -0.04477343708276749,
                    0.09573083370923996,
                    -0.020675715059041977,
                    -0.043820347636938095,
                    0.12111364305019379,
                    0.0387105867266655,
                    -0.01885053887963295,
                    -0.31329450011253357,
                    -0.07530207931995392,
                    -0.014722771942615509,
                    -0.03365149721503258,
                    0.001869721687398851,
                    0.6151992082595825,
                    -0.2826083302497864,
                    0.3891099989414215,
                    0.18136852979660034,
                    -0.15207380056381226,
                    -0.18125192821025848,
                    0.09292454272508621,
                    -0.16468456387519836,
                    0.2579916715621948,
                    0.042453911155462265,
                    -0.04580780863761902,
                    0.0031525820959359407,
                    0.4590085446834564,
                    -0.2628116011619568,
                    0.012869306840002537,
                    0.029327526688575745,
                    0.061503760516643524,
                    -0.007862874306738377,
                    0.013936106115579605,
                    -0.025399653241038322,
                    0.023804081603884697,
                    -0.28378501534461975,
                    0.00395802641287446,
                    0.013475344516336918,
                    -0.0326908677816391,
                    0.11880657076835632,
                    0.03323310241103172,
                    0.024568650871515274,
                    0.093064084649086,
                    0.06748306006193161,
                    -0.17690984904766083,
                    -0.012563759461045265,
                    -0.36822614073753357,
                    0.27962052822113037,
                    -0.009353728964924812,
                    0.008694746531546116,
                    -0.00735213840380311,
                    0.43781012296676636,
                    -0.0020932694897055626,
                    -0.20027731359004974,
                    0.02108881063759327,
                    -0.029170162975788116,
                    -0.056402791291475296,
                    0.008182834833860397,
                    -0.019439876079559326,
                    -0.0026976652443408966,
                    0.03243193030357361
                ]
            }
        ]
    },
    {
        "class": "keras.layers.normalization.batch_normalization.BatchNormalization",
        "config": {
            "name": "batch_normalization_1",
            "trainable": true,
            "dtype": "float32",
            "axis": [
                1
            ],
            "momentum": 0.99,
            "epsilon": 0.001,
            "center": true,
            "scale": true,
            "beta_initializer": {
                "class_name": "Zeros",
                "config": {}
            },
            "gamma_initializer": {
                "class_name": "Ones",
                "config": {}
            },
            "moving_mean_initializer": {
                "class_name": "Zeros",
                "config": {}
            },
            "moving_variance_initializer": {
                "class_name": "Ones",
                "config": {}
            },
            "beta_regularizer": null,
            "gamma_regularizer": null,
            "beta_constraint": null,
            "gamma_constraint": null
        },
        "weights": [
            {
                "_type": "ndarray",
                "shape": [
                    64
                ],
                "dtype": "float32",
                "data": [
                    0.0017920241225510836,
                    0.15620194375514984,
                    0.6750485301017761,
                    0.10672058165073395,
                    0.5497744083404541,
                    0.13492868840694427,
                    0.5519808530807495,
                    0.39894092082977295,
                    0.8285932540893555,
                    0.11476509273052216,
                    0.3005053699016571,
                    0.2554607093334198,
                    0.8319220542907715,
                    0.27324292063713074,
                    0.11198125034570694,
                    0.11817589402198792,
                    0.26775598526000977,
                    1.468188762664795,
                    0.802014172077179,
                    0.8670521974563599,
                    1.002853512763977,
                    0.9058483839035034,
                    0.6945043206214905,
                    0.7051253318786621,
                    0.35606035590171814,
                    1.0176372528076172,
                    0.33716410398483276,
                    0.08458958566188812,
                    0.0981849730014801,
                    1.1447961330413818,
                    1.124363660812378,
                    0.10599873960018158,
                    0.2562425136566162,
                    0.5329909920692444,
                    0.249312624335289,
                    0.6365612745285034,
                    0.5803447961807251,
                    0.25301629304885864,
                    1.0697029829025269,
                    0.09677495807409286,
                    0.089664027094841,
                    0.11981800198554993,
                    0.7258981466293335,
                    0.8721148371696472,
                    0.6587139964103699,
                    0.7839522361755371,
                    0.4298565685749054,
                    0.8596581816673279,
                    0.01178570743650198,
                    0.857357382774353,
                    0.622215747833252,
                    0.18893608450889587,
                    0.005603991448879242,
                    0.45244571566581726,
                    1.104683756828308,
                    0.5979124903678894,
                    0.8893730044364929,
                    0.12738440930843353,
                    0.19950923323631287,
                    0.29790589213371277,
                    0.16107189655303955,
                    0.6453883051872253,
                    0.11841520667076111,
                    0.33798709511756897
                ]
            },
            {
                "_type": "ndarray",
                "shape": [
                    64
                ],
                "dtype": "float32",
                "data": [
                    -5.379241338232532e-05,
                    -0.0042539965361356735,
                    -0.06118704378604889,
                    -0.0005215098499320447,
                    -0.03229570388793945,
                    0.005968067795038223,
                    -0.027149364352226257,
                    0.008241541683673859,
                    0.06688201427459717,
                    -0.014231330715119839,
                    -0.011619695462286472,
                    0.004813275765627623,
                    -0.023875007405877113,
                    0.0339253731071949,
                    0.0016668529715389013,
                    0.0041070012375712395,
                    -0.0005048654275014997,
                    0.23604552447795868,
                    -0.05245935544371605,
                    0.06148349493741989,
                    -0.0009887637570500374,
                    -0.025548972189426422,
                    0.04635137319564819,
                    0.023663559928536415,
                    0.05012694001197815,
                    0.09183129668235779,
                    -0.014305305667221546,
                    0.0032377217430621386,
                    -0.00031136287725530565,
                    0.10303226858377457,
                    -0.045295245945453644,
                    -0.0013025481021031737,
                    -0.007497160695493221,
                    -0.04924090951681137,
                    0.0019527008989825845,
                    -0.045879993587732315,
                    -0.006102344486862421,
                    -0.006019851192831993,
                    -0.01840459369122982,
                    -0.0003464946348685771,
                    -0.0011823945678770542,
                    0.003927019890397787,
                    -0.008779496885836124,
                    -0.07429413497447968,
                    -0.04152821749448776,
                    0.011094405315816402,
                    -0.04884503036737442,
                    -0.049156270921230316,
                    0.0001200697515741922,
                    -0.09660646319389343,
                    -0.013798621483147144,
                    0.001775587210431695,
                    0.00011697055015247315,
                    0.003318097908049822,
                    0.08143812417984009,
                    0.02387128211557865,
                    -0.017526615411043167,
                    -0.002642636885866523,
                    0.005721929017454386,
                    0.016787821426987648,
                    -0.0013325813924893737,
                    -0.021259300410747528,
                    0.0003361174603924155,
                    -0.010950841009616852
                ]
            },
            {
                "_type": "ndarray",
                "shape": [
                    64
                ],
                "dtype": "float32",
                "data": [
                    0.0,
                    0.0,
                    0.0,
                    0.0,
                    0.0,
                    0.0,
                    0.0,
                    0.0,
                    0.0,
                    0.0,
                    0.0,
                    0.0,
                    0.0,
                    0.0,
                    0.0,
                    0.0,
                    0.0,
                    0.0,
                    0.0,
                    0.0,
                    0.0,
                    0.0,
                    0.0,
                    0.0,
                    0.0,
                    0.0,
                    0.0,
                    0.0,
                    0.0,
                    0.0,
                    0.0,
                    0.0,
                    0.0,
                    0.0,
                    0.0,
                    0.0,
                    0.0,
                    0.0,
                    0.0,
                    0.0,
                    0.0,
                    0.0,
                    0.0,
                    0.0,
                    0.0,
                    0.0,
                    0.0,
                    0.0,
                    0.0,
                    0.0,
                    0.0,
                    0.0,
                    0.0,
                    0.0,
                    0.0,
                    0.0,
                    0.0,
                    0.0,
                    0.0,
                    0.0,
                    0.0,
                    0.0,
                    0.0,
                    0.0
                ]
            },
            {
                "_type": "ndarray",
                "shape": [
                    64
                ],
                "dtype": "float32",
                "data": [
                    1.0,
                    1.0,
                    1.0,
                    1.0,
                    1.0,
                    1.0,
                    1.0,
                    1.0,
                    1.0,
                    1.0,
                    1.0,
                    1.0,
                    1.0,
                    1.0,
                    1.0,
                    1.0,
                    1.0,
                    1.0,
                    1.0,
                    1.0,
                    1.0,
                    1.0,
                    1.0,
                    1.0,
                    1.0,
                    1.0,
                    1.0,
                    1.0,
                    1.0,
                    1.0,
                    1.0,
                    1.0,
                    1.0,
                    1.0,
                    1.0,
                    1.0,
                    1.0,
                    1.0,
                    1.0,
                    1.0,
                    1.0,
                    1.0,
                    1.0,
                    1.0,
                    1.0,
                    1.0,
                    1.0,
                    1.0,
                    1.0,
                    1.0,
                    1.0,
                    1.0,
                    1.0,
                    1.0,
                    1.0,
                    1.0,
                    1.0,
                    1.0,
                    1.0,
                    1.0,
                    1.0,
                    1.0,
                    1.0,
                    1.0
                ]
            }
        ]
    },
    {
        "class": "keras.layers.core.dense.Dense",
        "config": {
            "name": "dense_1",
            "trainable": true,
            "dtype": "float32",
            "units": 64,
            "activation": "tanh",
            "use_bias": true,
            "kernel_initializer": {
                "class_name": "GlorotUniform",
                "config": {
                    "seed": null
                }
            },
            "bias_initializer": {
                "class_name": "Zeros",
                "config": {}
            },
            "kernel_regularizer": null,
            "bias_regularizer": null,
            "activity_regularizer": null,
            "kernel_constraint": null,
            "bias_constraint": null
        },
        "weights": [
            {
                "_type": "ndarray",
                "shape": [
                    64,
                    64
                ],
                "dtype": "float32",
                "data": [
                    0.060430873185396194,
                    -0.13861721754074097,
                    -0.23910902440547943,
                    0.0006822815048508346,
                    0.16995738446712494,
                    -0.07817494124174118,
                    0.002053759526461363,
                    -0.18173296749591827,
                    0.0629865750670433,
                    -0.1525833159685135,
                    0.0005498097161762416,
                    -0.0010651503689587116,
                    -0.0023741864133626223,
                    0.0012867451878264546,
                    -0.07628143578767776,
                    -0.000982140307314694,
                    -0.1396554410457611,
                    0.14996127784252167,
                    -0.0007374772685579956,
                    0.010995477437973022,
                    -0.10843869298696518,
                    -0.13617904484272003,
                    0.15396647155284882,
                    0.05320613831281662,
                    -0.010583583265542984,
                    -0.19155649840831757,
                    0.0003855696995742619,
                    -0.21259160339832306,
                    -0.00034338029217906296,
                    -0.002144202822819352,
                    -0.11536557227373123,
                    0.0677870512008667,
                    -0.06375633180141449,
                    -0.0528433658182621,
                    0.05512632057070732,
                    -0.029909329488873482,
                    0.023363027721643448,
                    0.04802960529923439,
                    -0.27221018075942993,
                    -0.0011845228727906942,
                    -0.001106332172639668,
                    0.13372300565242767,
                    0.17169861495494843,
                    -0.20613078773021698,
                    0.062377117574214935,
                    -0.14972573518753052,
                    0.08856645226478577,
                    -0.08563000708818436,
                    0.2436085045337677,
                    0.06785130500793457,
                    -0.31077438592910767,
                    0.033317361027002335,
                    -0.06435070931911469,
                    0.1091758981347084,
                    -0.010850032791495323,
                    0.24178603291511536,
                    0.07360166311264038,
                    -0.1002172976732254,
                    0.0007099289796315134,
                    0.05699155852198601,
                    -0.00031728987232781947,
                    0.2109483927488327,
                    0.05316969007253647,
                    -0.03882177919149399,
                    -0.12405552715063095,
                    0.04015364497900009,
                    -0.06479941308498383,
                    0.008528826758265495,
                    0.2794591784477234,
                    0.015518095344305038,
                    0.020566942170262337,
                    -0.17389988899230957,
                    0.0245052520185709,
                    0.13937722146511078,
                    0.0018670700956135988,
                    -0.0041402061469852924,
                    0.005945553537458181,
                    0.013682269491255283,
                    -0.23804037272930145,
                    -0.00032236590050160885,
                    0.08793451637029648,
                    0.16639253497123718,
                    0.0006886004703119397,
                    -0.056421563029289246,
                    0.06337344646453857,
                    -0.08674792945384979,
                    0.15474776923656464,
                    0.018841221928596497,
                    -0.24600796401500702,
                    0.2005501687526703,
                    0.006574147380888462,
                    0.17614158987998962,
                    -0.0013992354506626725,
                    0.0004242302675265819,
                    0.10674218088388443,
                    -0.18729431927204132,
                    0.15776389837265015,
                    -0.10257022827863693,
                    -0.15049712359905243,
                    0.06251327693462372,
                    0.02501167170703411,
                    0.10317836701869965,
                    -0.19003558158874512,
                    0.002648012712597847,
                    -0.005999179556965828,
                    0.031378649175167084,
                    -0.15887123346328735,
                    0.16205118596553802,
                    -0.01986563950777054,
                    -0.09990210086107254,
                    -0.09913172572851181,
                    0.18396565318107605,
                    0.09525268524885178,
                    0.05082548409700394,
                    0.14034011960029602,
                    -0.058008793741464615,
                    -0.03280078247189522,
                    0.16487549245357513,
                    0.1267799735069275,
                    -0.13281549513339996,
                    -0.06585440039634705,
                    0.09491288661956787,
                    -0.0008682458428665996,
                    0.1083046942949295,
                    0.002775956643745303,
                    0.15254078805446625,
                    0.188288152217865,
                    0.07538952678442001,
                    0.07104847580194473,
                    -0.09135358780622482,
                    -0.15007896721363068,
                    -0.8756675124168396,
                    0.1403627246618271,
                    -0.07246117293834686,
                    0.36156949400901794,
                    -0.07874387502670288,
                    0.13577216863632202,
                    0.10459020733833313,
                    0.03397417068481445,
                    -0.09794466942548752,
                    0.21737278997898102,
                    0.20077745616436005,
                    -0.28052783012390137,
                    -0.3139670491218567,
                    -0.11877221614122391,
                    0.06763772666454315,
                    0.1573900580406189,
                    0.05084894225001335,
                    0.09808346629142761,
                    -0.1931346356868744,
                    0.04444359242916107,
                    -0.11978960782289505,
                    -0.05623293295502663,
                    0.1404472291469574,
                    -0.01108457613736391,
                    0.10376299917697906,
                    0.22390419244766235,
                    -0.09322655946016312,
                    -0.07625920325517654,
                    0.07223117351531982,
                    0.01263762079179287,
                    -0.008726204745471478,
                    -0.05230100825428963,
                    -0.04753673076629639,
                    -0.18296478688716888,
                    -0.13796238601207733,
                    -0.06625311821699142,
                    -0.19193585216999054,
                    0.280514121055603,
                    0.04628535732626915,
                    0.06300786137580872,
                    0.12693658471107483,
                    0.1791030764579773,
                    0.08390238881111145,
                    0.1692657768726349,
                    0.15654999017715454,
                    -0.06730236113071442,
                    0.09792283177375793,
                    -0.03232083469629288,
                    -0.05161968246102333,
                    -0.1727265864610672,
                    -0.007399581838399172,
                    -0.2874033749103546,
                    0.16144497692584991,
                    -0.006084098480641842,
                    0.04305737838149071,
                    0.42886045575141907,
                    0.04100995138287544,
                    -0.20428584516048431,
                    -0.05334782227873802,
                    -0.030765242874622345,
                    0.11998166143894196,
                    0.17614325881004333,
                    -0.09159505367279053,
                    0.28221121430397034,
                    0.0029054400511085987,
                    0.1034131795167923,
                    0.05526044964790344,
                    0.006514937151223421,
                    0.0012464612955227494,
                    0.08676804602146149,
                    0.04385414347052574,
                    0.000656680203974247,
                    -0.001479866448789835,
                    0.0008265615324489772,
                    0.004362878389656544,
                    0.028576606884598732,
                    -0.0003952101687900722,
                    0.042934514582157135,
                    0.1545741707086563,
                    -7.98275232227752e-06,
                    -0.010316377505660057,
                    -0.020420625805854797,
                    0.07414162158966064,
                    0.0381157360970974,
                    -0.060268938541412354,
                    0.08756870776414871,
                    -0.08482871949672699,
                    0.002636535791680217,
                    -0.023411162197589874,
                    -0.0005151549121364951,
                    -0.0006189348641782999,
                    -0.015681440010666847,
                    -0.03810053691267967,
                    0.005316551309078932,
                    -0.11648605018854141,
                    -0.029590873047709465,
                    0.07570598274469376,
                    -0.08763972669839859,
                    -0.22736644744873047,
                    -0.09799078106880188,
                    0.0004139541706535965,
                    -0.0019378862343728542,
                    -0.009961395524442196,
                    -0.06167774647474289,
                    -0.14356109499931335,
                    0.04589444026350975,
                    0.13186202943325043,
                    -0.009772486984729767,
                    -0.01468086987733841,
                    0.07970186322927475,
                    -0.10659155249595642,
                    0.10633272677659988,
                    -0.1542004644870758,
                    -0.05237311124801636,
                    -0.21369856595993042,
                    0.030197439715266228,
                    0.013803944922983646,
                    0.11818594485521317,
                    0.028514022007584572,
                    1.2149404938099906e-05,
                    -0.3066246211528778,
                    0.0007241190760396421,
                    -0.09725571423768997,
                    0.1286594569683075,
                    0.06743261963129044,
                    -0.09608007967472076,
                    -0.10651472210884094,
                    0.15044547617435455,
                    -0.08220463246107101,
                    0.17937538027763367,
                    -0.0789334699511528,
                    -0.14732810854911804,
                    0.12523774802684784,
                    -0.014712241478264332,
                    0.16198228299617767,
                    -0.12920711934566498,
                    0.1300305277109146,
                    0.20966094732284546,
                    -0.9790899157524109,
                    -0.06452582031488419,
                    -0.0088209118694067,
                    -0.061275556683540344,
                    0.23785752058029175,
                    0.0028587577398866415,
                    -0.6847466230392456,
                    -0.12007054686546326,
                    0.08434055000543594,
                    0.11793150752782822,
                    0.1795790046453476,
                    -0.16158223152160645,
                    0.12448219954967499,
                    0.5554845929145813,
                    0.10235472023487091,
                    0.1952308714389801,
                    -0.2424384504556656,
                    0.15103480219841003,
                    -0.1893743872642517,
                    0.16493335366249084,
                    -0.03206663206219673,
                    -0.1263733059167862,
                    0.07907186448574066,
                    -0.0007485409150831401,
                    0.09986983239650726,
                    -0.1902887523174286,
                    0.13831336796283722,
                    -0.13881787657737732,
                    0.09988803416490555,
                    -0.15467935800552368,
                    -0.015498457476496696,
                    0.023797934874892235,
                    -0.1987238973379135,
                    0.16297578811645508,
                    -0.12414639443159103,
                    0.250149130821228,
                    -0.056493986397981644,
                    0.0368463359773159,
                    -0.10642614960670471,
                    -0.02922990918159485,
                    -0.12049350142478943,
                    -0.4449622929096222,
                    -0.2191052883863449,
                    0.09304032474756241,
                    -0.09785321354866028,
                    0.2085610032081604,
                    0.11403525620698929,
                    -0.192132830619812,
                    0.27768608927726746,
                    0.08854532986879349,
                    -0.03043867088854313,
                    0.10506679117679596,
                    -0.08830767869949341,
                    0.2235805243253708,
                    -0.006286450661718845,
                    -0.25989893078804016,
                    0.12152386456727982,
                    -0.014844181947410107,
                    0.02714736945927143,
                    0.05207750201225281,
                    -0.0022452783305197954,
                    -0.0014314072905108333,
                    0.0031874009873718023,
                    -0.00308586866594851,
                    -0.009783501736819744,
                    0.012111480347812176,
                    0.0005419541266746819,
                    -0.19032180309295654,
                    0.1066301092505455,
                    -0.00023290215176530182,
                    0.03240866959095001,
                    0.0006462817545980215,
                    0.012537575326859951,
                    -0.18517327308654785,
                    0.18615254759788513,
                    -0.09431587904691696,
                    -0.1671687811613083,
                    -0.005065807141363621,
                    0.01207855436950922,
                    0.001065966091118753,
                    0.0005608359351754189,
                    0.15294775366783142,
                    -0.1604202538728714,
                    0.1794353723526001,
                    -0.12608081102371216,
                    -0.08588623255491257,
                    0.08869020640850067,
                    0.13850432634353638,
                    -0.013214563950896263,
                    -0.11862096935510635,
                    -0.0013947713887318969,
                    0.004380331840366125,
                    0.18036143481731415,
                    -0.07830720394849777,
                    -0.11580809950828552,
                    -0.01135052926838398,
                    0.14271678030490875,
                    -0.018963590264320374,
                    -0.09794306010007858,
                    -0.18191617727279663,
                    0.046878959983587265,
                    0.05164268985390663,
                    -0.11909930408000946,
                    -0.14066557586193085,
                    0.2347763180732727,
                    -0.07914331555366516,
                    0.005317969247698784,
                    -0.1772255301475525,
                    0.13567344844341278,
                    0.0003083919291384518,
                    0.11468680202960968,
                    -0.0017987167229875922,
                    -0.0534285344183445,
                    0.04286058619618416,
                    -0.22319498658180237,
                    0.12276075035333633,
                    0.17880667746067047,
                    0.2064642310142517,
                    1.150524616241455,
                    -0.06263434886932373,
                    0.14104467630386353,
                    -0.6307591795921326,
                    -0.009014112874865532,
                    0.1452242136001587,
                    -0.00045610658708028495,
                    -0.08619838953018188,
                    0.002868412062525749,
                    0.14030028879642487,
                    -1.151075005531311,
                    0.003421211149543524,
                    0.0004111345624551177,
                    0.013971682637929916,
                    0.08936905115842819,
                    -0.19291546940803528,
                    -0.07138047367334366,
                    0.058342400938272476,
                    -0.06421086937189102,
                    0.023409368470311165,
                    -0.22169123589992523,
                    -0.09703800827264786,
                    -0.02834469825029373,
                    0.5826820135116577,
                    -0.19611726701259613,
                    0.0008948638569563627,
                    -0.014136039651930332,
                    -0.027033859863877296,
                    -0.07495221495628357,
                    0.09356826543807983,
                    -0.11087282747030258,
                    -0.12320416420698166,
                    0.20540791749954224,
                    -0.12087137997150421,
                    -0.1092979833483696,
                    -0.16978757083415985,
                    0.20701569318771362,
                    -0.1440868228673935,
                    0.16225813329219818,
                    0.0779515728354454,
                    -0.04285142198204994,
                    0.05753575637936592,
                    -0.050888024270534515,
                    -0.03763836994767189,
                    0.22402159869670868,
                    -0.15860772132873535,
                    -0.18371649086475372,
                    0.07863055169582367,
                    0.12372156232595444,
                    0.03137284144759178,
                    0.18868674337863922,
                    -0.06326092034578323,
                    0.12937776744365692,
                    0.039310719817876816,
                    -0.047536276280879974,
                    0.08472632616758347,
                    0.009093120694160461,
                    -0.05716841667890549,
                    0.03341619670391083,
                    -0.08426856249570847,
                    0.129895880818367,
                    0.051519375294446945,
                    0.009145884774625301,
                    0.10006006062030792,
                    -0.0015982645563781261,
                    0.17148064076900482,
                    -0.017086831852793694,
                    -0.0033243263605982065,
                    0.14206252992153168,
                    -0.10622549057006836,
                    0.17389778792858124,
                    -0.00024912322987802327,
                    0.0005474545760080218,
                    -0.0010644679423421621,
                    -0.0024057470727711916,
                    -0.01639304682612419,
                    -7.342859316850081e-05,
                    -0.0350896418094635,
                    0.24217943847179413,
                    -0.00022106706455815583,
                    0.009214058518409729,
                    -0.018365364521741867,
                    -0.0334528386592865,
                    0.07877444475889206,
                    0.015618192963302135,
                    -0.04424877092242241,
                    -0.02416851744055748,
                    -0.0016406528884544969,
                    0.24406081438064575,
                    0.00019169185543432832,
                    -0.00018319388618692756,
                    -0.1053527221083641,
                    -0.20067791640758514,
                    -0.1399497091770172,
                    -0.07923967391252518,
                    0.04777628183364868,
                    0.08309392631053925,
                    0.08387172222137451,
                    0.18732638657093048,
                    0.062380071729421616,
                    -0.00066112179774791,
                    0.000854864192660898,
                    0.027940556406974792,
                    -0.164967343211174,
                    0.16395631432533264,
                    -0.0003537729207891971,
                    0.09445786476135254,
                    -0.06812407821416855,
                    0.011927888728678226,
                    0.10959259420633316,
                    0.0023174567613750696,
                    -0.11079561710357666,
                    -0.08266236633062363,
                    -0.02552429400384426,
                    0.09579913318157196,
                    -0.02047864720225334,
                    -0.08584821969270706,
                    -0.13767200708389282,
                    -0.07600662857294083,
                    0.00017708637460600585,
                    -0.026302902027964592,
                    -0.0004860165645368397,
                    0.0862557590007782,
                    0.1714891940355301,
                    0.04105290398001671,
                    -0.021387778222560883,
                    -0.021714739501476288,
                    -0.09487687796354294,
                    0.7801875472068787,
                    0.1218060776591301,
                    -0.0476427897810936,
                    -0.09176710993051529,
                    -0.14456123113632202,
                    0.07568386942148209,
                    0.19889631867408752,
                    -0.060486406087875366,
                    0.12669022381305695,
                    -0.35396087169647217,
                    0.34470921754837036,
                    -0.03833639621734619,
                    0.3337905704975128,
                    -0.009216755628585815,
                    -0.10919163376092911,
                    -0.08907094597816467,
                    0.49072277545928955,
                    0.2412722110748291,
                    -0.15660029649734497,
                    0.08446256816387177,
                    -0.05025028809905052,
                    -0.1350669413805008,
                    0.17771971225738525,
                    -0.49137696623802185,
                    0.15852029621601105,
                    -0.18645016849040985,
                    0.06906570494174957,
                    0.002059884835034609,
                    -0.21278248727321625,
                    -0.13441164791584015,
                    0.04513174295425415,
                    0.030995337292551994,
                    -0.17964909970760345,
                    0.23200321197509766,
                    -0.209675133228302,
                    -0.12739931046962738,
                    -0.24301858246326447,
                    0.0067105162888765335,
                    -0.1400546431541443,
                    0.08904165774583817,
                    -0.19724231958389282,
                    -0.0001673119841143489,
                    -0.09881102293729782,
                    -0.1314326971769333,
                    0.1533796638250351,
                    -0.07763226330280304,
                    0.05267391726374626,
                    -0.2468205839395523,
                    -0.144295796751976,
                    -0.08936748653650284,
                    0.059931278228759766,
                    0.5097385048866272,
                    -0.13378337025642395,
                    0.06390746682882309,
                    -0.0058799199759960175,
                    -0.49739694595336914,
                    0.16074976325035095,
                    0.28334569931030273,
                    0.03572792932391167,
                    0.17004787921905518,
                    0.1525002121925354,
                    0.054958686232566833,
                    0.011903787963092327,
                    0.1166703999042511,
                    0.015011490322649479,
                    0.07333241403102875,
                    0.18206939101219177,
                    0.003917437978088856,
                    0.06119094043970108,
                    -0.04885232448577881,
                    0.07231710851192474,
                    -0.000748935213778168,
                    -0.00033705763053148985,
                    -0.00728781521320343,
                    0.02568664588034153,
                    -0.061489302664995193,
                    -0.0003064360353164375,
                    -0.19003096222877502,
                    -0.016084149479866028,
                    0.0010608795564621687,
                    0.05323711782693863,
                    -0.11971436440944672,
                    0.2046322077512741,
                    -0.13929641246795654,
                    -0.10904324054718018,
                    -0.19610558450222015,
                    0.13302689790725708,
                    0.037019282579422,
                    -0.14663578569889069,
                    -0.0011574740055948496,
                    -0.005659673362970352,
                    -0.0615924671292305,
                    -0.10403479635715485,
                    -0.05601310357451439,
                    -0.08719691634178162,
                    -0.23478154838085175,
                    0.09080246090888977,
                    0.021107779815793037,
                    0.10497638583183289,
                    0.04491088539361954,
                    0.002974885981529951,
                    0.004451294429600239,
                    0.015218720771372318,
                    -0.1992228627204895,
                    0.19232961535453796,
                    -0.1679728925228119,
                    -0.08278533816337585,
                    -0.06694220751523972,
                    -0.23149374127388,
                    -0.04860970750451088,
                    0.15628917515277863,
                    0.24024610221385956,
                    0.17007708549499512,
                    -0.2007143348455429,
                    0.06650249660015106,
                    -0.07017011195421219,
                    -0.06405088305473328,
                    0.019774891436100006,
                    0.18194517493247986,
                    0.0022533617448061705,
                    -0.2173197865486145,
                    0.0006216057226993144,
                    -0.08000602573156357,
                    0.08568216115236282,
                    0.254213809967041,
                    -0.05945445969700813,
                    0.18504180014133453,
                    -0.027739282697439194,
                    -0.0006438962300308049,
                    -0.031067710369825363,
                    -0.178709477186203,
                    -0.0014156402321532369,
                    -0.15022628009319305,
                    0.07200410962104797,
                    -0.1500769704580307,
                    -0.000133938854560256,
                    0.00029358029132708907,
                    -0.0002618099679239094,
                    -0.0007609088206663728,
                    0.019505007192492485,
                    1.4165085303829983e-05,
                    -0.17912408709526062,
                    -0.0471879318356514,
                    -4.16451548517216e-05,
                    0.002915211720392108,
                    -0.0015225168317556381,
                    0.11793883889913559,
                    -0.05856610834598541,
                    -0.04443075507879257,
                    -0.1518426090478897,
                    -0.19656142592430115,
                    -0.00048526516184210777,
                    -0.13919013738632202,
                    7.87319804658182e-05,
                    3.034133078472223e-05,
                    0.12443717569112778,
                    0.17340180277824402,
                    0.025220341980457306,
                    0.08956845849752426,
                    -0.10329171270132065,
                    -0.09380150586366653,
                    0.031343892216682434,
                    -0.18961314857006073,
                    0.17631404101848602,
                    -0.00020122031855862588,
                    0.0004639161052182317,
                    -0.03485545888543129,
                    0.11625593155622482,
                    0.031555239111185074,
                    -0.17138820886611938,
                    -0.14878489077091217,
                    -0.08808950334787369,
                    0.12116214632987976,
                    -0.060934267938137054,
                    -0.23635271191596985,
                    0.1750461757183075,
                    -0.06190381199121475,
                    -0.09456739574670792,
                    -0.14244452118873596,
                    -0.006826179567724466,
                    0.19483020901679993,
                    0.11817535012960434,
                    -0.07069943100214005,
                    3.439936335780658e-05,
                    -0.0442088320851326,
                    -0.00016540805518161505,
                    -0.05302321910858154,
                    0.014300872571766376,
                    0.028166934847831726,
                    0.023261550813913345,
                    0.21756576001644135,
                    -0.06801329553127289,
                    0.0020217353012412786,
                    0.19396758079528809,
                    -0.07117198407649994,
                    0.004928641952574253,
                    0.017266912385821342,
                    -0.13633820414543152,
                    -0.07080179452896118,
                    0.000554025114979595,
                    -0.0011892850743606687,
                    0.000283988774754107,
                    0.0021985957864671946,
                    0.016285141929984093,
                    -0.0002708977262955159,
                    -0.023575523868203163,
                    0.023794321343302727,
                    -5.513569703907706e-05,
                    -0.0065494864247739315,
                    -0.020109595730900764,
                    -0.18801409006118774,
                    -0.03755980357527733,
                    0.09807005524635315,
                    -0.2373160570859909,
                    -0.02339257299900055,
                    0.0011913625057786703,
                    -0.09969910234212875,
                    -0.00031165769905783236,
                    -0.0005524419248104095,
                    -0.004286825191229582,
                    -0.10381481796503067,
                    0.030733520165085793,
                    0.09490878134965897,
                    0.10892680287361145,
                    0.10076726973056793,
                    -0.012132586911320686,
                    -0.023018082603812218,
                    -0.052713532000780106,
                    0.00033260139753110707,
                    -0.0017775377491489053,
                    -0.09277000278234482,
                    -0.061128679662942886,
                    0.004701126832515001,
                    0.18221154808998108,
                    -0.17888480424880981,
                    -0.011796502396464348,
                    -0.1250690221786499,
                    -0.06409618258476257,
                    0.015909837558865547,
                    -0.14516492187976837,
                    -0.014038258232176304,
                    -0.08095914870500565,
                    0.0033129879739135504,
                    0.018873732537031174,
                    -0.013723364099860191,
                    0.2132723480463028,
                    0.13572044670581818,
                    4.361497485660948e-05,
                    -0.02514347806572914,
                    0.00045375010813586414,
                    -0.012850381433963776,
                    0.026559220626950264,
                    -0.13020160794258118,
                    -0.08682213723659515,
                    0.060932401567697525,
                    -0.022772714495658875,
                    -3.0300300121307373,
                    -0.11627130210399628,
                    -0.10226626694202423,
                    1.4516663551330566,
                    0.0579964742064476,
                    -0.1383492648601532,
                    -0.0006363657303154469,
                    0.3306272029876709,
                    -0.3022705316543579,
                    -0.13593491911888123,
                    1.1645463705062866,
                    -0.11190736293792725,
                    0.11522048711776733,
                    -0.08861251920461655,
                    0.14727886021137238,
                    0.03361010178923607,
                    0.14304415881633759,
                    0.33564451336860657,
                    -0.08528046309947968,
                    0.19914677739143372,
                    -0.15986822545528412,
                    -0.16044436395168304,
                    -0.12087926268577576,
                    -0.4189906418323517,
                    0.22503745555877686,
                    0.07967141270637512,
                    0.2971380650997162,
                    -0.023679161444306374,
                    0.2791551649570465,
                    -0.053040847182273865,
                    0.018737103790044785,
                    -0.10930730402469635,
                    0.2000269740819931,
                    0.06262469291687012,
                    0.14984318614006042,
                    -0.04310006648302078,
                    -0.030606186017394066,
                    0.31790149211883545,
                    0.012015461921691895,
                    0.06651324033737183,
                    0.02813192829489708,
                    -0.2057589888572693,
                    0.04548368230462074,
                    -0.18639758229255676,
                    0.050210531800985336,
                    0.01780306175351143,
                    -0.07487611472606659,
                    0.11433308571577072,
                    -0.1712574064731598,
                    -0.012878304347395897,
                    -0.15225593745708466,
                    -0.013501512818038464,
                    -0.21661494672298431,
                    0.09649761021137238,
                    0.03882637992501259,
                    -0.10598497092723846,
                    0.07302226126194,
                    -0.14474768936634064,
                    -0.0791650116443634,
                    -0.17058192193508148,
                    -0.010479803197085857,
                    0.09765639156103134,
                    -0.17033539712429047,
                    0.13987129926681519,
                    0.4930059611797333,
                    0.183733731508255,
                    0.10010626167058945,
                    -0.29999837279319763,
                    0.12344471365213394,
                    -0.05665614828467369,
                    -0.042758893221616745,
                    -0.062493883073329926,
                    -0.13753004372119904,
                    0.05269605666399002,
                    -0.44972217082977295,
                    -0.04379846528172493,
                    -0.09189113974571228,
                    0.23193445801734924,
                    -0.16328953206539154,
                    -0.2678171396255493,
                    -0.20749132335186005,
                    -0.1243358924984932,
                    0.11595441401004791,
                    -0.1923859715461731,
                    0.12273498624563217,
                    0.10638996213674545,
                    0.019890237599611282,
                    0.2230129837989807,
                    -0.15433235466480255,
                    -0.022784026339650154,
                    0.07038626819849014,
                    0.048801932483911514,
                    -0.11292030662298203,
                    -0.17323234677314758,
                    -0.01404478121548891,
                    0.03128761053085327,
                    -0.07143232971429825,
                    0.2378370761871338,
                    0.09225296229124069,
                    -0.22447162866592407,
                    0.2640616297721863,
                    -0.2951260209083557,
                    0.0363481231033802,
                    -0.037936437875032425,
                    -0.0697840228676796,
                    0.1929832249879837,
                    -0.0970897451043129,
                    -0.24442310631275177,
                    -0.10216395556926727,
                    0.04327136650681496,
                    -0.16820558905601501,
                    -0.00883971806615591,
                    -0.13858282566070557,
                    -0.07446044683456421,
                    -0.19406577944755554,
                    -0.21179206669330597,
                    -0.017083100974559784,
                    0.14376100897789001,
                    0.13110721111297607,
                    0.058556199073791504,
                    -0.030192824080586433,
                    -0.008055481128394604,
                    0.1605212241411209,
                    0.14566843211650848,
                    0.06923717260360718,
                    -0.12543326616287231,
                    -0.0728011354804039,
                    -0.2133529931306839,
                    0.002141425618901849,
                    0.013984112069010735,
                    0.14201810956001282,
                    0.004564596340060234,
                    -0.13579672574996948,
                    -0.06017043814063072,
                    0.2226547747850418,
                    0.0003706620482262224,
                    -0.0008909042226150632,
                    0.001232948387041688,
                    0.0032382302451878786,
                    -0.0031245797872543335,
                    -7.782965258229524e-05,
                    -0.026318229734897614,
                    0.3098183572292328,
                    0.00018144238856621087,
                    -0.010726011358201504,
                    0.01049605943262577,
                    -0.18595051765441895,
                    -0.09115249663591385,
                    -0.20915228128433228,
                    0.12296751886606216,
                    0.13752123713493347,
                    0.0020922410767525434,
                    0.02864230051636696,
                    -0.0003254711045883596,
                    3.534352799761109e-05,
                    0.08673958480358124,
                    -0.1686125099658966,
                    0.15700356662273407,
                    -0.15779006481170654,
                    0.058680031448602676,
                    0.1749812215566635,
                    -0.15096987783908844,
                    0.13613124191761017,
                    0.12776301801204681,
                    0.0006118503515608609,
                    -0.0012133000418543816,
                    0.1068895161151886,
                    -0.15249891579151154,
                    -0.1207629069685936,
                    -0.011829386465251446,
                    -0.12023502588272095,
                    -0.057312220335006714,
                    0.10570915043354034,
                    0.12875515222549438,
                    0.0801204964518547,
                    -0.19777294993400574,
                    0.06533614546060562,
                    0.2286597639322281,
                    -0.1132035106420517,
                    0.026526903733611107,
                    0.10281132161617279,
                    0.13194744288921356,
                    0.19150319695472717,
                    -0.00015949399676173925,
                    -0.04883617162704468,
                    0.0006440498400479555,
                    0.007434431929141283,
                    0.050140585750341415,
                    0.07982347160577774,
                    0.10718914866447449,
                    -0.029357705265283585,
                    0.22769837081432343,
                    0.005509200505912304,
                    -0.17819392681121826,
                    -0.11116363853216171,
                    0.011982424184679985,
                    -0.18405216932296753,
                    0.046293292194604874,
                    -0.02502097375690937,
                    0.0005812474992126226,
                    -0.00153629039414227,
                    0.00756436213850975,
                    0.009384199045598507,
                    0.04169591888785362,
                    0.0008845736156217754,
                    -0.004957903176546097,
                    0.21800179779529572,
                    0.0014506099978461862,
                    -0.054811686277389526,
                    0.18620753288269043,
                    -0.07275518029928207,
                    0.07659097760915756,
                    -0.1484086662530899,
                    0.07535719871520996,
                    -0.09703708440065384,
                    0.005427928175777197,
                    0.14262230694293976,
                    -0.000700988806784153,
                    0.003102852962911129,
                    0.08551858365535736,
                    -0.06190815195441246,
                    0.10957308113574982,
                    -0.12751978635787964,
                    -0.11467721313238144,
                    0.16897113621234894,
                    0.022862717509269714,
                    0.09767479449510574,
                    0.19599449634552002,
                    0.0033619855530560017,
                    -0.0026294877752661705,
                    -0.13919949531555176,
                    0.03833959624171257,
                    -0.07916847616434097,
                    0.14448848366737366,
                    -0.08976253122091293,
                    -0.05102493613958359,
                    0.11816462129354477,
                    0.11472804099321365,
                    0.08932828903198242,
                    -0.06395549327135086,
                    -0.1637832224369049,
                    -0.036370549350976944,
                    0.07244716584682465,
                    0.11019813269376755,
                    -0.05443405732512474,
                    0.23329734802246094,
                    0.040645137429237366,
                    -0.001525146304629743,
                    -0.22661694884300232,
                    0.00250779720954597,
                    0.01865397021174431,
                    0.04616856575012207,
                    0.10390413552522659,
                    0.08087696880102158,
                    -0.004896057303994894,
                    -0.08168099075555801,
                    3.0165761927491985e-05,
                    0.1166498139500618,
                    0.09947390109300613,
                    0.00020429941650945693,
                    -0.003931978717446327,
                    0.162387415766716,
                    -0.1836249977350235,
                    6.68011125526391e-05,
                    -0.00013348981156013906,
                    -0.00037481036270037293,
                    0.00020321038027759641,
                    0.11128207296133041,
                    -0.0001810739777283743,
                    0.11663853377103806,
                    0.08746412396430969,
                    -0.00013305246829986572,
                    0.0021133916452527046,
                    -0.01836271584033966,
                    -0.001613024272955954,
                    -0.1321438103914261,
                    0.01405127439647913,
                    -0.08883876353502274,
                    0.13158489763736725,
                    5.614778638118878e-05,
                    -0.1063782274723053,
                    -5.749962292611599e-05,
                    -0.000347246415913105,
                    -0.25709986686706543,
                    -0.12197013199329376,
                    -0.020707931369543076,
                    0.12351825088262558,
                    -0.00959162600338459,
                    0.04047159105539322,
                    -0.13296319544315338,
                    0.031682245433330536,
                    0.13525556027889252,
                    -0.0002483522112015635,
                    -9.64322971412912e-05,
                    0.16016651690006256,
                    0.14708101749420166,
                    0.10552416741847992,
                    -0.02381731942296028,
                    0.22546212375164032,
                    -0.1680774688720703,
                    0.1669887751340866,
                    -0.1311841756105423,
                    -0.19400101900100708,
                    -0.11268801242113113,
                    0.09517519176006317,
                    -0.12155401706695557,
                    -0.13247306644916534,
                    -0.0016867952654138207,
                    -0.1512865424156189,
                    0.01591719314455986,
                    0.014089096337556839,
                    0.00011759474728023633,
                    0.1923377811908722,
                    -5.657617293763906e-05,
                    0.08718251436948776,
                    0.09248078614473343,
                    0.16443943977355957,
                    0.11612647026777267,
                    -0.04856183007359505,
                    0.14726415276527405,
                    1.4591883420944214,
                    0.07709971070289612,
                    -0.27317115664482117,
                    -1.1561343669891357,
                    0.07490339130163193,
                    -0.11788544803857803,
                    0.004376169294118881,
                    -0.5257261395454407,
                    0.29148992896080017,
                    0.5584745407104492,
                    -1.1537710428237915,
                    -0.03195171058177948,
                    -0.362239807844162,
                    -0.10624893754720688,
                    0.08847512304782867,
                    0.1776740550994873,
                    -0.5281730890274048,
                    -0.5466915965080261,
                    -0.11919665336608887,
                    0.11006931960582733,
                    0.1021973118185997,
                    0.011096871457993984,
                    0.0720888078212738,
                    0.8333163261413574,
                    0.05053694173693657,
                    -0.23067352175712585,
                    -1.4926238059997559,
                    0.029644088819622993,
                    0.10748760402202606,
                    0.15307573974132538,
                    0.07136943191289902,
                    -0.11805316805839539,
                    -0.03391903638839722,
                    -0.20642074942588806,
                    0.1580118089914322,
                    0.16427823901176453,
                    0.007904556579887867,
                    -0.03926045820116997,
                    -0.08931971341371536,
                    0.1714538335800171,
                    -0.20499080419540405,
                    -0.025457782670855522,
                    -0.13589970767498016,
                    -0.09293795377016068,
                    -0.1437118798494339,
                    -0.05535702779889107,
                    -0.09131459891796112,
                    0.22905831038951874,
                    -0.10352431237697601,
                    -0.1348763257265091,
                    0.10487622022628784,
                    -0.03177100419998169,
                    -0.03035670891404152,
                    -0.16858528554439545,
                    0.150939479470253,
                    0.5574586987495422,
                    0.054586540907621384,
                    0.30347785353660583,
                    0.10747502744197845,
                    -0.08657670766115189,
                    -0.08472170680761337,
                    0.09292297065258026,
                    -0.10755350440740585,
                    0.16389355063438416,
                    -1.2825034856796265,
                    0.004521897528320551,
                    0.09421226382255554,
                    0.14540709555149078,
                    0.10125640034675598,
                    -0.05458691716194153,
                    0.011378118768334389,
                    0.019098175689578056,
                    -0.19683049619197845,
                    0.20379692316055298,
                    -0.6981855630874634,
                    -0.15601016581058502,
                    -0.03802831843495369,
                    0.07528508454561234,
                    -0.03418555110692978,
                    -0.14111995697021484,
                    -0.5676794052124023,
                    -0.2296510934829712,
                    0.12557236850261688,
                    -0.21495173871517181,
                    -0.20736053586006165,
                    -0.016985472291707993,
                    0.14819666743278503,
                    0.3781486451625824,
                    -0.09612217545509338,
                    0.5037380456924438,
                    0.1331249624490738,
                    -0.04293269291520119,
                    -0.0592891089618206,
                    -0.09676135331392288,
                    -0.12674908339977264,
                    0.01720624975860119,
                    0.1592305451631546,
                    0.030630946159362793,
                    -0.13367107510566711,
                    0.10526442527770996,
                    0.419248104095459,
                    -0.06708281487226486,
                    -0.005404988769441843,
                    -0.10098567605018616,
                    -0.1564461588859558,
                    -0.176169753074646,
                    -0.033330921083688736,
                    -0.004442394245415926,
                    0.023331673815846443,
                    0.08444259315729141,
                    0.08072350919246674,
                    -0.1309087872505188,
                    -0.07062925398349762,
                    0.0930633619427681,
                    -0.10495822131633759,
                    -0.4700568914413452,
                    0.06926798820495605,
                    -0.20657029747962952,
                    0.24016056954860687,
                    -0.04617888480424881,
                    -0.025655945762991905,
                    -0.841899573802948,
                    0.02330222725868225,
                    -0.0905555784702301,
                    0.09215237200260162,
                    0.017171751707792282,
                    -0.10835929960012436,
                    -0.07980349659919739,
                    1.2079951763153076,
                    0.13340170681476593,
                    0.0013285501627251506,
                    -0.28401851654052734,
                    -0.15960583090782166,
                    -0.06459789723157883,
                    0.053051967173814774,
                    -0.16156092286109924,
                    0.02541320025920868,
                    -0.004214583430439234,
                    0.6283607482910156,
                    -0.01248939335346222,
                    0.28808385133743286,
                    -0.2319846898317337,
                    -0.005784432403743267,
                    0.2224157154560089,
                    0.6374043822288513,
                    0.08083023130893707,
                    0.023759473115205765,
                    -0.0482555516064167,
                    0.05553063005208969,
                    0.1618819236755371,
                    0.043478067964315414,
                    -0.7375404834747314,
                    0.025102199986577034,
                    -0.4266126751899719,
                    -0.21659807860851288,
                    -0.06745723634958267,
                    -0.008053400553762913,
                    -0.18594957888126373,
                    0.2211446464061737,
                    0.07928189635276794,
                    0.16416719555854797,
                    -0.05101495236158371,
                    -0.1422363519668579,
                    -0.14464950561523438,
                    -0.3254243731498718,
                    0.3939516544342041,
                    -0.1541474461555481,
                    0.005954138468950987,
                    -0.06652655452489853,
                    0.08279626816511154,
                    0.23221038281917572,
                    0.19632261991500854,
                    -0.04101644456386566,
                    0.12583644688129425,
                    0.15385057032108307,
                    0.13002127408981323,
                    0.058343805372714996,
                    0.1037333607673645,
                    -0.1895126849412918,
                    0.5041885375976562,
                    -0.09693007916212082,
                    -0.13591425120830536,
                    -0.22992807626724243,
                    0.17063096165657043,
                    0.1522531807422638,
                    0.8937276005744934,
                    -0.23599646985530853,
                    0.02454974874854088,
                    -0.11172452569007874,
                    0.038913387805223465,
                    -0.14141084253787994,
                    -0.21450519561767578,
                    -0.4125627875328064,
                    -0.05093264579772949,
                    -0.04011988639831543,
                    0.04201000928878784,
                    -0.038307465612888336,
                    0.13398942351341248,
                    0.11673461645841599,
                    0.4793381989002228,
                    -0.4016430974006653,
                    -0.06240217760205269,
                    0.5359894037246704,
                    -0.1728111058473587,
                    -0.1424017995595932,
                    0.15762819349765778,
                    -0.051457226276397705,
                    0.6877515912055969,
                    0.56550532579422,
                    0.17191720008850098,
                    0.11519075185060501,
                    0.1355193704366684,
                    0.19125059247016907,
                    -0.11522664874792099,
                    0.07428543269634247,
                    -0.2588631212711334,
                    -0.14030973613262177,
                    -0.1807812601327896,
                    0.21160762012004852,
                    -0.02783747762441635,
                    0.15185999870300293,
                    -0.021147528663277626,
                    -0.03474783897399902,
                    0.0030022019054740667,
                    0.08875980228185654,
                    -0.25257447361946106,
                    0.1692860722541809,
                    0.04763992130756378,
                    -0.548785388469696,
                    0.7214081883430481,
                    0.1303083598613739,
                    -0.13035258650779724,
                    -0.17193882167339325,
                    0.017384501174092293,
                    -0.1304115504026413,
                    -0.06596232205629349,
                    0.14716506004333496,
                    -0.12999413907527924,
                    0.010251795873045921,
                    -0.08656580001115799,
                    0.0403868667781353,
                    0.07827751338481903,
                    -0.14999456703662872,
                    0.24636788666248322,
                    0.15897974371910095,
                    -0.22301837801933289,
                    0.07946231216192245,
                    0.3163028955459595,
                    0.01940327137708664,
                    0.29195183515548706,
                    0.04067883640527725,
                    0.10582838952541351,
                    0.05233465135097504,
                    0.017650101333856583,
                    0.019798163324594498,
                    0.13679778575897217,
                    -2.3289921283721924,
                    0.22592923045158386,
                    0.10673700273036957,
                    0.6712433099746704,
                    -0.05467110499739647,
                    -0.04008064046502113,
                    -0.16127870976924896,
                    0.17056308686733246,
                    -0.0034903280902653933,
                    0.27879491448402405,
                    -0.6061779856681824,
                    -0.03354869410395622,
                    -0.3294438421726227,
                    -0.07084430754184723,
                    -0.012707804329693317,
                    -0.13820545375347137,
                    -0.525936484336853,
                    0.03964222967624664,
                    -0.05360479652881622,
                    -0.05233241245150566,
                    0.1720544397830963,
                    0.05862750485539436,
                    -0.0758739709854126,
                    0.5018739700317383,
                    0.07271324098110199,
                    0.37837815284729004,
                    -0.07981026917695999,
                    0.19173409044742584,
                    -0.1379411518573761,
                    -0.08334340155124664,
                    -0.1559537649154663,
                    0.004125049803406,
                    0.12432156503200531,
                    0.020108992233872414,
                    -0.16269995272159576,
                    0.13786174356937408,
                    0.02476532943546772,
                    0.04897506907582283,
                    -0.23220454156398773,
                    0.13449516892433167,
                    -0.03920341283082962,
                    0.16567137837409973,
                    -0.02554055117070675,
                    0.1966600865125656,
                    0.011706487275660038,
                    0.08358704298734665,
                    -0.10010531544685364,
                    -0.12350613623857498,
                    0.2032802850008011,
                    0.1790180653333664,
                    -0.1187194213271141,
                    -0.31768110394477844,
                    -0.07304050773382187,
                    0.008508219383656979,
                    -0.1419152170419693,
                    0.3003976345062256,
                    -0.170815572142601,
                    -0.4696340560913086,
                    -0.12882253527641296,
                    -0.174061119556427,
                    -0.11897681653499603,
                    0.04522782191634178,
                    0.11250567436218262,
                    0.18893519043922424,
                    0.6319572329521179,
                    -0.15979529917240143,
                    -0.07957684248685837,
                    -0.10662243515253067,
                    0.015226961113512516,
                    0.009889040142297745,
                    0.03955952078104019,
                    -0.052068114280700684,
                    0.33259618282318115,
                    -0.3083784878253937,
                    -0.18023869395256042,
                    -0.0885598361492157,
                    0.28862833976745605,
                    -0.006931092124432325,
                    0.007844408974051476,
                    -0.5065142512321472,
                    -0.1090235635638237,
                    0.0627644807100296,
                    -0.16298282146453857,
                    0.13500943779945374,
                    -0.23435841500759125,
                    -0.05587441474199295,
                    0.10978211462497711,
                    -0.1418447345495224,
                    -0.19030028581619263,
                    -0.14859618246555328,
                    0.0072419848293066025,
                    -0.07276032119989395,
                    -0.09128034114837646,
                    -0.05265408754348755,
                    0.041025981307029724,
                    -0.21989136934280396,
                    -0.05294010788202286,
                    0.0022500103805214167,
                    0.07391130924224854,
                    0.04344818741083145,
                    0.11926952749490738,
                    -0.6393162608146667,
                    0.06678846478462219,
                    -0.17532464861869812,
                    -0.1727321892976761,
                    0.1379517912864685,
                    -0.000140609874506481,
                    0.0973547026515007,
                    -0.008031328208744526,
                    0.06468271464109421,
                    -0.1056070551276207,
                    -0.10062311589717865,
                    0.11810322105884552,
                    0.08439821749925613,
                    -0.1564970314502716,
                    0.11920987814664841,
                    -0.12202472239732742,
                    -0.07687437534332275,
                    0.1849423199892044,
                    -0.5438145995140076,
                    -0.09231912344694138,
                    0.04534556716680527,
                    -0.13660891354084015,
                    0.00885695219039917,
                    -0.18832656741142273,
                    0.17060433328151703,
                    -0.01032465323805809,
                    -0.1481849104166031,
                    1.6998273134231567,
                    -0.06478685885667801,
                    0.22898191213607788,
                    -0.5120128393173218,
                    -0.040786612778902054,
                    0.12653109431266785,
                    -0.16628755629062653,
                    -0.10555866360664368,
                    0.04200327768921852,
                    0.03837437927722931,
                    -0.40489649772644043,
                    0.0612572617828846,
                    0.16480018198490143,
                    0.2339937835931778,
                    0.19212597608566284,
                    -0.2259836345911026,
                    0.08024879544973373,
                    0.005483344197273254,
                    0.2359505593776703,
                    -0.10061011463403702,
                    0.1492205262184143,
                    0.03134893998503685,
                    0.13569483160972595,
                    0.0977054014801979,
                    -0.015271192416548729,
                    -0.19413749873638153,
                    -0.11275096982717514,
                    0.14837144315242767,
                    -0.08243531733751297,
                    -0.008039611391723156,
                    -0.01620018295943737,
                    -0.1746261715888977,
                    -0.07951660454273224,
                    -0.16796377301216125,
                    -0.1694231629371643,
                    -0.15377303957939148,
                    0.03270820900797844,
                    -0.1567193865776062,
                    0.02263106219470501,
                    0.02746974304318428,
                    0.19692134857177734,
                    0.08177348971366882,
                    0.05007068067789078,
                    -0.12176958471536636,
                    0.15831705927848816,
                    0.12407778203487396,
                    0.19385875761508942,
                    -0.03628483787178993,
                    -0.10579729080200195,
                    0.12295810133218765,
                    -0.1326068788766861,
                    0.2525267004966736,
                    -0.12270226329565048,
                    -0.06441902369260788,
                    0.17941300570964813,
                    -0.20070846378803253,
                    -0.015146329067647457,
                    0.14128224551677704,
                    -0.15871372818946838,
                    -0.12580351531505585,
                    -0.1510038524866104,
                    -0.13417716324329376,
                    -0.041702162474393845,
                    -0.13728971779346466,
                    -0.6649040579795837,
                    -0.02839803881943226,
                    0.022992340847849846,
                    -0.007078248541802168,
                    -0.2231777012348175,
                    0.09668422490358353,
                    0.03839417174458504,
                    -0.04573925957083702,
                    0.16153563559055328,
                    0.23655256628990173,
                    -0.7970147132873535,
                    -0.147942453622818,
                    0.010777990333735943,
                    -0.16821610927581787,
                    -0.14256279170513153,
                    0.05160016566514969,
                    -0.47605061531066895,
                    0.06950923055410385,
                    0.030144410207867622,
                    0.05076652020215988,
                    0.12093715369701385,
                    0.16081513464450836,
                    0.009903925471007824,
                    0.46695810556411743,
                    -0.012583445757627487,
                    0.10628987103700638,
                    -0.14198856055736542,
                    0.07395574450492859,
                    0.1415231078863144,
                    0.1547914296388626,
                    0.03517748787999153,
                    0.2647804915904999,
                    -0.12284498661756516,
                    0.0013892934657633305,
                    -0.0022310037165880203,
                    -0.08814035356044769,
                    0.20151165127754211,
                    -0.1272425651550293,
                    -0.1619454175233841,
                    0.10753537714481354,
                    0.07665865123271942,
                    -0.1638818383216858,
                    -0.12922362983226776,
                    -0.12020248919725418,
                    -0.13517485558986664,
                    -0.10638637095689774,
                    0.03144773095846176,
                    0.15188080072402954,
                    0.09438902139663696,
                    0.1121242567896843,
                    -0.06531166285276413,
                    -0.4924233555793762,
                    -0.15335491299629211,
                    -0.20685960352420807,
                    0.2297229915857315,
                    0.0017429112922400236,
                    0.0742134153842926,
                    -0.136626198887825,
                    -0.10558771342039108,
                    0.18974988162517548,
                    -0.02098630554974079,
                    -0.13573287427425385,
                    -0.19969022274017334,
                    -0.14650727808475494,
                    3.758938789367676,
                    0.08269546926021576,
                    -0.09702078253030777,
                    -0.953742265701294,
                    0.23216797411441803,
                    0.01697010174393654,
                    0.2113782912492752,
                    -0.20799875259399414,
                    0.2801092863082886,
                    -0.017550067976117134,
                    -0.714218020439148,
                    0.23942118883132935,
                    0.18192589282989502,
                    0.07933952659368515,
                    -0.1848563700914383,
                    -0.24079447984695435,
                    0.1317770630121231,
                    -0.06583157926797867,
                    0.07718877494335175,
                    -0.15191136300563812,
                    -0.15836867690086365,
                    -0.09050870686769485,
                    -0.13921602070331573,
                    0.13745303452014923,
                    0.11250414699316025,
                    -0.30599403381347656,
                    -0.18282963335514069,
                    -0.06787534803152084,
                    0.07601211220026016,
                    -0.12949787080287933,
                    -0.04856414720416069,
                    0.14771436154842377,
                    0.16225455701351166,
                    0.10634864121675491,
                    -0.025213351473212242,
                    0.06017111986875534,
                    -0.045847248286008835,
                    -0.3949922025203705,
                    0.07654117047786713,
                    -0.030060702934861183,
                    0.10505504161119461,
                    0.22856025397777557,
                    0.1860472857952118,
                    0.1271064281463623,
                    -0.007520773913711309,
                    0.04273505508899689,
                    -0.09347798675298691,
                    0.06170657277107239,
                    -0.13203157484531403,
                    0.25212547183036804,
                    0.013215580023825169,
                    -0.16249610483646393,
                    0.127957284450531,
                    0.06167531758546829,
                    -0.04839411377906799,
                    0.05259328335523605,
                    -0.013143311254680157,
                    0.3952581584453583,
                    -0.01212113257497549,
                    -0.11485312134027481,
                    0.15392006933689117,
                    -0.03281218931078911,
                    0.12269500643014908,
                    0.1289920061826706,
                    -0.002120183315128088,
                    0.13255555927753448,
                    0.16164720058441162,
                    -0.004657967481762171,
                    0.06843147426843643,
                    -0.005945321638137102,
                    -0.2087615579366684,
                    -0.00039366388227790594,
                    0.0008646533242426813,
                    -0.0012007354525849223,
                    -0.0030238847248256207,
                    -0.24133622646331787,
                    9.53447033680277e-06,
                    -0.01942821592092514,
                    0.1449774205684662,
                    -0.0002075916709145531,
                    0.011258921585977077,
                    -0.013986440375447273,
                    0.08548734337091446,
                    -0.04565330967307091,
                    -0.006530174519866705,
                    0.16514194011688232,
                    0.03993421047925949,
                    -0.0019322861917316914,
                    0.1374277025461197,
                    0.0002810005971696228,
                    -6.252680759644136e-05,
                    -0.02433624491095543,
                    -0.22634746134281158,
                    0.07477162033319473,
                    -0.1580057144165039,
                    -0.15130524337291718,
                    0.24280260503292084,
                    0.054873570799827576,
                    -0.09804132580757141,
                    0.23893232643604279,
                    -0.0007408401579596102,
                    0.0013267449103295803,
                    -0.22106651961803436,
                    -0.06361622363328934,
                    0.02766238898038864,
                    0.10200655460357666,
                    0.2180059254169464,
                    0.11881119757890701,
                    0.12481964379549026,
                    0.03995191678404808,
                    -0.019931718707084656,
                    -0.1916104108095169,
                    0.039814192801713943,
                    0.061048369854688644,
                    -0.08715029805898666,
                    -0.026411566883325577,
                    0.03903410583734512,
                    -0.07272588461637497,
                    0.16537600755691528,
                    0.00017549758194945753,
                    0.021938025951385498,
                    -0.0006222806987352669,
                    0.17828816175460815,
                    -0.03768397495150566,
                    0.02204751782119274,
                    -0.07576428353786469,
                    0.0006742239347659051,
                    0.013294177129864693,
                    0.013641816563904285,
                    -0.06834103167057037,
                    -0.14272505044937134,
                    -0.012121470645070076,
                    0.08288354426622391,
                    -0.05684223398566246,
                    0.030077746137976646,
                    -0.003609912935644388,
                    0.0040357657708227634,
                    -0.011937971226871014,
                    0.021795883774757385,
                    0.121021568775177,
                    -0.0012992204865440726,
                    -0.06700734794139862,
                    0.07420513778924942,
                    0.001260659541003406,
                    0.13380391895771027,
                    -0.1613110899925232,
                    0.15167224407196045,
                    -0.1394215077161789,
                    0.021829238161444664,
                    0.00047212993376888335,
                    -0.1351230889558792,
                    0.05281732603907585,
                    0.1224224865436554,
                    -0.0015849238261580467,
                    -0.005710558500140905,
                    0.17068050801753998,
                    0.1653602570295334,
                    -0.09540270268917084,
                    0.16072748601436615,
                    -0.053912561386823654,
                    0.015716830268502235,
                    -0.02050935849547386,
                    0.08448397368192673,
                    -0.1804373562335968,
                    0.0031452716793864965,
                    0.011366480030119419,
                    0.25817134976387024,
                    0.1742626577615738,
                    -0.018577365204691887,
                    -0.06711922585964203,
                    -0.06291482597589493,
                    0.06397240608930588,
                    0.10512856394052505,
                    -0.03148666396737099,
                    0.08903886377811432,
                    -0.13780924677848816,
                    0.07788640260696411,
                    -0.20988836884498596,
                    0.03740895166993141,
                    -0.09786394238471985,
                    0.036484912037849426,
                    -0.05478920042514801,
                    -0.14414282143115997,
                    0.0037560348864644766,
                    0.02980133704841137,
                    0.0003610059211496264,
                    -0.029554227367043495,
                    -0.04468904435634613,
                    0.14864642918109894,
                    -0.08687783777713776,
                    0.01492538582533598,
                    0.06573137640953064,
                    0.0030652068089693785,
                    0.1282731592655182,
                    0.09197838604450226,
                    0.006913303397595882,
                    -0.0815747007727623,
                    -0.14927072823047638,
                    0.000577865750528872,
                    0.0007200840045697987,
                    -0.0016078264452517033,
                    0.0007736430852673948,
                    0.004542591981589794,
                    0.08708181977272034,
                    -0.0004462930664885789,
                    0.06044009327888489,
                    0.058516766875982285,
                    -3.4246721043018624e-05,
                    -0.010544991120696068,
                    -0.02481752447783947,
                    -0.12269831448793411,
                    0.027055418118834496,
                    -0.09736298024654388,
                    -0.1659131646156311,
                    -0.09990651160478592,
                    0.002702324418351054,
                    -0.17891502380371094,
                    -0.000551911536604166,
                    -0.0007135785417631269,
                    -0.2602701485157013,
                    0.19039934873580933,
                    -0.08425840735435486,
                    0.06723227351903915,
                    -0.11323492228984833,
                    -0.1579199880361557,
                    0.08674337714910507,
                    -0.0188492089509964,
                    -0.06780527532100677,
                    0.00040324273868463933,
                    -0.002111185807734728,
                    -0.030461318790912628,
                    0.12077646702528,
                    -0.12715472280979156,
                    -0.010208032093942165,
                    -0.08564062416553497,
                    -0.0027129349764436483,
                    0.14159512519836426,
                    0.03018767014145851,
                    -0.2436731606721878,
                    0.2181779146194458,
                    0.11573369055986404,
                    -0.03556959331035614,
                    -0.1990579068660736,
                    0.031158452853560448,
                    -0.11074625700712204,
                    -0.0880231186747551,
