[
    {
        "class": "keras.layers.core.dense.Dense",
        "config": {
            "name": "dense_48",
            "trainable": true,
            "dtype": "float32",
            "units": 32,
            "activation": "tanh",
            "use_bias": true,
            "kernel_initializer": {
                "class_name": "GlorotUniform",
                "config": {
                    "seed": null
                }
            },
            "bias_initializer": {
                "class_name": "Zeros",
                "config": {}
            },
            "kernel_regularizer": null,
            "bias_regularizer": null,
            "activity_regularizer": null,
            "kernel_constraint": null,
            "bias_constraint": null
        },
        "weights": [
            {
                "_type": "ndarray",
                "shape": [
                    1,
                    32
                ],
                "dtype": "float32",
                "data": [
                    -0.010713334195315838,
                    0.07703982293605804,
                    0.13864508271217346,
                    0.11407502740621567,
                    0.17040441930294037,
                    -0.15949375927448273,
                    -0.004458331037312746,
                    -0.14939147233963013,
                    0.11211828887462616,
                    -0.09877390414476395,
                    -0.1618470549583435,
                    0.10003885626792908,
                    0.17633041739463806,
                    -0.12627406418323517,
                    0.13969005644321442,
                    0.1467960625886917,
                    -0.12235154211521149,
                    0.13348722457885742,
                    -0.1447141319513321,
                    0.1641695350408554,
                    -0.12449096143245697,
                    0.17056675255298615,
                    -0.0032080081291496754,
                    -0.1568053960800171,
                    0.15673860907554626,
                    0.0300990492105484,
                    -0.00921805202960968,
                    0.11319863796234131,
                    0.008420917205512524,
                    -0.1388099491596222,
                    -0.05060999095439911,
                    -0.1734023541212082
                ]
            },
            {
                "_type": "ndarray",
                "shape": [
                    32
                ],
                "dtype": "float32",
                "data": [
                    -0.002919527469202876,
                    0.31599652767181396,
                    0.4640669822692871,
                    0.42703554034233093,
                    -0.4853079617023468,
                    -0.5258113145828247,
                    -0.10724268108606339,
                    0.4378340542316437,
                    -0.30136555433273315,
                    -0.3899560570716858,
                    -0.5471822023391724,
                    0.32742443680763245,
                    -0.5217851996421814,
                    -0.41059431433677673,
                    -0.3290342688560486,
                    0.4236457943916321,
                    -0.3533746302127838,
                    -0.312152624130249,
                    0.4225873649120331,
                    -0.5110955238342285,
                    0.3316962718963623,
                    -0.4962134063243866,
                    -0.0034740373957902193,
                    0.4124748408794403,
                    -0.4632103145122528,
                    -0.007558005396276712,
                    -0.0030094545800238848,
                    0.3751358091831207,
                    0.01369104441255331,
                    0.36062660813331604,
                    0.022749312222003937,
                    -0.4890574514865875
                ]
            }
        ]
    },
    {
        "class": "keras.layers.core.dense.Dense",
        "config": {
            "name": "dense_49",
            "trainable": true,
            "dtype": "float32",
            "units": 32,
            "activation": "tanh",
            "use_bias": true,
            "kernel_initializer": {
                "class_name": "GlorotUniform",
                "config": {
                    "seed": null
                }
            },
            "bias_initializer": {
                "class_name": "Zeros",
                "config": {}
            },
            "kernel_regularizer": null,
            "bias_regularizer": null,
            "activity_regularizer": null,
            "kernel_constraint": null,
            "bias_constraint": null
        },
        "weights": [
            {
                "_type": "ndarray",
                "shape": [
                    32,
                    32
                ],
                "dtype": "float32",
                "data": [
                    -0.20594316720962524,
                    -0.14867930114269257,
                    0.01884734071791172,
                    0.09531037509441376,
                    0.20059369504451752,
                    0.16578955948352814,
                    0.03468708321452141,
                    -0.18390442430973053,
                    -0.10610683262348175,
                    -0.14407117664813995,
                    -0.3020174205303192,
                    0.10429628938436508,
                    -0.34887200593948364,
                    0.06350172311067581,
                    -0.11776551604270935,
                    -0.009279251098632812,
                    0.06563642621040344,
                    0.05337364971637726,
                    0.02978658303618431,
                    -0.2691698968410492,
                    0.23976995050907135,
                    -0.15169502794742584,
                    -0.030169952660799026,
                    0.08961819857358932,
                    0.13370005786418915,
                    -0.18784718215465546,
                    -0.1302621066570282,
                    -0.3594416677951813,
                    0.18799704313278198,
                    -0.10146071761846542,
                    -0.240977942943573,
                    0.05977080389857292,
                    0.14954639971256256,
                    0.25975361466407776,
                    0.3549243211746216,
                    0.24976640939712524,
                    0.2194676399230957,
                    0.04328825697302818,
                    0.03261560946702957,
                    -0.4094561040401459,
                    -0.1256563663482666,
                    -0.04717488959431648,
                    0.11077830940485,
                    0.5831286907196045,
                    0.06746774166822433,
                    0.05394068732857704,
                    0.2445589303970337,
                    0.07457462698221207,
                    0.00537244463339448,
                    -0.289472758769989,
                    0.847117006778717,
                    0.04858165606856346,
                    -0.036494456231594086,
                    0.07408329844474792,
                    0.10906321555376053,
                    -0.2245364785194397,
                    0.19931983947753906,
                    0.08810711652040482,
                    0.14604979753494263,
                    -0.14462529122829437,
                    -0.2349199652671814,
                    0.372834712266922,
                    -0.0426577627658844,
                    -0.1904449462890625,
                    0.04612109065055847,
                    -0.12010633945465088,
                    0.22242866456508636,
                    0.004281363449990749,
                    0.5329309105873108,
                    -0.29007381200790405,
                    0.020944464951753616,
                    -0.5306119918823242,
                    0.006131529342383146,
                    0.22491943836212158,
                    0.35007745027542114,
                    0.446655809879303,
                    -0.022520745173096657,
                    0.13692347705364227,
                    -0.3400906026363373,
                    0.36142870783805847,
                    -0.2885884940624237,
                    -0.34138718247413635,
                    0.9193644523620605,
                    0.21558630466461182,
                    0.31119900941848755,
                    0.04677509516477585,
                    0.365336149930954,
                    -0.38024991750717163,
                    0.4194592535495758,
                    0.6252679824829102,
                    -0.12126452475786209,
                    -0.2731882929801941,
                    -0.37415364384651184,
                    0.2119905650615692,
                    -0.054443877190351486,
                    -0.3171055018901825,
                    0.23464630544185638,
                    0.3804265558719635,
                    0.3398421108722687,
                    0.305787056684494,
                    0.11757075041532516,
                    -0.37444666028022766,
                    -0.03517032042145729,
                    -0.17381525039672852,
                    -0.20288227498531342,
                    0.5751956701278687,
                    0.26234787702560425,
                    0.35023871064186096,
                    -0.18047404289245605,
                    0.40131327509880066,
                    -0.035862334072589874,
                    -0.006197532173246145,
                    -0.07515043020248413,
                    -0.7416601777076721,
                    1.6522040367126465,
                    0.4638209939002991,
                    -0.10991234332323074,
                    -0.26324617862701416,
                    0.11497412621974945,
                    -0.09498921781778336,
                    0.3616189956665039,
                    0.023868605494499207,
                    -0.01449239905923605,
                    -0.30008915066719055,
                    -0.045206066220998764,
                    0.35671788454055786,
                    0.18299667537212372,
                    -0.37044358253479004,
                    -0.027004892006516457,
                    -0.06067127361893654,
                    -0.40376362204551697,
                    -0.20032227039337158,
                    -0.18944838643074036,
                    0.520368218421936,
                    0.19971096515655518,
                    -0.2676151692867279,
                    -0.20023438334465027,
                    0.11596941947937012,
                    -0.532833456993103,
                    -0.16858290135860443,
                    0.5674600601196289,
                    0.174796462059021,
                    0.6408301591873169,
                    0.3022373914718628,
                    -0.05879220366477966,
                    0.9768831729888916,
                    -0.30550000071525574,
                    -0.12541620433330536,
                    -0.5707820057868958,
                    -0.21125417947769165,
                    -0.14949914813041687,
                    0.12262577563524246,
                    -0.24628381431102753,
                    -0.46362829208374023,
                    -0.07092654705047607,
                    0.23603323101997375,
                    0.3803557753562927,
                    -0.540077805519104,
                    -0.1947818398475647,
                    0.5715051889419556,
                    0.10950680822134018,
                    -0.4589233696460724,
                    0.046396683901548386,
                    -0.5746904015541077,
                    -0.45793643593788147,
                    0.3879495859146118,
                    0.2399524450302124,
                    0.4213099181652069,
                    0.33502066135406494,
                    -0.14542131125926971,
                    -0.6228365302085876,
                    -0.547548770904541,
                    0.1060064360499382,
                    -0.45330125093460083,
                    0.27351129055023193,
                    -0.1924164593219757,
                    -0.014654189348220825,
                    0.21981245279312134,
                    -1.0146111249923706,
                    -0.20483963191509247,
                    -0.3929412364959717,
                    0.27925795316696167,
                    -0.17211300134658813,
                    0.1943267434835434,
                    -0.627328634262085,
                    -0.704437255859375,
                    0.11340464651584625,
                    -0.20233483612537384,
                    0.2533150315284729,
                    -0.008524790406227112,
                    -0.12743110954761505,
                    0.19751214981079102,
                    0.2998155653476715,
                    0.08563232421875,
                    -0.3105815052986145,
                    0.02780725061893463,
                    0.22613751888275146,
                    -0.16142918169498444,
                    -0.030661767348647118,
                    -0.030539413914084435,
                    0.07326889783143997,
                    -0.3205682039260864,
                    -0.30679231882095337,
                    -0.4167928993701935,
                    0.172805055975914,
                    0.022756291553378105,
                    0.02643212303519249,
                    0.03983432799577713,
                    -0.2528136670589447,
                    0.5063134431838989,
                    -0.6639415621757507,
                    -0.27524304389953613,
                    -0.11819478869438171,
                    -0.10931329429149628,
                    0.010572364553809166,
                    0.25260117650032043,
                    0.09216947853565216,
                    -0.16767601668834686,
                    0.10182160884141922,
                    -0.10473132133483887,
                    0.14941677451133728,
                    -0.025057796388864517,
                    0.04393525794148445,
                    0.06884299218654633,
                    0.0829538032412529,
                    0.3133354187011719,
                    0.240036740899086,
                    0.23780599236488342,
                    0.21648770570755005,
                    -0.2987293601036072,
                    -0.5074489116668701,
                    -0.1959439069032669,
                    -0.16714268922805786,
                    -0.15488259494304657,
                    0.7054622173309326,
                    0.21099862456321716,
                    -0.424365371465683,
                    0.13353435695171356,
                    -0.4544983208179474,
                    0.09639489650726318,
                    0.1748189479112625,
                    -0.7146052718162537,
                    0.1689937263727188,
                    -0.08575191348791122,
                    0.39279377460479736,
                    0.3352097272872925,
                    -0.23460103571414948,
                    0.2612573504447937,
                    0.2469073086977005,
                    -0.15366339683532715,
                    0.5330080986022949,
                    -0.09784778207540512,
                    -0.03578569367527962,
                    0.4829428493976593,
                    0.4232565760612488,
                    -0.3070778548717499,
                    -0.06682974100112915,
                    -0.21920479834079742,
                    -0.18887659907341003,
                    -0.12733674049377441,
                    -0.27612006664276123,
                    0.28477543592453003,
                    -0.023982135578989983,
                    0.1972474306821823,
                    0.09990895539522171,
                    0.1559215933084488,
                    -0.7058250904083252,
                    -0.141261026263237,
                    0.07431404292583466,
                    -0.0805497020483017,
                    0.14315694570541382,
                    0.13350170850753784,
                    -0.30846554040908813,
                    0.915025532245636,
                    -0.07115840911865234,
                    0.2090504765510559,
                    -0.025491131469607353,
                    -0.31175681948661804,
                    0.008699536323547363,
                    -0.06791707873344421,
                    -0.01956559158861637,
                    0.03926282748579979,
                    -0.21102699637413025,
                    0.36183962225914,
                    0.19243860244750977,
                    -0.4663273096084595,
                    -0.3154057562351227,
                    0.3388572335243225,
                    0.1370287388563156,
                    -0.00637897290289402,
                    0.11620095372200012,
                    -0.4144701361656189,
                    -0.21520651876926422,
                    0.0958704724907875,
                    0.22179599106311798,
                    0.1168438121676445,
                    -0.02524743415415287,
                    -0.3120978772640228,
                    0.02024708315730095,
                    -0.36194321513175964,
                    -0.13122603297233582,
                    0.10823434591293335,
                    0.2810901999473572,
                    -0.1276506781578064,
                    -0.06958480924367905,
                    0.5103698968887329,
                    -0.9173773527145386,
                    0.00950515829026699,
                    -0.11161945760250092,
                    0.17014269530773163,
                    -0.24052578210830688,
                    0.36337655782699585,
                    -0.21567797660827637,
                    -0.15019911527633667,
                    -0.11995066702365875,
                    0.1073751151561737,
                    0.14901158213615417,
                    -0.030392706394195557,
                    -0.05108106881380081,
                    0.3297327160835266,
                    0.04007967188954353,
                    0.007562357932329178,
                    -0.26492518186569214,
                    -0.386729896068573,
                    -0.6499078273773193,
                    0.16792990267276764,
                    0.033471979200839996,
                    0.5533768534660339,
                    0.00031796531402505934,
                    -0.4471379220485687,
                    -0.43164703249931335,
                    -0.5762040019035339,
                    -0.20018529891967773,
                    -0.07377992570400238,
                    -0.19908477365970612,
                    -0.5074974894523621,
                    -0.08715258538722992,
                    0.3856658935546875,
                    -1.1256588697433472,
                    -0.31203052401542664,
                    -0.42194607853889465,
                    -0.12895551323890686,
                    -0.1937907189130783,
                    0.534160852432251,
                    -0.23784507811069489,
                    -0.5725849866867065,
                    -0.16038289666175842,
                    0.23245811462402344,
                    0.7035372257232666,
                    -0.09613921493291855,
                    0.07868381589651108,
                    -0.141738623380661,
                    -0.2378716915845871,
                    0.23928380012512207,
                    0.21952307224273682,
                    0.38138347864151,
                    0.24779286980628967,
                    -0.4896056056022644,
                    0.17504101991653442,
                    -0.03624691814184189,
                    -0.37428680062294006,
                    0.44501498341560364,
                    0.09524115920066833,
                    0.4621768891811371,
                    0.07302480936050415,
                    0.2652881145477295,
                    0.2457028329372406,
                    0.2992343008518219,
                    0.20833396911621094,
                    -0.07793856412172318,
                    1.0818283557891846,
                    0.44788867235183716,
                    -0.035511989146471024,
                    -0.33271437883377075,
                    0.2879379689693451,
                    0.03855038806796074,
                    0.1135457456111908,
                    0.5877442955970764,
                    0.2544025778770447,
                    -0.29554951190948486,
                    -0.2986023426055908,
                    0.25876209139823914,
                    0.3389170467853546,
                    0.13524305820465088,
                    -0.2815704345703125,
                    -0.4953314960002899,
                    -0.4423038363456726,
                    -0.14792181551456451,
                    -0.1394970864057541,
                    0.6299378871917725,
                    0.21512195467948914,
                    0.32327398657798767,
                    -0.22259557247161865,
                    -0.14637480676174164,
                    -0.5812563896179199,
                    -0.40034574270248413,
                    0.28555816411972046,
                    0.06590791791677475,
                    0.12128495424985886,
                    0.07004804909229279,
                    -0.5542229413986206,
                    0.7172573804855347,
                    -0.4260312616825104,
                    -0.0479869544506073,
                    -0.28801199793815613,
                    -0.06986568123102188,
                    -0.01829387992620468,
                    -0.12283238768577576,
                    -0.2827378213405609,
                    -0.2579737603664398,
                    -0.20504185557365417,
                    0.12165773659944534,
                    0.014729141257703304,
                    -0.5314244627952576,
                    -0.10887745767831802,
                    0.39911970496177673,
                    0.005516276229172945,
                    0.1342882215976715,
                    -0.09043202549219131,
                    -0.059083640575408936,
                    -0.34739792346954346,
                    -0.03803539648652077,
                    -0.1482044905424118,
                    0.5238716006278992,
                    0.13327080011367798,
                    -0.21749168634414673,
                    -0.3044869899749756,
                    -0.6878934502601624,
                    -0.011800653301179409,
                    -0.05123836547136307,
                    -0.21396835148334503,
                    -0.4504280686378479,
                    -0.14943671226501465,
                    0.5441217422485352,
                    -0.9158127903938293,
                    -0.6700637936592102,
                    -0.33860307931900024,
                    0.14265573024749756,
                    -0.21824325621128082,
                    0.45277056097984314,
                    -0.2747187614440918,
                    -0.645427942276001,
                    -0.03409569337964058,
                    0.20394665002822876,
                    0.2579134404659271,
                    -0.02495841309428215,
                    -0.019948478788137436,
                    -0.18106627464294434,
                    -0.3234221041202545,
                    -0.5116948485374451,
                    -0.4434112012386322,
                    0.21635569632053375,
                    -0.15216344594955444,
                    0.1016194224357605,
                    0.22086364030838013,
                    -0.10479484498500824,
                    -0.35124146938323975,
                    0.18637147545814514,
                    -0.6554538011550903,
                    -0.2870781719684601,
                    0.31548964977264404,
                    -0.13514190912246704,
                    0.4089958369731903,
                    0.33950865268707275,
                    -0.26433396339416504,
                    0.7335527539253235,
                    -0.2936922013759613,
                    0.19454510509967804,
                    -0.10486181825399399,
                    0.04031410813331604,
                    -0.04147655889391899,
                    -0.04770321398973465,
                    0.3285708427429199,
                    -0.1567845195531845,
                    -0.17875413596630096,
                    0.3441629409790039,
                    0.2421228587627411,
                    -0.3876470923423767,
                    -0.31281396746635437,
                    0.16217178106307983,
                    0.32722988724708557,
                    0.023378552868962288,
                    0.0631837248802185,
                    0.5963886380195618,
                    0.6870699524879456,
                    -0.2193714678287506,
                    -0.1832553595304489,
                    -0.12754309177398682,
                    -0.4229157865047455,
                    0.6288595795631409,
                    0.5208824276924133,
                    0.7353664040565491,
                    0.21246393024921417,
                    0.4315534234046936,
                    -0.11651534587144852,
                    0.07386846095323563,
                    -0.15163350105285645,
                    -0.19954732060432434,
                    0.8995404243469238,
                    0.4438436031341553,
                    -0.09390360116958618,
                    -0.43074464797973633,
                    0.6610279083251953,
                    -0.1019846647977829,
                    0.11047479510307312,
                    0.743608832359314,
                    0.49021145701408386,
                    0.015465929172933102,
                    -0.5145331621170044,
                    0.048102810978889465,
                    -0.029479913413524628,
                    -0.3528684079647064,
                    0.20253273844718933,
                    -0.35354679822921753,
                    0.012295300140976906,
                    -0.3034084141254425,
                    -0.45737719535827637,
                    0.40711796283721924,
                    0.2828659117221832,
                    0.45227816700935364,
                    0.32070526480674744,
                    -0.41203364729881287,
                    -0.22264747321605682,
                    -0.39359015226364136,
                    0.21484574675559998,
                    -0.19358444213867188,
                    0.21841073036193848,
                    -0.1685754507780075,
                    0.22899362444877625,
                    0.1446392685174942,
                    -0.5946563482284546,
                    -0.48064273595809937,
                    0.056748200207948685,
                    0.3716534376144409,
                    -0.21540197730064392,
                    0.20409134030342102,
                    -0.13825683295726776,
                    -0.3044443428516388,
                    -0.11367657780647278,
                    -0.01273019053041935,
                    0.3460839092731476,
                    0.023203780874609947,
                    0.12048803269863129,
                    0.11876704543828964,
                    -0.23730772733688354,
                    -0.3924578130245209,
                    -0.36190909147262573,
                    -0.12677597999572754,
                    0.13730935752391815,
                    0.5036546587944031,
                    0.5462058782577515,
                    -0.26983460783958435,
                    -0.16754677891731262,
                    -0.18074063956737518,
                    -0.688212513923645,
                    0.14919477701187134,
                    0.09596199542284012,
                    0.2615967392921448,
                    0.4288749396800995,
                    0.06861460953950882,
                    -0.2424251139163971,
                    0.8703013062477112,
                    -0.03315935283899307,
                    -0.27470076084136963,
                    -0.4126647710800171,
                    -0.2681725323200226,
                    0.03130244091153145,
                    -0.1432446837425232,
                    -0.11151553690433502,
                    -0.3707953095436096,
                    -0.07134266942739487,
                    0.3031143248081207,
                    -0.22291243076324463,
                    -0.4876020848751068,
                    -0.43177905678749084,
                    0.2917226254940033,
                    0.4973803162574768,
                    0.5514852404594421,
                    0.4271354675292969,
                    0.027729719877243042,
                    -0.027835052460432053,
                    -0.39538541436195374,
                    -0.2700614333152771,
                    -0.17700378596782684,
                    0.25675177574157715,
                    0.23974798619747162,
                    0.2838444411754608,
                    0.457564115524292,
                    -0.2739150822162628,
                    -0.22118444740772247,
                    -0.1458720564842224,
                    0.1258513331413269,
                    0.19897200167179108,
                    -1.099674105644226,
                    -0.0903262346982956,
                    0.26054883003234863,
                    0.2934815287590027,
                    0.11248183995485306,
                    -0.051787368953228,
                    -0.19183257222175598,
                    0.10618696361780167,
                    0.012523640878498554,
                    0.5409913659095764,
                    -0.46019840240478516,
                    -0.3928911089897156,
                    0.5117591619491577,
                    0.07934205234050751,
                    -0.5087686777114868,
                    -0.20211653411388397,
                    -0.39041823148727417,
                    -0.04357106238603592,
                    -0.016081469133496284,
                    -0.17383775115013123,
                    0.47602081298828125,
                    0.5049247741699219,
                    0.1495055854320526,
                    -0.3391188383102417,
                    0.12195514887571335,
                    -0.38306954503059387,
                    -0.24810007214546204,
                    0.011674152687191963,
                    -0.12954001128673553,
                    0.16248545050621033,
                    -0.1357172578573227,
                    -0.2312023937702179,
                    0.8907809257507324,
                    -0.29178181290626526,
                    -0.18595170974731445,
                    -0.39759546518325806,
                    -0.05719459056854248,
                    0.14898498356342316,
                    -0.007926641032099724,
                    0.22213882207870483,
                    -0.35364893078804016,
                    -0.5070320963859558,
                    0.48542508482933044,
                    -0.14581431448459625,
                    -0.12389583140611649,
                    -0.4008968472480774,
                    0.038614656776189804,
                    0.2799379229545593,
                    0.2771647572517395,
                    0.20978881418704987,
                    0.2218477427959442,
                    0.14907357096672058,
                    -0.38245654106140137,
                    -0.10599107295274734,
                    0.022762693464756012,
                    0.18569083511829376,
                    0.2037089765071869,
                    0.2191416621208191,
                    0.21823115646839142,
                    -0.3166793882846832,
                    0.06297937035560608,
                    -0.03029496781527996,
                    -0.13112136721611023,
                    -0.04930012300610542,
                    -0.8325908780097961,
                    0.4517294764518738,
                    0.02321692742407322,
                    0.3467019498348236,
                    0.22207529842853546,
                    -0.24835024774074554,
                    0.20531676709651947,
                    -0.1477721929550171,
                    0.33913928270339966,
                    0.30568912625312805,
                    -0.2394571453332901,
                    -0.12090159952640533,
                    0.17349658906459808,
                    0.2933977544307709,
                    -0.10910478234291077,
                    -0.259692519903183,
                    -0.4845353960990906,
                    -0.07120028883218765,
                    -0.2443806678056717,
                    -0.4163645803928375,
                    0.6538946628570557,
                    0.4139140248298645,
                    0.07493363320827484,
                    -0.2747681438922882,
                    -0.19921711087226868,
                    -0.8311783075332642,
                    -0.07698741555213928,
                    0.38021978735923767,
                    0.24209831655025482,
                    0.2932978570461273,
                    -0.22183109819889069,
                    -0.05769510194659233,
                    0.7482315897941589,
                    -0.1509164720773697,
                    -0.11489216983318329,
                    -0.6574532389640808,
                    -0.04380006343126297,
                    0.05768142640590668,
                    0.005304609425365925,
                    -0.2107613980770111,
                    -0.429643452167511,
                    -0.4736082851886749,
                    0.4294441342353821,
                    -0.00505048967897892,
                    -0.19062539935112,
                    -0.5974783301353455,
                    0.19109036028385162,
                    0.3019149601459503,
                    0.10793818533420563,
                    0.22883065044879913,
                    0.15646430850028992,
                    -0.11984964460134506,
                    -0.08294758200645447,
                    0.01970023661851883,
                    -0.04628550633788109,
                    -0.10374234616756439,
                    -0.30271172523498535,
                    -0.26654306054115295,
                    -0.06955620646476746,
                    -0.1399489790201187,
                    0.2308284044265747,
                    0.21379436552524567,
                    0.04276660457253456,
                    -0.15549497306346893,
                    0.3161076605319977,
                    0.06884490698575974,
                    0.13238227367401123,
                    -0.21894295513629913,
                    -0.05388578027486801,
                    -0.11194738745689392,
                    0.19209539890289307,
                    -0.17502239346504211,
                    -0.24798297882080078,
                    -0.09614735841751099,
                    -0.01868860423564911,
                    -0.19951754808425903,
                    0.13174742460250854,
                    -0.2560776472091675,
                    -0.04418493062257767,
                    0.2574557960033417,
                    0.1633712500333786,
                    0.6267327666282654,
                    -0.18392573297023773,
                    -0.12086554616689682,
                    -0.6826750636100769,
                    -0.3088168501853943,
                    0.045051004737615585,
                    0.24193529784679413,
                    0.26787611842155457,
                    0.6166008710861206,
                    0.4073737561702728,
                    -0.2712952196598053,
                    0.035225506871938705,
                    -0.12249009311199188,
                    -0.16542665660381317,
                    0.4487669765949249,
                    -0.9335749745368958,
                    0.41596460342407227,
                    0.06206806004047394,
                    0.28443318605422974,
                    0.37029969692230225,
                    0.06598159670829773,
                    0.18170884251594543,
                    0.11469630897045135,
                    0.24922575056552887,
                    0.5074942111968994,
                    -0.5324010252952576,
                    -0.39650052785873413,
                    0.1982627511024475,
                    0.26196470856666565,
                    -0.6008406281471252,
                    -0.4815279543399811,
                    -0.483943372964859,
                    -0.6941244602203369,
                    0.101709745824337,
                    -0.19936706125736237,
                    0.5118359327316284,
                    0.6333035826683044,
                    -0.2008727788925171,
                    0.23277969658374786,
                    -0.07410036772489548,
                    -0.7030181288719177,
                    -0.4224923253059387,
                    0.21136745810508728,
                    -0.1340208649635315,
                    0.39048251509666443,
                    0.22852104902267456,
                    -0.18493501842021942,
                    1.0623962879180908,
                    -0.008740082383155823,
                    -0.13395126163959503,
                    -0.2696380019187927,
                    -0.49762293696403503,
                    -0.20982328057289124,
                    -0.27510538697242737,
                    0.20406077802181244,
                    -0.010265343822538853,
                    -0.348754346370697,
                    0.2430034577846527,
                    -0.04695789888501167,
                    -0.5190227031707764,
                    -0.6898606419563293,
                    0.33518245816230774,
                    0.0038668070919811726,
                    -0.19355414807796478,
                    -0.36341333389282227,
                    0.19635576009750366,
                    0.4102208912372589,
                    -0.051402196288108826,
                    -0.1822414994239807,
                    0.3390776813030243,
                    -0.018189620226621628,
                    0.04978036507964134,
                    0.013687909580767155,
                    -0.18432195484638214,
                    0.15372253954410553,
                    0.05265744775533676,
                    -0.14133772253990173,
                    -0.060418419539928436,
                    0.07914571464061737,
                    0.08242809027433395,
                    -0.44198405742645264,
                    -0.26245155930519104,
                    0.15723195672035217,
                    -0.009589196182787418,
                    0.3374461531639099,
                    0.1460256576538086,
                    0.016390614211559296,
                    0.2594233751296997,
                    0.24336665868759155,
                    -0.051234714686870575,
                    -0.06017201021313667,
                    -0.09588523954153061,
                    -0.1815270185470581,
                    -0.1642920821905136,
                    0.04873957484960556,
                    -0.22064054012298584,
                    -0.1549520343542099,
                    -0.12223462760448456,
                    0.019508227705955505,
                    -0.15091504156589508,
                    0.15814422070980072,
                    0.0032923214603215456,
                    0.012760612182319164,
                    0.17054271697998047,
                    -0.2519882917404175,
                    0.1704511046409607,
                    0.11039352416992188,
                    -0.2073529064655304,
                    0.24679352343082428,
                    0.2080763578414917,
                    0.08180008083581924,
                    -0.21680611371994019,
                    -0.0601755753159523,
                    -0.12814244627952576,
                    0.1399061232805252,
                    0.027762608602643013,
                    0.1418389230966568,
                    0.0719316378235817,
                    0.14600737392902374,
                    0.10637537389993668,
                    0.004814175423234701,
                    -0.18294671177864075,
                    0.04780864715576172,
                    -0.008794416673481464,
                    0.09801874309778214,
                    -0.018651671707630157,
                    -0.06917310506105423,
                    0.07978487759828568,
                    0.2689947783946991,
                    0.377983033657074,
                    0.4059198498725891,
                    -0.2408495843410492,
                    -0.39275601506233215,
                    -0.0003772244672290981,
                    -0.31359100341796875,
                    0.09109490364789963,
                    0.1993207335472107,
                    0.034964144229888916,
                    0.2668002247810364,
                    0.3833232522010803,
                    0.2061474770307541,
                    0.08915888518095016,
                    -0.026625001803040504,
                    -0.18044166266918182,
                    0.8254085183143616,
                    0.19389812648296356,
                    0.336044043302536,
                    -0.25598129630088806,
                    0.28787118196487427,
                    0.09304580092430115,
                    0.3654405474662781,
                    0.4420967400074005,
                    0.2671279311180115,
                    -0.11251514405012131,
                    -0.3895978331565857,
                    0.3048490583896637,
                    0.3118967115879059,
                    0.1847749799489975,
                    0.20309199392795563,
                    -0.36627116799354553,
                    0.07182447612285614,
                    -0.009518957696855068,
                    -0.1387975662946701,
                    -0.13741208612918854,
                    -0.21801875531673431,
                    -0.2720513939857483,
                    -0.003160888561978936,
                    -0.0048206341452896595,
                    0.3493243157863617,
                    0.13733968138694763,
                    0.4903041422367096,
                    -0.19898204505443573,
                    0.3565993010997772,
                    0.06744296848773956,
                    0.1459132432937622,
                    -0.42698073387145996,
                    0.4970758855342865,
                    0.10107235610485077,
                    0.011515328660607338,
                    0.12056151032447815,
                    0.2724275290966034,
                    0.052596304565668106,
                    0.005781013984233141,
                    -0.06417123973369598,
                    -0.03894912824034691,
                    0.3060052990913391,
                    0.38525280356407166,
                    0.09774269163608551,
                    0.34695929288864136,
                    0.020469171926379204,
                    0.1098770797252655,
                    0.17885847389698029,
                    0.32259276509284973,
                    -0.2070571482181549,
                    0.292910099029541,
                    -0.3556470572948456,
                    -0.5500140190124512,
                    -0.16242897510528564,
                    0.1733207404613495,
                    -0.18494881689548492,
                    0.5583330988883972,
                    0.16577599942684174,
                    -0.24024099111557007,
                    -0.2995765805244446,
                    -0.06825800240039825,
                    -0.2039484977722168,
                    0.34317055344581604,
                    -0.379377543926239,
                    0.23513229191303253,
                    0.08922845125198364,
                    0.34733468294143677,
                    0.3040517568588257,
                    -0.23654213547706604,
                    0.1982830911874771,
                    -0.038354404270648956,
                    -0.17528197169303894,
                    0.5449989438056946,
                    -0.4011874496936798,
                    -0.005353379528969526,
                    -0.03718997910618782,
                    0.285498708486557,
                    -0.40078458189964294,
                    0.2234850823879242,
                    -0.19109728932380676,
                    -0.030094334855675697,
                    0.06560438871383667,
                    -0.14362816512584686,
                    0.09856680035591125,
                    -0.2677229046821594,
                    -0.030039092525839806,
                    -0.09652702510356903,
                    -0.12465165555477142,
                    0.023021064698696136,
                    0.20809483528137207,
                    -0.13136529922485352,
                    -0.02468430995941162,
                    0.15615563094615936,
                    -0.06784334778785706,
                    -0.21080468595027924,
                    -0.1663721352815628,
                    0.20052173733711243,
                    0.046451058238744736,
                    -0.1124739870429039,
                    0.004989317152649164,
                    0.2268115133047104,
                    0.11845722794532776,
                    0.21290233731269836,
                    -0.06254462152719498,
                    0.12403720617294312,
                    -0.04808767884969711,
                    0.35738885402679443,
                    -0.2990633249282837,
                    0.0652230829000473,
                    -0.12029070407152176,
                    -0.06939765810966492,
                    -0.3825601041316986,
                    -0.10094872862100601,
                    -0.4107654392719269,
                    -0.8392581939697266,
                    0.5514442324638367,
                    0.6176219582557678,
                    0.6221450567245483,
                    0.686040461063385,
                    -0.5159555673599243,
                    -0.5754705667495728,
                    -0.9080082178115845,
                    -0.33055782318115234,
                    -0.723186731338501,
                    0.1597834974527359,
                    -0.5483932495117188,
                    0.12150159478187561,
                    0.7265368103981018,
                    -1.0483694076538086,
                    -0.7209756374359131,
                    -0.09791120141744614,
                    -0.03547099605202675,
                    -0.49015676975250244,
                    0.5093292593955994,
                    -0.8688579201698303,
                    -0.5867523550987244,
                    -0.5432111620903015,
                    0.2351580411195755,
                    0.7578480839729309,
                    -0.20112475752830505,
                    0.027631353586912155,
                    0.1873333752155304
                ]
            },
            {
                "_type": "ndarray",
                "shape": [
                    32
                ],
                "dtype": "float32",
                "data": [
                    0.22468945384025574,
                    0.24442830681800842,
                    0.2842008173465729,
                    0.29093918204307556,
                    0.4070892333984375,
                    -0.27935224771499634,
                    -0.40929898619651794,
                    -0.3248065412044525,
                    -0.26737597584724426,
                    0.23735223710536957,
                    0.30360278487205505,
                    0.25823262333869934,
                    -0.18219631910324097,
                    0.4626188576221466,
                    -0.05046632140874863,
                    0.4097703993320465,
                    0.24579980969429016,
                    -0.7624203562736511,
                    0.6810548901557922,
                    0.1992703378200531,
                    0.314642071723938,
                    0.2956780195236206,
                    0.24256882071495056,
                    -0.3012455105781555,
                    0.42703768610954285,
                    0.27663272619247437,
                    0.23977884650230408,
                    -0.2749849557876587,
                    -0.25088343024253845,
                    0.27462631464004517,
                    0.21496081352233887,
                    -0.3621511161327362
                ]
            }
        ]
    },
    [
        {
            "_type": "ndarray",
            "shape": [
                32,
                1
            ],
            "dtype": "float32",
            "data": [
                -1.0619155168533325,
                -0.7519773244857788,
                -0.9153513312339783,
                -1.118314504623413,
                -1.1210917234420776,
                0.5385472774505615,
                0.6398168206214905,
                0.9538159370422363,
                0.496419221162796,
                -0.7388485074043274,
                -0.5019271969795227,
                -0.8239291906356812,
                0.5336065292358398,
                -0.9085835218429565,
                0.6332216858863831,
                -0.6291571259498596,
                -1.070253610610962,
                0.6571179628372192,
                -0.9235506653785706,
                -0.9509822726249695,
                -0.6410635709762573,
                -0.6629953980445862,
                -0.5320708155632019,
                0.8039204478263855,
                -1.2190735340118408,
                -0.8874933123588562,
                -0.650171160697937,
                1.163429617881775,
                0.9988884329795837,
                -0.8239758610725403,
                -0.7905297875404358,
                0.9332948327064514
            ]
        }
    ]
]