[
    {
        "class": "keras.layers.core.dense.Dense",
        "config": {
            "name": "dense_46",
            "trainable": true,
            "dtype": "float32",
            "units": 32,
            "activation": "tanh",
            "use_bias": true,
            "kernel_initializer": {
                "class_name": "GlorotUniform",
                "config": {
                    "seed": null
                }
            },
            "bias_initializer": {
                "class_name": "Zeros",
                "config": {}
            },
            "kernel_regularizer": null,
            "bias_regularizer": null,
            "activity_regularizer": null,
            "kernel_constraint": null,
            "bias_constraint": null
        },
        "weights": [
            {
                "_type": "ndarray",
                "shape": [
                    1,
                    32
                ],
                "dtype": "float32",
                "data": [
                    -0.16179487109184265,
                    -0.2338949739933014,
                    -0.11275197565555573,
                    0.15523318946361542,
                    -0.2245149165391922,
                    -0.14347679913043976,
                    0.2458055019378662,
                    -0.1315954476594925,
                    -0.13400700688362122,
                    0.14249327778816223,
                    -0.22981242835521698,
                    0.11409557610750198,
                    0.2004222571849823,
                    0.07511763274669647,
                    -0.016694238409399986,
                    -0.07794743776321411,
                    -0.15605264902114868,
                    0.06563430279493332,
                    -0.05676067993044853,
                    -0.5330815315246582,
                    0.14641040563583374,
                    0.13262520730495453,
                    0.1642782986164093,
                    0.0705285295844078,
                    0.16460269689559937,
                    0.08861883729696274,
                    -0.2099761813879013,
                    0.232513889670372,
                    -0.19911974668502808,
                    0.1888740062713623,
                    -0.024918798357248306,
                    -0.17836463451385498
                ]
            },
            {
                "_type": "ndarray",
                "shape": [
                    32
                ],
                "dtype": "float32",
                "data": [
                    0.36684224009513855,
                    0.47735604643821716,
                    0.33833521604537964,
                    0.49798783659935,
                    -0.6462827324867249,
                    0.5142471194267273,
                    0.5129467844963074,
                    -0.44344067573547363,
                    0.4720781743526459,
                    0.4337865710258484,
                    -0.5417986512184143,
                    0.3512837290763855,
                    -0.5209265947341919,
                    -0.3585726022720337,
                    -0.06496385484933853,
                    0.36718711256980896,
                    0.4451717436313629,
                    0.313209593296051,
                    -0.28167515993118286,
                    -0.3189728260040283,
                    0.3700334429740906,
                    0.35957542061805725,
                    -0.4747770130634308,
                    0.2920455038547516,
                    -0.5413827896118164,
                    -0.35793551802635193,
                    -0.6087862849235535,
                    -0.5623868107795715,
                    0.5473721623420715,
                    -0.5333006978034973,
                    0.1391887217760086,
                    -0.5089845061302185
                ]
            }
        ]
    },
    {
        "class": "keras.layers.core.dense.Dense",
        "config": {
            "name": "dense_47",
            "trainable": true,
            "dtype": "float32",
            "units": 32,
            "activation": "tanh",
            "use_bias": true,
            "kernel_initializer": {
                "class_name": "GlorotUniform",
                "config": {
                    "seed": null
                }
            },
            "bias_initializer": {
                "class_name": "Zeros",
                "config": {}
            },
            "kernel_regularizer": null,
            "bias_regularizer": null,
            "activity_regularizer": null,
            "kernel_constraint": null,
            "bias_constraint": null
        },
        "weights": [
            {
                "_type": "ndarray",
                "shape": [
                    32,
                    32
                ],
                "dtype": "float32",
                "data": [
                    -0.02948707900941372,
                    0.028197966516017914,
                    0.049781907349824905,
                    -0.37559571862220764,
                    0.11018574237823486,
                    -0.10256309062242508,
                    -0.2581777274608612,
                    -0.3048236072063446,
                    0.1809382289648056,
                    0.19076478481292725,
                    -0.05724586546421051,
                    -0.05385274812579155,
                    -0.18545427918434143,
                    -0.24744480848312378,
                    -0.2662739157676697,
                    -0.13596080243587494,
                    0.12451322376728058,
                    0.43569836020469666,
                    -0.18195176124572754,
                    0.4206535220146179,
                    0.013830319046974182,
                    -0.021253786981105804,
                    0.15589816868305206,
                    0.06415247172117233,
                    0.41387656331062317,
                    -0.2932817041873932,
                    0.3626328110694885,
                    0.09779743105173111,
                    -0.2989733815193176,
                    0.3327016532421112,
                    0.12500552833080292,
                    0.138381227850914,
                    -0.18955348432064056,
                    0.12388508766889572,
                    0.206830233335495,
                    -0.14701056480407715,
                    -0.09462295472621918,
                    -0.03029126301407814,
                    -0.403035432100296,
                    -0.13944201171398163,
                    -0.07858575135469437,
                    0.3623746335506439,
                    0.25552475452423096,
                    -0.048795104026794434,
                    -0.06406490504741669,
                    -0.20900842547416687,
                    0.15524126589298248,
                    0.03058301843702793,
                    -0.3538620173931122,
                    0.1285005658864975,
                    0.11414369195699692,
                    0.23184366524219513,
                    -0.25524359941482544,
                    0.1342061161994934,
                    0.2386995106935501,
                    0.018757596611976624,
                    -0.17863374948501587,
                    -0.08585752546787262,
                    0.3216027319431305,
                    0.10535651445388794,
                    -0.2763916254043579,
                    0.31468406319618225,
                    -0.171467125415802,
                    0.3796704411506653,
                    -0.12011928856372833,
                    -0.09627050906419754,
                    0.38013067841529846,
                    -0.038033626973629,
                    0.12501274049282074,
                    -0.5529475212097168,
                    0.06735818088054657,
                    -0.08355148881673813,
                    0.26721227169036865,
                    -0.02917598746716976,
                    -0.1163959950208664,
                    0.028721194714307785,
                    0.4027642011642456,
                    -0.3161594271659851,
                    -0.3132050335407257,
                    0.21935614943504333,
                    -0.32065263390541077,
                    0.20640741288661957,
                    0.020365456119179726,
                    -0.02987906150519848,
                    -0.2820670008659363,
                    0.02180127054452896,
                    -0.08388728648424149,
                    0.16077619791030884,
                    0.31536585092544556,
                    -0.051688265055418015,
                    0.005206405185163021,
                    0.16714175045490265,
                    -0.10309068113565445,
                    0.16969260573387146,
                    -0.015767306089401245,
                    0.17288440465927124,
                    0.3100903034210205,
                    0.19657330214977264,
                    0.5387447476387024,
                    0.1980149894952774,
                    0.26640719175338745,
                    -0.18427668511867523,
                    -0.2746938467025757,
                    -0.5629206895828247,
                    -0.2881337106227875,
                    0.6161301732063293,
                    0.45726510882377625,
                    -0.9309651255607605,
                    0.14940513670444489,
                    -0.2769611179828644,
                    0.0834280252456665,
                    0.22156080603599548,
                    0.1447383612394333,
                    -0.04750370234251022,
                    -0.31803715229034424,
                    0.11558134853839874,
                    -0.12427166849374771,
                    0.01904868707060814,
                    0.2680959105491638,
                    0.1606971174478531,
                    -0.09241686016321182,
                    -0.4965020716190338,
                    -0.11190160363912582,
                    0.20068642497062683,
                    0.07910771667957306,
                    0.08484075963497162,
                    -0.1782594621181488,
                    0.35823890566825867,
                    -0.3668056130409241,
                    -0.6311512589454651,
                    -0.5792741775512695,
                    0.18032774329185486,
                    -0.03421721234917641,
                    0.1162458062171936,
                    0.6131893992424011,
                    0.43406444787979126,
                    0.5292424559593201,
                    -0.3591291904449463,
                    -0.42178165912628174,
                    0.8383045792579651,
                    -0.3308517336845398,
                    0.24075162410736084,
                    0.17622463405132294,
                    -0.07162919640541077,
                    0.3370659351348877,
                    -0.042613230645656586,
                    0.09081102907657623,
                    -0.18680614233016968,
                    -0.11862026900053024,
                    0.032531533390283585,
                    -0.056330833584070206,
                    -0.49009430408477783,
                    0.09065926820039749,
                    0.5751953721046448,
                    0.14067408442497253,
                    -0.2732187807559967,
                    0.3382714092731476,
                    -0.2626337707042694,
                    0.22325918078422546,
                    -0.26828238368034363,
                    0.08685262501239777,
                    0.20160964131355286,
                    0.12040489912033081,
                    -0.29262351989746094,
                    0.036685798317193985,
                    -0.8525097370147705,
                    -0.00596158392727375,
                    -0.22295166552066803,
                    -0.05119306966662407,
                    0.3489280641078949,
                    0.26698073744773865,
                    -0.3864794671535492,
                    0.1737038642168045,
                    -0.44150039553642273,
                    -0.16781523823738098,
                    -0.038852445781230927,
                    -0.052470751106739044,
                    0.21698561310768127,
                    -0.3179078996181488,
                    0.46392616629600525,
                    -0.4100683927536011,
                    0.2089908868074417,
                    0.035564035177230835,
                    0.3853614926338196,
                    0.3742799758911133,
                    -0.07585069537162781,
                    0.3645796477794647,
                    0.39264440536499023,
                    0.22335116565227509,
                    0.05412089452147484,
                    -0.20445974171161652,
                    0.21073339879512787,
                    -0.019888246431946754,
                    0.3026833236217499,
                    0.11114845424890518,
                    0.04364452511072159,
                    -0.13361452519893646,
                    0.04919212684035301,
                    -0.14669421315193176,
                    -0.18275970220565796,
                    -0.09683467447757721,
                    -0.041164468973875046,
                    0.030964238569140434,
                    -0.3595402240753174,
                    -0.03731929510831833,
                    0.021772608160972595,
                    -0.33019229769706726,
                    0.35069575905799866,
                    -0.16209720075130463,
                    0.49342310428619385,
                    -0.20361559092998505,
                    0.21234478056430817,
                    0.10737983137369156,
                    0.017665749415755272,
                    0.00035472685704007745,
                    0.35246503353118896,
                    0.37757450342178345,
                    -0.11294643580913544,
                    -0.020852675661444664,
                    -0.23202650249004364,
                    -0.3819494843482971,
                    -0.0476883165538311,
                    -0.41895371675491333,
                    0.38606804609298706,
                    -0.5339161157608032,
                    -0.31216657161712646,
                    -0.6357417106628418,
                    0.05653437599539757,
                    -0.30743348598480225,
                    0.4587329030036926,
                    0.6882104873657227,
                    0.13102418184280396,
                    -0.043009817600250244,
                    -0.6494752764701843,
                    -0.5342324376106262,
                    0.9189670085906982,
                    -0.43730834126472473,
                    -0.07408176362514496,
                    0.404647558927536,
                    -0.24308210611343384,
                    0.0409674346446991,
                    -0.25851818919181824,
                    0.49972644448280334,
                    -0.0739690512418747,
                    -0.10047484934329987,
                    0.09144941717386246,
                    0.005187089089304209,
                    0.04652540758252144,
                    -0.2744522988796234,
                    0.37417566776275635,
                    -0.2713507115840912,
                    0.05434074252843857,
                    -0.15696287155151367,
                    0.14186444878578186,
                    0.360207200050354,
                    -0.22467775642871857,
                    0.138558030128479,
                    -0.05437307432293892,
                    0.1794251650571823,
                    -0.1101042702794075,
                    0.4568452537059784,
                    -0.40612608194351196,
                    -0.04531017690896988,
                    -0.13848140835762024,
                    -0.1176191121339798,
                    0.0031333130318671465,
                    0.2471534013748169,
                    -0.20322531461715698,
                    0.019366957247257233,
                    -0.22977042198181152,
                    -0.4095381796360016,
                    -0.09748303890228271,
                    -0.11017513275146484,
                    0.4292496144771576,
                    0.024932993575930595,
                    0.25104910135269165,
                    -0.2986467182636261,
                    0.403001070022583,
                    0.1501678079366684,
                    0.6413822174072266,
                    0.6077917814254761,
                    -0.17706099152565002,
                    0.3485465347766876,
                    0.051177024841308594,
                    0.1877884417772293,
                    0.3435570299625397,
                    0.04565288498997688,
                    0.05782537907361984,
                    0.09278523921966553,
                    0.22168953716754913,
                    0.8665845394134521,
                    0.16152244806289673,
                    0.3388012945652008,
                    -0.39367109537124634,
                    -0.6742247343063354,
                    -0.5460675954818726,
                    -0.3385399878025055,
                    0.3729032278060913,
                    0.40958845615386963,
                    -0.8850456476211548,
                    0.6674478054046631,
                    -0.45387589931488037,
                    -0.04836595058441162,
                    0.20671387016773224,
                    -0.2185893952846527,
                    0.36651331186294556,
                    -0.3956577777862549,
                    0.2089623510837555,
                    0.01214479748159647,
                    -0.3085436224937439,
                    0.42500463128089905,
                    0.021772651001811028,
                    0.17937295138835907,
                    -0.586366593837738,
                    0.2878650724887848,
                    -0.1415593922138214,
                    0.18644757568836212,
                    -0.13199424743652344,
                    -0.41276639699935913,
                    -0.1939314305782318,
                    -0.15698346495628357,
                    -0.2590707242488861,
                    -0.6757603883743286,
                    -0.0884639099240303,
                    0.03870952129364014,
                    0.14546090364456177,
                    0.5488079190254211,
                    0.49890977144241333,
                    0.2391802817583084,
                    -0.5144881010055542,
                    -0.46572446823120117,
                    0.8223534822463989,
                    -0.19346745312213898,
                    0.3840793967247009,
                    -0.16536037623882294,
                    -0.03840872272849083,
                    0.28521662950515747,
                    0.08269656449556351,
                    0.4442066550254822,
                    0.06900642812252045,
                    0.22495809197425842,
                    0.2299424409866333,
                    -0.493625283241272,
                    0.031304821372032166,
                    -0.39349132776260376,
                    0.37013235688209534,
                    -0.09678272902965546,
                    -0.10681930184364319,
                    0.4787543714046478,
                    -0.14910027384757996,
                    0.41895169019699097,
                    -0.06152776628732681,
                    0.2705021798610687,
                    0.44198712706565857,
                    0.6103424429893494,
                    0.04879295080900192,
                    0.3116103410720825,
                    -0.1325356811285019,
                    -0.37063372135162354,
                    -0.30000460147857666,
                    0.022360751405358315,
                    0.34200477600097656,
                    0.35857996344566345,
                    -0.4966629445552826,
                    0.025887856259942055,
                    -0.1294168084859848,
                    -0.26050227880477905,
                    0.10638924688100815,
                    -0.2245849072933197,
                    -0.148561492562294,
                    -0.024610955268144608,
                    0.07633242011070251,
                    -0.05639353767037392,
                    -0.2505212724208832,
                    0.16089661419391632,
                    0.12862874567508698,
                    0.12763072550296783,
                    -0.1265677809715271,
                    0.3115027844905853,
                    -0.15849654376506805,
                    0.001905511599034071,
                    0.05853665992617607,
                    -0.01891373284161091,
                    -0.2621675431728363,
                    0.116330586373806,
                    -0.39062830805778503,
                    -0.3992861807346344,
                    0.0005591618828475475,
                    -0.5198062658309937,
                    0.6722778081893921,
                    0.0675027072429657,
                    0.09555604308843613,
                    0.1535656750202179,
                    -0.18931521475315094,
                    0.04607730731368065,
                    0.18830257654190063,
                    -0.1037195697426796,
                    0.22498111426830292,
                    0.46157968044281006,
                    0.0824611634016037,
                    -0.008356067351996899,
                    -0.09389980882406235,
                    -0.18826010823249817,
                    -0.3763098120689392,
                    0.037771403789520264,
                    -0.3489430248737335,
                    -0.22842131555080414,
                    -0.5751093029975891,
                    -0.521523118019104,
                    -0.06299848109483719,
                    -0.4904611110687256,
                    -0.4346254765987396,
                    0.3081420660018921,
                    0.10944326967000961,
                    0.11128143221139908,
                    -0.18046803772449493,
                    0.08817943930625916,
                    -0.08845975995063782,
                    0.03170456364750862,
                    0.20804165303707123,
                    -0.13599629700183868,
                    0.6476297974586487,
                    0.13449685275554657,
                    -0.15715953707695007,
                    0.09866998344659805,
                    0.002460674848407507,
                    0.17001116275787354,
                    0.15915758907794952,
                    0.11902035027742386,
                    0.3112046420574188,
                    0.29770711064338684,
                    -0.10362302511930466,
                    0.012262333184480667,
                    -0.3622361123561859,
                    0.0518748015165329,
                    -0.4350258409976959,
                    -0.1555522382259369,
                    -0.32964205741882324,
                    0.13285957276821136,
                    -0.23594245314598083,
                    -0.247898131608963,
                    0.3297227621078491,
                    0.09215358644723892,
                    0.17401282489299774,
                    -0.3068735897541046,
                    -0.12728548049926758,
                    0.3516026437282562,
                    -0.20814679563045502,
                    -0.28892582654953003,
                    -0.0030006198212504387,
                    -0.09459482878446579,
                    0.036648813635110855,
                    0.14023056626319885,
                    0.18844570219516754,
                    0.14356839656829834,
                    0.04105312004685402,
                    -0.061402201652526855,
                    -0.16530482470989227,
                    0.1042521521449089,
                    0.48930656909942627,
                    0.03878835588693619,
                    0.11101800203323364,
                    0.2815221846103668,
                    -0.34122470021247864,
                    -0.3358801603317261,
                    -0.23766055703163147,
                    -0.027385439723730087,
                    -0.1334911435842514,
                    0.19567067921161652,
                    0.11482522636651993,
                    0.1384911686182022,
                    0.18499769270420074,
                    -0.0055931806564331055,
                    -0.05306924507021904,
                    0.025268439203500748,
                    -0.1782107949256897,
                    -0.23078975081443787,
                    -0.23729267716407776,
                    0.12804719805717468,
                    0.03520911931991577,
                    0.37282508611679077,
                    0.03146383538842201,
                    0.5060983300209045,
                    -0.04780727997422218,
                    -0.1184072345495224,
                    -0.8152783513069153,
                    -0.43018996715545654,
                    0.023786211386322975,
                    -0.22117677330970764,
                    0.18941730260849,
                    0.35885441303253174,
                    -0.3702395260334015,
                    0.3738344609737396,
                    -0.3077366352081299,
                    0.0800633504986763,
                    0.05608067288994789,
                    -0.02144603244960308,
                    0.3642638921737671,
                    0.15057140588760376,
                    0.1166858822107315,
                    -0.3233085870742798,
                    0.30355578660964966,
                    -0.16169768571853638,
                    0.4047830104827881,
                    0.1793096959590912,
                    0.14887641370296478,
                    0.30782943964004517,
                    0.04620778560638428,
                    0.27206748723983765,
                    0.07467387616634369,
                    -0.05812610685825348,
                    0.05251151695847511,
                    -0.2003798633813858,
                    0.03350396826863289,
                    0.29086625576019287,
                    -0.33134472370147705,
                    0.45988544821739197,
                    -0.5073614716529846,
                    0.07758389413356781,
                    -0.26357629895210266,
                    -0.14437554776668549,
                    0.047044537961483,
                    0.303928017616272,
                    -0.3410703241825104,
                    -0.08945827186107635,
                    -0.38467395305633545,
                    -0.4070332646369934,
                    -0.18173524737358093,
                    0.08737054467201233,
                    0.2604181170463562,
                    -0.14853890240192413,
                    -0.08551832288503647,
                    -0.3714754581451416,
                    -0.07638972997665405,
                    -0.04876625910401344,
                    0.5092536807060242,
                    0.4504697322845459,
                    0.06490039825439453,
                    0.22039932012557983,
                    0.27475959062576294,
                    -0.2205759882926941,
                    0.267351895570755,
                    -0.09586387872695923,
                    0.33817338943481445,
                    0.3897517919540405,
                    0.16972428560256958,
                    0.714738667011261,
                    0.17430810630321503,
                    0.39738544821739197,
                    -0.20221270620822906,
                    -0.24195586144924164,
                    -0.2981674373149872,
                    -0.15626078844070435,
                    0.5326868891716003,
                    0.4199255406856537,
                    -0.8549259305000305,
                    0.04918752610683441,
                    -0.16104787588119507,
                    0.1513998806476593,
                    0.34079670906066895,
                    0.3048781454563141,
                    0.5031691789627075,
                    -0.053881071507930756,
                    0.060300812125205994,
                    0.11382084339857101,
                    0.18600283563137054,
                    -0.201234370470047,
                    0.07698605954647064,
                    -0.10256865620613098,
                    -0.3166489899158478,
                    -0.07514011859893799,
                    0.10514504462480545,
                    0.19814859330654144,
                    0.053858574479818344,
                    -0.08209559321403503,
                    -0.004065692890435457,
                    -0.1707371026277542,
                    -0.1181144192814827,
                    -0.5395923852920532,
                    0.0599675290286541,
                    -0.26165634393692017,
                    -0.07552030682563782,
                    0.5149115324020386,
                    -0.07269703596830368,
                    0.28012314438819885,
                    -0.053183525800704956,
                    -0.32986268401145935,
                    1.0086017847061157,
                    -0.4288021922111511,
                    0.20687220990657806,
                    0.09541123360395432,
                    -0.4253784716129303,
                    -0.27550339698791504,
                    -0.4788312315940857,
                    -0.002252389909699559,
                    -0.04308796674013138,
                    0.11542227119207382,
                    0.19741898775100708,
                    0.23373809456825256,
                    -0.3387376070022583,
                    -0.1741088181734085,
                    0.17244906723499298,
                    -0.21540455520153046,
                    0.043928444385528564,
                    -0.25494250655174255,
                    -0.11137648671865463,
                    0.15999245643615723,
                    0.21639114618301392,
                    -0.1582498550415039,
                    0.2189585417509079,
                    -0.1729605793952942,
                    -0.48506516218185425,
                    -0.19074256718158722,
                    0.46163758635520935,
                    -0.2534756660461426,
                    0.06977853178977966,
                    0.30345186591148376,
                    -0.13437555730342865,
                    -0.102702297270298,
                    0.0320199616253376,
                    0.16038931906223297,
                    -0.12521497905254364,
                    0.3045227825641632,
                    -0.13714809715747833,
                    0.3833767771720886,
                    -0.3675054609775543,
                    0.17750951647758484,
                    0.1299462616443634,
                    0.28258216381073,
                    0.28658047318458557,
                    -0.4048193693161011,
                    -0.24662086367607117,
                    -0.22816576063632965,
                    0.12469251453876495,
                    0.0642244890332222,
                    -0.3131323456764221,
                    0.2787376046180725,
                    0.2113925814628601,
                    0.04175320267677307,
                    -0.3214128017425537,
                    0.20062150061130524,
                    0.49105846881866455,
                    0.38211867213249207,
                    0.24815669655799866,
                    0.15891951322555542,
                    -0.13686837255954742,
                    -0.4397030770778656,
                    -0.47242000699043274,
                    -0.032065149396657944,
                    0.03304104879498482,
                    0.3449137806892395,
                    -0.46623003482818604,
                    0.4689885973930359,
                    -0.02136496640741825,
                    0.050557006150484085,
                    0.36138683557510376,
                    0.03436698392033577,
                    0.38752466440200806,
                    -0.008546928875148296,
                    -0.241110160946846,
                    -0.02731902524828911,
                    0.2561694383621216,
                    -0.06469129770994186,
                    0.3069669008255005,
                    0.1735718995332718,
                    0.00034926572698168457,
                    -0.1335543990135193,
                    0.020393799990415573,
                    -0.19833824038505554,
                    -0.294146865606308,
                    -0.0439186654984951,
                    0.18319429457187653,
                    0.15639638900756836,
                    0.3883158564567566,
                    0.6024670004844666,
                    0.08638069778680801,
                    0.0301873330026865,
                    0.10676407068967819,
                    -0.34901347756385803,
                    0.01413615234196186,
                    -0.0935860201716423,
                    0.5401787757873535,
                    0.5192337036132812,
                    -0.5156599879264832,
                    0.40502628684043884,
                    -0.14147675037384033,
                    -0.05690356716513634,
                    0.33169054985046387,
                    0.21622493863105774,
                    -0.027574116364121437,
                    -0.3683442175388336,
                    0.09501851350069046,
                    0.16747859120368958,
                    -0.26151373982429504,
                    -0.18446135520935059,
                    0.09000682085752487,
                    -0.015248983167111874,
                    -0.2564847767353058,
                    0.17432931065559387,
                    -0.15008099377155304,
                    -0.17313626408576965,
                    -0.008131079375743866,
                    0.05964143946766853,
                    -0.025008808821439743,
                    -0.195560023188591,
                    -0.08722016215324402,
                    -0.003845756407827139,
                    0.29435691237449646,
                    -0.5169111490249634,
                    0.38136735558509827,
                    0.45703911781311035,
                    0.09586036950349808,
                    -0.28632575273513794,
                    -0.18083205819129944,
                    -0.22315266728401184,
                    0.3850895166397095,
                    -0.4180147647857666,
                    0.01397071685642004,
                    0.11326682567596436,
                    0.07549211382865906,
                    0.43108466267585754,
                    -0.4574531316757202,
                    -0.13277143239974976,
                    -0.37838315963745117,
                    0.16416330635547638,
                    0.03088769130408764,
                    0.1294161081314087,
                    -0.5291809439659119,
                    -0.2218637466430664,
                    0.22884470224380493,
                    0.06942099332809448,
                    -0.1415158361196518,
                    0.20654979348182678,
                    -0.30108726024627686,
                    -0.10638241469860077,
                    -0.28934696316719055,
                    0.04711299017071724,
                    0.04897359386086464,
                    0.460148423910141,
                    -0.07242538779973984,
                    -0.2442322075366974,
                    -0.21895167231559753,
                    -0.0849723219871521,
                    -0.02476462349295616,
                    -0.3694102168083191,
                    0.22115924954414368,
                    0.2238893061876297,
                    -0.5771675705909729,
                    0.33525151014328003,
                    0.04913877323269844,
                    -0.29587695002555847,
                    0.15255999565124512,
                    -0.217061847448349,
                    -0.006983805447816849,
                    0.08292346447706223,
                    -0.08849490433931351,
                    -0.0967237651348114,
                    -0.10715639591217041,
                    0.005838179495185614,
                    0.23624935746192932,
                    0.3355347216129303,
                    -0.2785918414592743,
                    0.018184775486588478,
                    -0.2235724776983261,
                    0.10293214023113251,
                    0.13032880425453186,
                    -0.08323679119348526,
                    0.27341216802597046,
                    0.0012289131991565228,
                    -0.3662666976451874,
                    -0.47918176651000977,
                    -0.08675191551446915,
                    -0.007945471443235874,
                    0.5721681714057922,
                    0.16548150777816772,
                    0.11085217446088791,
                    -0.11246218532323837,
                    -0.14124803245067596,
                    -0.10086061805486679,
                    0.48758164048194885,
                    0.10167164355516434,
                    0.48067426681518555,
                    0.5118706226348877,
                    0.22086825966835022,
                    0.05239643529057503,
                    -0.5586174726486206,
                    0.015144210308790207,
                    -0.09538636356592178,
                    0.48138487339019775,
                    -0.3298250138759613,
                    -0.09719059616327286,
                    -0.26457858085632324,
                    -0.4384838938713074,
                    0.04691731557250023,
                    -0.18917113542556763,
                    -0.03825436532497406,
                    -0.00698331743478775,
                    -0.3766222298145294,
                    0.009044181555509567,
                    -0.4662374258041382,
                    0.041795916855335236,
                    -0.15543071925640106,
                    -0.07165787369012833,
                    0.32483971118927,
                    -0.4231666624546051,
                    0.807965099811554,
                    0.11866570264101028,
                    0.16539902985095978,
                    0.28258565068244934,
                    -0.38037240505218506,
                    -0.35328933596611023,
                    0.7002165913581848,
                    -0.12236669659614563,
                    0.290289044380188,
                    0.3625858426094055,
                    -0.3781673014163971,
                    0.09032215923070908,
                    -0.6015400886535645,
                    0.38741540908813477,
                    -0.42726150155067444,
                    0.5437167286872864,
                    -0.18527814745903015,
                    0.24962225556373596,
                    -0.3735561668872833,
                    -0.6038077473640442,
                    0.04216742143034935,
                    -0.15569216012954712,
                    -0.10741104930639267,
                    -0.3353765606880188,
                    -0.1836249828338623,
                    -0.199147567152977,
                    0.11843220889568329,
                    -0.1855669766664505,
                    -0.4241182804107666,
                    -0.391666442155838,
                    0.05342932790517807,
                    -0.3337453603744507,
                    0.16526763141155243,
                    0.6208599805831909,
                    0.5526573061943054,
                    0.4163534343242645,
                    -0.3669566512107849,
                    -0.5817909836769104,
                    0.8151990175247192,
                    -0.6975089907646179,
                    0.42973795533180237,
                    -0.12462879717350006,
                    -0.0489795096218586,
                    -0.00012362793495412916,
                    -0.346199095249176,
                    0.21467278897762299,
                    -0.10291397571563721,
                    0.24177394807338715,
                    -0.14065074920654297,
                    -0.396577924489975,
                    -0.1949128657579422,
                    -0.3983522951602936,
                    0.35725244879722595,
                    -0.30161118507385254,
                    -0.05227942392230034,
                    0.19857709109783173,
                    0.20126225054264069,
                    0.16627994179725647,
                    0.2123684585094452,
                    -0.35275086760520935,
                    0.22106815874576569,
                    -0.32772013545036316,
                    0.07747543603181839,
                    -0.514682412147522,
                    0.3292860984802246,
                    0.09538953751325607,
                    -0.02420067973434925,
                    0.15145231783390045,
                    -0.2732701897621155,
                    -0.3538995087146759,
                    0.4181469976902008,
                    -0.26959893107414246,
                    0.26172491908073425,
                    -0.09191284328699112,
                    0.0676158145070076,
                    0.21563810110092163,
                    -0.47944289445877075,
                    0.30668362975120544,
                    -0.3405197262763977,
                    -0.03192141652107239,
                    -0.3157172203063965,
                    0.1098322942852974,
                    -0.45765814185142517,
                    0.030374376103281975,
                    0.29429101943969727,
                    -0.42044106125831604,
                    -0.2597387433052063,
                    0.449191153049469,
                    -0.047447290271520615,
                    -0.12244250625371933,
                    -0.2504452168941498,
                    -0.07602990418672562,
                    -0.08273595571517944,
                    -0.023759368807077408,
                    -0.3999907672405243,
                    0.2027590274810791,
                    -0.46205809712409973,
                    -0.37967950105667114,
                    -0.047314032912254333,
                    0.1946401596069336,
                    -0.08770312368869781,
                    0.25032708048820496,
                    -0.4530074894428253,
                    -0.1533736139535904,
                    -0.5156964659690857,
                    -0.5525144934654236,
                    0.060713279992341995,
                    -0.6220497488975525,
                    0.5342946648597717,
                    0.12242764234542847,
                    0.061396971344947815,
                    -0.17194229364395142,
                    0.2919216454029083,
                    0.109364353120327,
                    0.6598573327064514,
                    0.4532172679901123,
                    0.028950436040759087,
                    0.07492262870073318,
                    0.31101852655410767,
                    -0.31766536831855774,
                    0.1983014941215515,
                    -0.05689528211951256,
                    0.29977545142173767,
                    0.1559704691171646,
                    -0.14629919826984406,
                    -0.4180353581905365,
                    0.11251647025346756,
                    -0.5022121071815491,
                    0.192255437374115,
                    0.05961130931973457,
                    -0.023973774164915085,
                    0.29876628518104553,
                    -0.008859127759933472,
                    -0.35139501094818115,
                    -0.021850431337952614,
                    -0.03177051246166229,
                    0.22133879363536835,
                    0.44027477502822876,
                    0.1574791967868805,
                    0.531321108341217,
                    -0.35626375675201416,
                    0.09163982421159744,
                    -0.20034736394882202,
                    0.4050147235393524,
                    -0.014396902173757553,
                    -0.38286715745925903,
                    -0.6395511031150818,
                    -0.5688009262084961,
                    0.41381335258483887,
                    -0.15797895193099976,
                    -0.41459745168685913,
                    0.19187067449092865,
                    -0.20530493557453156,
                    0.04752208665013313,
                    -0.3679840862751007,
                    0.26868048310279846,
                    -0.19182196259498596,
                    0.21845339238643646,
                    -0.23514324426651,
                    -0.1140943095088005,
                    -0.6127593517303467,
                    -0.13718697428703308,
                    -0.05906001105904579,
                    -0.05426037684082985,
                    -0.0662875548005104,
                    0.03648930415511131,
                    -0.07421199977397919,
                    0.2247646600008011,
                    -0.33303889632225037,
                    0.05592798814177513,
                    0.05373571068048477,
                    0.060464706271886826,
                    0.47781527042388916,
                    -0.1692740023136139,
                    0.17769266664981842,
                    0.1836869865655899,
                    0.039208702743053436,
                    0.05489564314484596,
                    0.4035438299179077,
                    0.34109923243522644,
                    -0.09497631341218948,
                    0.14138826727867126,
                    0.32715365290641785,
                    0.21130698919296265,
                    -0.05605097487568855,
                    0.12725982069969177,
                    -0.3551337420940399,
                    -0.17613299190998077,
                    -0.15668055415153503,
                    -0.5478276014328003,
                    -0.03422584384679794,
                    0.2028677612543106,
                    0.32045724987983704,
                    0.2160317301750183,
                    0.1340945065021515,
                    0.03345126286149025,
                    -0.35725778341293335,
                    -0.4431714117527008,
                    0.5948548316955566,
                    -0.4244391620159149,
                    0.04115791991353035,
                    0.2846963405609131,
                    -0.2087867707014084,
                    0.2864271402359009,
                    0.10706395655870438,
                    0.362174391746521,
                    0.1385808289051056,
                    0.38982102274894714,
                    -0.05777226760983467,
                    0.12615229189395905,
                    -0.2152511328458786,
                    0.056934747844934464,
                    0.5630590915679932,
                    0.11134734749794006,
                    -0.2745061218738556,
                    0.22387978434562683,
                    -0.010320338420569897,
                    0.2909160256385803,
                    -0.14790621399879456
                ]
            },
            {
                "_type": "ndarray",
                "shape": [
                    32
                ],
                "dtype": "float32",
                "data": [
                    0.17990189790725708,
                    0.38360288739204407,
                    0.5303491950035095,
                    -0.240360826253891,
                    0.22759516537189484,
                    -0.3944287896156311,
                    -0.27675607800483704,
                    -0.35344043374061584,
                    -0.2634848952293396,
                    0.28052225708961487,
                    0.39566370844841003,
                    -0.5675841569900513,
                    0.3528798520565033,
                    -0.18412554264068604,
                    -0.358124703168869,
                    0.1769873946905136,
                    -0.04830475151538849,
                    0.22867058217525482,
                    -0.27989083528518677,
                    0.21235574781894684,
                    -0.5136793851852417,
                    0.5071136355400085,
                    -0.06704973429441452,
                    0.41038328409194946,
                    0.34087327122688293,
                    -0.4522571861743927,
                    0.3119121193885803,
                    0.29711049795150757,
                    0.5421594977378845,
                    0.2194899618625641,
                    -0.26793986558914185,
                    0.4075339436531067
                ]
            }
        ]
    },
    [
        {
            "_type": "ndarray",
            "shape": [
                32,
                1
            ],
            "dtype": "float32",
            "data": [
                -0.7224700450897217,
                -0.962878942489624,
                -0.502469539642334,
                0.47849807143211365,
                -0.712429940700531,
                0.5913512706756592,
                0.48733800649642944,
                0.66603684425354,
                0.6873405575752258,
                -0.6449494957923889,
                -0.7266541719436646,
                0.6780994534492493,
                -0.5842549800872803,
                0.7347936034202576,
                0.900814950466156,
                -0.5810750722885132,
                0.6580025553703308,
                -0.5311983227729797,
                0.7985756397247314,
                -0.6709503531455994,
                0.622086763381958,
                -0.6107416152954102,
                -0.36895155906677246,
                -0.6030575037002563,
                -0.6422497630119324,
                0.8376585841178894,
                -0.515677273273468,
                -0.8147486448287964,
                1.3301236629486084,
                -0.8879904747009277,
                0.5344573855400085,
                -1.0950534343719482
            ]
        }
    ]
]