[
    {
        "class": "keras.layers.core.dense.Dense",
        "config": {
            "name": "dense_26",
            "trainable": true,
            "dtype": "float32",
            "units": 64,
            "activation": "tanh",
            "use_bias": true,
            "kernel_initializer": {
                "class_name": "GlorotUniform",
                "config": {
                    "seed": null
                }
            },
            "bias_initializer": {
                "class_name": "Zeros",
                "config": {}
            },
            "kernel_regularizer": null,
            "bias_regularizer": null,
            "activity_regularizer": null,
            "kernel_constraint": null,
            "bias_constraint": null
        },
        "weights": [
            {
                "_type": "ndarray",
                "shape": [
                    2,
                    64
                ],
                "dtype": "float32",
                "data": [
                    -0.00011106496822321787,
                    -0.00022306322352960706,
                    -0.0004644265864044428,
                    -0.00016922243230510503,
                    0.036854714155197144,
                    -0.035573869943618774,
                    -0.38121649622917175,
                    0.4614163637161255,
                    -0.0003821658028755337,
                    -0.207294762134552,
                    0.3105824589729309,
                    0.07603248208761215,
                    0.0007076553883962333,
                    0.0002795779437292367,
                    0.3802221119403839,
                    -0.0005111262435093522,
                    0.4274442493915558,
                    -0.24450816214084625,
                    -0.02352580986917019,
                    -0.000488160498207435,
                    0.03065713681280613,
                    -0.0006749710300937295,
                    -0.0004027567047160119,
                    -0.14363528788089752,
                    -9.321422112407163e-06,
                    -0.000636761833447963,
                    -9.54962433752371e-06,
                    0.001039211405441165,
                    0.0008590594516135752,
                    0.2177520990371704,
                    0.0002390363224549219,
                    0.3671857416629791,
                    0.0009674051543697715,
                    -0.40759971737861633,
                    -0.26267921924591064,
                    -0.0001762675674399361,
                    0.1081400066614151,
                    0.3165893256664276,
                    4.4057971535949036e-05,
                    0.1658886820077896,
                    0.00036206518416292965,
                    0.3974921405315399,
                    -0.059256281703710556,
                    0.1445678025484085,
                    -2.288929681526497e-05,
                    0.37384670972824097,
                    -0.00019321966101415455,
                    -0.0003955990250688046,
                    -8.584204624639824e-05,
                    -0.00017014413606375456,
                    -0.00023671753297094256,
                    -0.0003151267010252923,
                    -0.13620004057884216,
                    0.0006507254438474774,
                    0.3337594270706177,
                    0.2515709102153778,
                    0.00035519368248060346,
                    6.4008345361799e-05,
                    0.13343259692192078,
                    -0.0001561185490572825,
                    -0.3269467055797577,
                    -0.16326498985290527,
                    -0.079750657081604,
                    -0.00020906607096549124,
                    -0.00017943214334081858,
                    -0.00011008440924342722,
                    0.00022692685888614506,
                    -0.00048772228183224797,
                    0.05697108432650566,
                    -0.27718254923820496,
                    0.04497632756829262,
                    0.4523768424987793,
                    -0.0002641493920236826,
                    0.33454573154449463,
                    0.2176758050918579,
                    0.15274332463741302,
                    -0.0004278200212866068,
                    0.00011873097537318245,
                    -0.08776592463254929,
                    -0.00040126778185367584,
                    0.08212564885616302,
                    -0.08930031210184097,
                    0.06865911185741425,
                    -1.3930995010014158e-05,
                    -0.3686996400356293,
                    0.00022905465448275208,
                    0.00010965779074467719,
                    -0.0772147849202156,
                    -0.0003689706791192293,
                    -0.00016553548630326986,
                    0.0001890051062218845,
                    -9.002537262858823e-05,
                    -0.00033078042906709015,
                    0.16678166389465332,
                    0.00012734935444314033,
                    -0.19982442259788513,
                    0.0003605501551646739,
                    0.13610349595546722,
                    -0.1830262839794159,
                    2.290895463374909e-05,
                    -0.41174426674842834,
                    -0.24966107308864594,
                    -0.00011579330021049827,
                    0.36496084928512573,
                    0.00011961084965150803,
                    0.029322121292352676,
                    -0.03269585222005844,
                    0.35481733083724976,
                    -0.0004942473024129868,
                    -0.1299542337656021,
                    1.07814112197957e-05,
                    -7.946208643261343e-05,
                    -7.950554572744295e-05,
                    0.00023252121172845364,
                    -0.00014716724399477243,
                    4.869372787652537e-05,
                    -0.3551996648311615,
                    0.00031714708893559873,
                    0.12036462873220444,
                    -0.33138516545295715,
                    0.00015156682638917118,
                    0.00029893036116845906,
                    0.2011748105287552,
                    -0.00010290460340911523,
                    -0.20280922949314117,
                    0.423763632774353,
                    -0.33111411333084106,
                    0.0004436260787770152
                ]
            },
            {
                "_type": "ndarray",
                "shape": [
                    64
                ],
                "dtype": "float32",
                "data": [
                    -0.00043235011980868876,
                    0.00028556687175296247,
                    0.0006370024057105184,
                    -0.00014819385251030326,
                    0.11865779757499695,
                    0.608590841293335,
                    -0.6476286053657532,
                    0.14616091549396515,
                    -0.0003685682313516736,
                    0.7681334614753723,
                    -0.8540711402893066,
                    0.25991952419281006,
                    -9.670413419371471e-05,
                    -8.47692081151763e-06,
                    -0.9075137376785278,
                    -0.0003172149881720543,
                    -0.9068461060523987,
                    -0.4076508581638336,
                    -0.3103082478046417,
                    -2.649039561219979e-05,
                    0.6204392910003662,
                    -0.00014013092732056975,
                    0.0007449843687936664,
                    0.3177681565284729,
                    -6.368758477037773e-05,
                    0.00010345499322284013,
                    -4.0293562051374465e-05,
                    -0.0006637002807110548,
                    -0.0002524048031773418,
                    0.5020884871482849,
                    -0.0001535000337753445,
                    -0.9547788500785828,
                    -0.00020899687660858035,
                    -0.9267085790634155,
                    -0.7452324628829956,
                    2.3804223019396886e-05,
                    0.8945192694664001,
                    0.8392502665519714,
                    0.00021236944303382188,
                    0.832668662071228,
                    0.0003463613975327462,
                    0.855016827583313,
                    0.10360678285360336,
                    0.8569203019142151,
                    -7.952018495416269e-05,
                    -0.8342863917350769,
                    -0.0003560144978109747,
                    0.0006616732571274042,
                    -0.0005865347920916975,
                    0.0006207827827893198,
                    0.0001208673493238166,
                    -8.994386007543653e-05,
                    0.8289993405342102,
                    3.671302329166792e-05,
                    -0.6536909341812134,
                    0.6262653470039368,
                    -0.0003785254084505141,
                    0.0003650807775557041,
                    0.46830910444259644,
                    0.00021390305482782423,
                    0.8276612162590027,
                    0.9523022174835205,
                    -0.5899142026901245,
                    3.772330819629133e-05
                ]
            }
        ]
    },
    {
        "class": "keras.layers.core.dense.Dense",
        "config": {
            "name": "dense_27",
            "trainable": true,
            "dtype": "float32",
            "units": 64,
            "activation": "tanh",
            "use_bias": true,
            "kernel_initializer": {
                "class_name": "GlorotUniform",
                "config": {
                    "seed": null
                }
            },
            "bias_initializer": {
                "class_name": "Zeros",
                "config": {}
            },
            "kernel_regularizer": null,
            "bias_regularizer": null,
            "activity_regularizer": null,
            "kernel_constraint": null,
            "bias_constraint": null
        },
        "weights": [
            {
                "_type": "ndarray",
                "shape": [
                    64,
                    64
                ],
                "dtype": "float32",
                "data": [
                    -0.010938446968793869,
                    -0.1275234967470169,
                    0.13851317763328552,
                    0.06634795665740967,
                    -0.0023829119745641947,
                    0.007636277005076408,
                    0.031153898686170578,
                    -0.101859450340271,
                    -0.18865495920181274,
                    -0.007429842371493578,
                    0.00203630025498569,
                    0.18021826446056366,
                    -0.09501634538173676,
                    0.22692112624645233,
                    0.11034457385540009,
                    0.19829833507537842,
                    0.05805656686425209,
                    -0.17578302323818207,
                    0.012639151886105537,
                    -0.010096191428601742,
                    -0.14935876429080963,
                    0.02127031795680523,
                    -0.0014853578759357333,
                    0.1531432420015335,
                    0.0035878089256584644,
                    -0.025100041180849075,
                    -0.10866411030292511,
                    0.10269778966903687,
                    0.21199940145015717,
                    -0.060038454830646515,
                    -0.07770219445228577,
                    0.002470741281285882,
                    -0.026925306767225266,
                    -0.1725115329027176,
                    -0.004252559971064329,
                    -0.029679711908102036,
                    0.20051199197769165,
                    0.10305359214544296,
                    0.0908060371875763,
                    0.12960855662822723,
                    -0.011502592824399471,
                    -0.2117002308368683,
                    0.0017338908510282636,
                    0.10124504566192627,
                    0.004587362054735422,
                    0.1450863927602768,
                    0.09151632338762283,
                    0.11441554874181747,
                    -0.1483684480190277,
                    -0.05823449790477753,
                    0.0019614696502685547,
                    0.004032127093523741,
                    0.048344794660806656,
                    -0.14669378101825714,
                    -0.007170021068304777,
                    0.14414779841899872,
                    -0.13253989815711975,
                    0.006069513037800789,
                    0.0426335446536541,
                    0.046179067343473434,
                    0.17293484508991241,
                    0.11333616077899933,
                    0.0007953775930218399,
                    0.1492185890674591,
                    -0.07318852096796036,
                    -0.015092329122126102,
                    0.018702402710914612,
                    -0.04623539373278618,
                    -0.0018148993840441108,
                    0.0025652174372226,
                    -0.10719095170497894,
                    0.03259967267513275,
                    -0.12995125353336334,
                    -0.0068434737622737885,
                    0.003053993685171008,
                    -0.07401685416698456,
                    0.07104667276144028,
                    0.0035774782299995422,
                    0.16086281836032867,
                    -0.23685619235038757,
                    0.10309917479753494,
                    -0.011346694082021713,
                    0.012606825679540634,
                    -0.03223108872771263,
                    0.12238801270723343,
                    -0.02498052641749382,
                    -0.004404853098094463,
                    -0.0827336236834526,
                    -0.001793712959624827,
                    0.17444822192192078,
                    -0.09300480037927628,
                    0.0948883444070816,
                    0.19801539182662964,
                    0.0592413991689682,
                    0.13730457425117493,
                    0.0026141731068491936,
                    -0.07919763773679733,
                    -0.004278811160475016,
                    -0.003298400901257992,
                    -0.11548373103141785,
                    -0.0347229428589344,
                    0.019539477303624153,
                    0.055911120027303696,
                    0.09396562725305557,
                    -0.015135944820940495,
                    -0.06866218894720078,
                    -0.00021781449322588742,
                    0.11005610972642899,
                    0.004754004534333944,
                    -0.10233338177204132,
                    -0.005272631999105215,
                    -0.14756597578525543,
                    -0.17082414031028748,
                    -0.06353117525577545,
                    -0.009601396508514881,
                    0.0034652750473469496,
                    0.0557670034468174,
                    -0.19020628929138184,
                    -0.007443133741617203,
                    -0.08840730041265488,
                    0.10717364400625229,
                    -0.0004168036684859544,
                    -0.05802991986274719,
                    0.07313314825296402,
                    -0.19103391468524933,
                    0.09834106266498566,
                    -0.003315360751003027,
                    0.07098396867513657,
                    -0.017849046736955643,
                    0.04584135487675667,
                    -0.12867729365825653,
                    0.17350910604000092,
                    -0.0026789221446961164,
                    -0.005955762229859829,
                    0.0655893087387085,
                    0.17976032197475433,
                    0.07590826600790024,
                    0.002883543260395527,
                    0.005309831351041794,
                    0.17194147408008575,
                    -0.05135960131883621,
                    0.040280383080244064,
                    -0.030269106850028038,
                    -0.02957112342119217,
                    -0.16451936960220337,
                    -0.024876268580555916,
                    0.02132430486381054,
                    0.004720994271337986,
                    0.058613672852516174,
                    -0.032154276967048645,
                    0.004333547782152891,
                    -0.09571031481027603,
                    -0.004519617184996605,
                    -0.09948741644620895,
                    -0.06434686481952667,
                    -0.14686523377895355,
                    0.014475616626441479,
                    -0.17255821824073792,
                    -0.08250493556261063,
                    -0.000806016440037638,
                    0.05654105916619301,
                    -0.03588305786252022,
                    -0.01010214351117611,
                    -0.14730261266231537,
                    0.11088045686483383,
                    0.08182963728904724,
                    -0.08222908526659012,
                    -0.0004589618183672428,
                    -0.20835956931114197,
                    -0.25249239802360535,
                    0.0117581095546484,
                    0.14031744003295898,
                    0.00594692537561059,
                    -0.17076267302036285,
                    -0.031116541475057602,
                    0.14418159425258636,
                    -0.04833671450614929,
                    0.060520149767398834,
                    0.13580144941806793,
                    0.0033438599202781916,
                    -0.14913731813430786,
                    -0.2161022275686264,
                    -0.026262609288096428,
                    -0.08770757913589478,
                    0.08690667897462845,
                    -0.007002017926424742,
                    -0.02383226715028286,
                    -0.1569499969482422,
                    0.15366673469543457,
                    0.03627542406320572,
                    -0.01189489383250475,
                    0.0569603331387043,
                    0.06778252124786377,
                    0.07319296151399612,
                    0.16192203760147095,
                    -0.1112971156835556,
                    0.00016446578956674784,
                    -0.0046780891716480255,
                    0.06178613379597664,
                    -0.22878549993038177,
                    -0.04012538492679596,
                    -0.0028369992505759,
                    0.0026736853178590536,
                    -0.1251213699579239,
                    0.004845845978707075,
                    0.0750633254647255,
                    0.06197347864508629,
                    0.20025748014450073,
                    -0.1594896912574768,
                    0.05188102275133133,
                    -0.0016873356653377414,
                    -0.01049841195344925,
                    0.08429481089115143,
                    0.022274155169725418,
                    -0.0004559679364319891,
                    -0.1836540549993515,
                    -0.005953421350568533,
                    0.1716177612543106,
                    0.1442083865404129,
                    0.08901609480381012,
                    0.05943933129310608,
                    0.14857012033462524,
                    0.1984204798936844,
                    0.002251493977382779,
                    -0.0006291060708463192,
                    0.0607762411236763,
                    -0.0030596370343118906,
                    0.0031674206256866455,
                    -0.17122815549373627,
                    -0.1368129551410675,
                    0.019018391147255898,
                    -0.05676703900098801,
                    0.11638552695512772,
                    0.21204380691051483,
                    0.0008265090873464942,
                    -0.06795105338096619,
                    0.0012886482290923595,
                    0.1535380482673645,
                    -0.012976886704564095,
                    0.005636734422296286,
                    0.17115947604179382,
                    0.18769577145576477,
                    0.10559607297182083,
                    -0.0014676578575745225,
                    -0.07431165874004364,
                    -0.005597257986664772,
                    0.0044006891548633575,
                    -0.1637839525938034,
                    -0.16882388293743134,
                    -0.006904090289026499,
                    0.1693103015422821,
                    0.07836650311946869,
                    -0.04492439329624176,
                    -0.14347122609615326,
                    0.0002519905974622816,
                    -0.1443682610988617,
                    -0.07299290597438812,
                    0.06303494423627853,
                    -0.08100168406963348,
                    -0.008375723846256733,
                    0.039832860231399536,
                    -0.007541179656982422,
                    0.11408425122499466,
                    0.30034083127975464,
                    -0.22381803393363953,
                    -0.010040728375315666,
                    -0.005130484234541655,
                    -0.08084680140018463,
                    -0.2827800214290619,
                    0.0201773289591074,
                    0.0033640488982200623,
                    0.14627306163311005,
                    0.11102744191884995,
                    0.09108428657054901,
                    0.24294768273830414,
                    0.039098940789699554,
                    0.10593948513269424,
                    -0.0819738581776619,
                    0.15276946127414703,
                    0.08125745505094528,
                    0.19366858899593353,
                    -0.16091769933700562,
                    0.11744803190231323,
                    0.02693961188197136,
                    -0.16142770648002625,
                    0.017955541610717773,
                    -0.04257867485284805,
                    0.004629903938621283,
                    -0.09538913518190384,
                    -0.23621970415115356,
                    0.08866547793149948,
                    -0.16252654790878296,
                    0.03798902779817581,
                    0.146846741437912,
                    -0.01869521103799343,
                    0.06791939586400986,
                    0.07293003797531128,
                    -0.11857811361551285,
                    -0.17906121909618378,
                    -0.04029109328985214,
                    0.012224698439240456,
                    -0.17942160367965698,
                    -0.055393438786268234,
                    -0.13771040737628937,
                    0.1259535551071167,
                    0.06145841255784035,
                    0.03463955596089363,
                    0.03175840899348259,
                    0.010356875136494637,
                    0.020929861813783646,
                    0.3684217631816864,
                    0.2074745148420334,
                    -0.13950106501579285,
                    0.29796767234802246,
                    -0.05542559549212456,
                    0.09383979439735413,
                    0.18440230190753937,
                    0.13248413801193237,
                    -0.17423242330551147,
                    0.012062055990099907,
                    0.20581282675266266,
                    0.15168115496635437,
                    0.05583232641220093,
                    0.038694314658641815,
                    0.20950348675251007,
                    0.18094627559185028,
                    0.05476580932736397,
                    0.12413475662469864,
                    -0.1517719030380249,
                    -0.01292581856250763,
                    0.2661799192428589,
                    -0.18050846457481384,
                    0.045354925096035004,
                    0.31879061460494995,
                    0.10721445083618164,
                    -0.006432098802179098,
                    0.10308145731687546,
                    0.033907271921634674,
                    -0.108615443110466,
                    0.2088088095188141,
                    0.1100582703948021,
                    0.17247022688388824,
                    -0.13850148022174835,
                    -0.18002566695213318,
                    -0.15075284242630005,
                    0.12565717101097107,
                    -0.09902744740247726,
                    -0.09977525472640991,
                    0.07482168823480606,
                    -0.3049798905849457,
                    0.027832457795739174,
                    0.046792346984148026,
                    -0.24845191836357117,
                    -0.18411366641521454,
                    0.0925293117761612,
                    0.15707696974277496,
                    0.02316354401409626,
                    -0.056235264986753464,
                    -0.12266021966934204,
                    0.046303171664476395,
                    -0.07400398701429367,
                    -0.1905822902917862,
                    -0.005816183052957058,
                    -0.034723129123449326,
                    0.1266627460718155,
                    0.0977492406964302,
                    -0.013807317242026329,
                    -0.10748238116502762,
                    0.23119157552719116,
                    -0.05951470136642456,
                    0.03025233745574951,
                    0.1399698257446289,
                    0.007381347473710775,
                    0.019564855843782425,
                    -0.23468902707099915,
                    0.20548920333385468,
                    0.16798649728298187,
                    -0.33807775378227234,
                    0.040159665048122406,
                    0.4643455445766449,
                    -0.10962987691164017,
                    0.0864468440413475,
                    0.31125038862228394,
                    0.01972111128270626,
                    -0.04592818766832352,
                    -0.08159559965133667,
                    -0.050391748547554016,
                    -0.01020011492073536,
                    0.13492363691329956,
                    -0.2620997726917267,
                    -0.05796464905142784,
                    0.05358252674341202,
                    -0.08749213069677353,
                    0.22541971504688263,
                    -0.5562560558319092,
                    0.05415170639753342,
                    0.06699949502944946,
                    -0.10855168104171753,
                    0.06929502636194229,
                    -0.003712303703650832,
                    0.07877638190984726,
                    0.022475983947515488,
                    0.1468086838722229,
                    0.21578681468963623,
                    0.060309186577796936,
                    -0.05317685008049011,
                    -0.27792438864707947,
                    0.165413036942482,
                    0.4478931427001953,
                    -0.050241224467754364,
                    0.07062207162380219,
                    0.02751775085926056,
                    0.11019852012395859,
                    -0.031076420098543167,
                    -0.07803534716367722,
                    0.17861075699329376,
                    -0.15824191272258759,
                    0.045254264026880264,
                    0.12319071590900421,
                    -0.010620669461786747,
                    -0.006801570300012827,
                    -0.05546315759420395,
                    -0.08430955559015274,
                    -0.06349123269319534,
                    0.028495604172348976,
                    -0.06142211705446243,
                    0.1553160846233368,
                    0.2518310248851776,
                    -0.08203987032175064,
                    -0.01732410117983818,
                    -0.16677694022655487,
                    -0.13026417791843414,
                    0.05811766907572746,
                    -0.024051101878285408,
                    0.02311067283153534,
                    -0.13554318249225616,
                    -0.14205333590507507,
                    -0.010295377112925053,
                    0.09495493769645691,
                    -0.00768090458586812,
                    -0.03670883923768997,
                    0.09018073976039886,
                    0.041886527091264725,
                    -0.15698795020580292,
                    -0.04860672727227211,
                    -0.0536041297018528,
                    0.09429748356342316,
                    -0.13947933912277222,
                    0.004128520842641592,
                    -0.009351435117423534,
                    0.004554253537207842,
                    6.659465725533664e-05,
                    -0.1376425176858902,
                    -0.08982203900814056,
                    -0.0030077521223574877,
                    -0.01594270020723343,
                    -0.018617453053593636,
                    -0.1616939902305603,
                    0.019119499251246452,
                    -0.010071894153952599,
                    0.007539783604443073,
                    0.1758774220943451,
                    -0.035653918981552124,
                    -0.016634471714496613,
                    -0.03203333914279938,
                    0.0007099632057361305,
                    0.3594743609428406,
                    0.3847540318965912,
                    0.016484130173921585,
                    -0.013280832208693027,
                    -0.2940404415130615,
                    -0.01111653819680214,
                    -0.18087638914585114,
                    0.013052514754235744,
                    -0.011793957091867924,
                    -0.19969704747200012,
                    -0.007811674382537603,
                    -0.08742989599704742,
                    0.012073446996510029,
                    -0.35288503766059875,
                    -0.2786675989627838,
                    0.02599513903260231,
                    0.2113317996263504,
                    0.03545646369457245,
                    -0.022417787462472916,
                    -0.000494329899083823,
                    0.05860148370265961,
                    0.03223702684044838,
                    0.009943414479494095,
                    0.0024477748665958643,
                    0.04239311069250107,
                    -0.14923767745494843,
                    0.1045876070857048,
                    -0.0014360201312229037,
                    0.020914485678076744,
                    -0.011236947029829025,
                    -0.013608007691800594,
                    -0.018317943438887596,
                    -0.013556543737649918,
                    0.014737606979906559,
                    0.11949938535690308,
                    -0.0013015822041779757,
                    -0.3110415041446686,
                    -0.010165422223508358,
                    -0.020488889887928963,
                    -0.4247016906738281,
                    0.016197925433516502,
                    0.0748576745390892,
                    -0.004416575189679861,
                    0.00832513626664877,
                    0.24221506714820862,
                    0.0031888948287814856,
                    0.2128678858280182,
                    -0.12380626052618027,
                    -0.1261925995349884,
                    -0.24590660631656647,
                    0.00206570397131145,
                    0.0011176185216754675,
                    0.06376703083515167,
                    -0.18068338930606842,
                    0.17036469280719757,
                    0.005134591832756996,
                    0.0027209238614887,
                    0.04250277951359749,
                    0.04766280576586723,
                    0.16387300193309784,
                    -0.10253051668405533,
                    -0.12002246081829071,
                    -0.06692437082529068,
                    -0.04457564651966095,
                    0.0015387798193842173,
                    0.023108331486582756,
                    -0.09139397740364075,
                    -0.20588688552379608,
                    0.003630971536040306,
                    0.051614031195640564,
                    0.0003255097253713757,
                    -0.18562360107898712,
                    0.19905290007591248,
                    -0.03419259190559387,
                    0.004037669859826565,
                    -0.001210897578857839,
                    0.1997387558221817,
                    0.001310327323153615,
                    0.08628201484680176,
                    -0.18096737563610077,
                    -0.004783476237207651,
                    0.18892844021320343,
                    0.09255649894475937,
                    -0.2182919681072235,
                    -0.08419091254472733,
                    -0.22787247598171234,
                    0.14252372086048126,
                    0.03884173929691315,
                    0.0021900103893131018,
                    -0.04072064906358719,
                    0.006282549351453781,
                    -0.06859685480594635,
                    -0.05699703097343445,
                    0.05550999566912651,
                    -0.10689368098974228,
                    0.0494137704372406,
                    0.11650577932596207,
                    -0.002779602073132992,
                    -0.08068542182445526,
                    0.07634344696998596,
                    -0.010887683369219303,
                    -0.042399197816848755,
                    -0.16050328314304352,
                    -0.0010769416112452745,
                    0.024888481944799423,
                    0.04829789325594902,
                    -0.08939915150403976,
                    -0.14338961243629456,
                    -0.00029568953323177993,
                    -0.17259855568408966,
                    0.11501973122358322,
                    -0.04018847271800041,
                    0.1180436760187149,
                    0.1564948409795761,
                    -0.2997307777404785,
                    0.04293718561530113,
                    0.11893285065889359,
                    -0.08873679488897324,
                    0.05146608129143715,
                    -0.17831669747829437,
                    0.18429380655288696,
                    -0.17237752676010132,
                    0.05718604847788811,
                    0.4286283552646637,
                    -0.11368183046579361,
                    0.03675609454512596,
                    -0.09837344288825989,
                    0.1647735983133316,
                    0.2525996267795563,
                    0.4395982623100281,
                    -0.046667952090501785,
                    0.027260463684797287,
                    0.7295743227005005,
                    0.004661348648369312,
                    -0.333536833524704,
                    -0.05071573704481125,
                    -0.026012033224105835,
                    -0.034028321504592896,
                    0.07552623748779297,
                    -0.11062286049127579,
                    0.1571882665157318,
                    0.20948626101016998,
                    -0.3995091915130615,
                    0.005767328664660454,
                    0.31784361600875854,
                    0.15692727267742157,
                    -0.05100316181778908,
                    0.035488031804561615,
                    0.345670610666275,
                    0.07091213762760162,
                    -0.1277673989534378,
                    0.02432597242295742,
                    -0.07646342366933823,
                    -0.07734616845846176,
                    0.17666979134082794,
                    0.05840274319052696,
                    0.03010660968720913,
                    0.10054275393486023,
                    0.10585129261016846,
                    -0.03329874575138092,
                    0.10281842947006226,
                    0.09989430010318756,
                    0.111888088285923,
                    0.10242389142513275,
                    0.0703476220369339,
                    0.10942567139863968,
                    -0.1033688560128212,
                    -0.08884027600288391,
                    0.049557607620954514,
                    -0.1904296875,
                    0.047874003648757935,
                    -0.1208379790186882,
                    -0.3112109899520874,
                    -0.010414759628474712,
                    -0.012107699178159237,
                    0.11519014090299606,
                    -0.12618732452392578,
                    0.04863271862268448,
                    0.03392695635557175,
                    -0.22874148190021515,
                    -0.12589284777641296,
                    -0.07299279421567917,
                    0.04202615097165108,
                    -0.10046175867319107,
                    -0.17423737049102783,
                    -0.06891528517007828,
                    -0.09028790146112442,
                    -0.20575517416000366,
                    -0.07921966910362244,
                    -0.014783138409256935,
                    0.05710001289844513,
                    -0.16315145790576935,
                    0.14354246854782104,
                    -0.43442726135253906,
                    0.005278067197650671,
                    0.09954596310853958,
                    -0.3625573217868805,
                    -0.10517892986536026,
                    0.45893368124961853,
                    -0.033829402178525925,
                    0.1033613309264183,
                    0.023721620440483093,
                    -0.052581191062927246,
                    0.19565510749816895,
                    0.12429477274417877,
                    -0.06370897591114044,
                    0.3203863203525543,
                    0.0019509047269821167,
                    0.01391008123755455,
                    0.05377424508333206,
                    -0.040824420750141144,
                    0.05944349989295006,
                    -0.12825778126716614,
                    -0.0827689841389656,
                    -0.08755854517221451,
                    -0.08470345288515091,
                    -0.12454356998205185,
                    0.290566623210907,
                    0.04656386002898216,
                    0.019632063806056976,
                    -0.12227167189121246,
                    0.03801573067903519,
                    -0.27430781722068787,
                    -0.025794822722673416,
                    -0.1757756471633911,
                    -0.010958045721054077,
                    -0.15352216362953186,
                    -0.14631009101867676,
                    -0.05056050792336464,
                    0.08053816854953766,
                    -0.017441360279917717,
                    0.24201759696006775,
                    0.23563428223133087,
                    -0.33586087822914124,
                    -0.097613126039505,
                    -0.06977774202823639,
                    -0.003358563408255577,
                    -0.03435753285884857,
                    0.03693665191531181,
                    0.05154440551996231,
                    -0.1719701886177063,
                    -0.2307254821062088,
                    -0.07583343237638474,
                    -0.022056104615330696,
                    -0.07815273851156235,
                    -0.04877244308590889,
                    -0.037860333919525146,
                    -0.04767049476504326,
                    0.20500105619430542,
                    -0.06944561004638672,
                    -0.09990715980529785,
                    0.19500315189361572,
                    -0.03691402077674866,
                    -0.021312281489372253,
                    0.18243491649627686,
                    0.08081057667732239,
                    0.08520351350307465,
                    0.1465979814529419,
                    0.13359501957893372,
                    -0.14430971443653107,
                    0.5056820511817932,
                    0.12096516042947769,
                    0.2810177505016327,
                    0.1347426325082779,
                    -0.1542845517396927,
                    0.06862430274486542,
                    0.01376020722091198,
                    -0.02898547239601612,
                    0.02830205298960209,
                    0.04125900939106941,
                    0.00086189218563959,
                    -0.2056589275598526,
                    0.13832035660743713,
                    -0.08081909269094467,
                    0.03200044482946396,
                    0.11117316782474518,
                    -0.004906323738396168,
                    -0.04798775538802147,
                    -0.1587563008069992,
                    0.015992607921361923,
                    -0.14700078964233398,
                    0.20955932140350342,
                    0.1201486736536026,
                    0.04170110821723938,
                    0.0051749288104474545,
                    -0.16032320261001587,
                    0.021887771785259247,
                    -0.001111718942411244,
                    0.10714950412511826,
                    -0.23166006803512573,
                    0.017964424565434456,
                    0.18404313921928406,
                    0.4288786053657532,
                    0.07609168440103531,
                    -0.2144145369529724,
                    0.3726346790790558,
                    0.09769100695848465,
                    -0.11257737874984741,
                    0.022864991798996925,
                    0.004985020961612463,
                    -0.25674960017204285,
                    0.2081093192100525,
                    -0.002846579300239682,
                    -0.18068060278892517,
                    0.10664554685354233,
                    -0.12842558324337006,
                    0.0017516930820420384,
                    0.008022678084671497,
                    0.04323690012097359,
                    0.08019822835922241,
                    0.15796037018299103,
                    -0.00025642404216341674,
                    0.002245643176138401,
                    0.16175025701522827,
                    -0.1086282804608345,
                    0.08833722025156021,
                    0.1267007440328598,
                    0.11675229668617249,
                    0.19974590837955475,
                    0.011547311209142208,
                    -0.009663624688982964,
                    0.04872918874025345,
                    -0.14954976737499237,
                    0.03562023118138313,
                    -0.003847522661089897,
                    -0.15856704115867615,
                    0.007403864059597254,
                    -0.050444360822439194,
                    0.17885364592075348,
                    0.0026918845251202583,
                    0.18286117911338806,
                    0.024168264120817184,
                    -0.1842685490846634,
                    -0.0006853152881376445,
                    0.09808135032653809,
                    0.16396456956863403,
                    0.003240091260522604,
                    -0.15025712549686432,
                    -0.010206256061792374,
                    0.17252829670906067,
                    -0.09907256811857224,
                    0.015570403076708317,
                    -0.21802178025245667,
                    0.12758679687976837,
                    -0.003573442343622446,
                    -0.05511433258652687,
                    -0.004689075984060764,
                    0.11730588227510452,
                    -0.14981037378311157,
                    0.09362895041704178,
                    -0.08066102117300034,
                    0.13070546090602875,
                    -0.02577711082994938,
                    -0.004388691391795874,
                    0.07035226374864578,
                    -0.06965751945972443,
                    0.0111766392365098,
                    -0.028823263943195343,
                    0.09319155663251877,
                    0.002858443185687065,
                    0.02613896317780018,
                    0.12138859182596207,
                    0.05115627869963646,
                    0.07335156947374344,
                    0.005764924921095371,
                    -0.16107052564620972,
                    -0.09295007586479187,
                    -0.1679607331752777,
                    0.15871015191078186,
                    0.060298409312963486,
                    -0.0010833864798769355,
                    0.0026513917837291956,
                    0.17153748869895935,
                    0.13001559674739838,
                    -0.10834851861000061,
                    0.0030727724079042673,
                    -0.000606782385148108,
                    -0.11642453074455261,
                    -0.12233737856149673,
                    0.11348740011453629,
                    0.07212070375680923,
                    0.14675785601139069,
                    0.032481033354997635,
                    -0.03355933353304863,
                    -0.002097624121233821,
                    0.030745726078748703,
                    0.07068173587322235,
                    0.08543964475393295,
                    0.002053287113085389,
                    -0.08340369164943695,
                    0.003647850127890706,
                    -0.13334102928638458,
                    -0.03664586693048477,
                    -0.07747145742177963,
                    -0.02670738287270069,
                    -0.07196735590696335,
                    0.13604967296123505,
                    -0.0016349807847291231,
                    0.10179564356803894,
                    0.13637013733386993,
                    -0.003203636733815074,
                    -0.16877806186676025,
                    -0.08738086372613907,
                    -0.004660916049033403,
                    -0.08583663403987885,
                    0.07806669920682907,
                    0.03844769671559334,
                    0.10175856947898865,
                    0.00308324140496552,
                    -0.029847484081983566,
                    -0.0041021243669092655,
                    -0.0807422325015068,
                    0.2138613909482956,
                    -0.15164074301719666,
                    -0.07112100720405579,
                    -0.20064765214920044,
                    0.011284291744232178,
                    -0.0019017350859940052,
                    -0.08748835325241089,
                    -0.1878846287727356,
                    0.005333238746970892,
                    -0.06784738600254059,
                    -0.2232455313205719,
                    -0.0025685152504593134,
                    0.07105869054794312,
                    0.01353925745934248,
                    0.19225527346134186,
                    0.10241656005382538,
                    -0.0010866832453757524,
                    0.04025953263044357,
                    0.03978661075234413,
                    -0.11760573834180832,
                    -0.2011573314666748,
                    0.1425851732492447,
                    0.2971545159816742,
                    -0.43499812483787537,
                    -0.046044182032346725,
                    0.06919347494840622,
                    0.02769388072192669,
                    -0.06524007022380829,
                    -0.07365734130144119,
                    -0.018491551280021667,
                    -0.09996908158063889,
                    -0.72854083776474,
                    0.2273162603378296,
                    0.07948064804077148,
                    -0.226762056350708,
                    -0.08705667406320572,
                    -0.09418822824954987,
                    -0.2550559937953949,
                    0.07145055383443832,
                    0.11283780634403229,
                    -0.6097083687782288,
                    -0.15933944284915924,
                    0.4910082221031189,
                    0.12598863244056702,
                    -0.03180493414402008,
                    0.10671144723892212,
                    -0.2088395059108734,
                    -0.25153735280036926,
                    -0.07157521694898605,
                    -0.07071880996227264,
                    0.6748054623603821,
                    0.18135307729244232,
                    0.1647348254919052,
                    -0.1699587106704712,
                    -0.11621284484863281,
                    -0.09836827218532562,
                    -0.25529196858406067,
                    -0.09844743460416794,
                    0.24156798422336578,
                    -0.03412874415516853,
                    -0.24838988482952118,
                    -0.0577673465013504,
                    0.25776582956314087,
                    0.048403866589069366,
                    0.07348176836967468,
                    -0.058940064162015915,
                    -0.14487479627132416,
                    -0.15354959666728973,
                    0.003576526651158929,
                    -0.05505538359284401,
                    -0.025352217257022858,
                    0.016800912097096443,
                    -0.18186412751674652,
                    0.08138109743595123,
                    0.17106615006923676,
                    -0.04995056986808777,
                    -0.11730457097291946,
                    -0.1208302304148674,
                    -0.03713985159993172,
                    -0.03316182643175125,
                    0.4253576397895813,
                    0.06915012001991272,
                    0.03184707462787628,
                    0.10686055570840836,
                    -0.04399947449564934,
                    -0.1334700882434845,
                    0.0006245597032830119,
                    0.010405576787889004,
                    -0.008018342778086662,
                    0.13435611128807068,
                    0.09099827706813812,
                    -0.0041266814805567265,
                    0.0015630426350980997,
                    -0.19343864917755127,
                    0.04859478026628494,
                    0.06284893304109573,
                    -0.13253945112228394,
                    -0.11657052487134933,
                    -0.12749747931957245,
                    0.05565129965543747,
                    0.009953781962394714,
                    0.0048243580386042595,
                    -0.028532784432172775,
                    0.13894881308078766,
                    -0.002830617595463991,
                    0.08163544535636902,
                    0.00973883830010891,
                    -0.24061056971549988,
                    -0.19115982949733734,
                    -0.0018267654813826084,
                    0.01618533954024315,
                    -0.06253011524677277,
                    0.08285234123468399,
                    -0.0008947257301770151,
                    -0.0065666730515658855,
                    -0.039730992168188095,
                    0.0013380625750869513,
                    -0.08710910379886627,
                    0.08737225085496902,
                    -0.08764311671257019,
                    -0.0222366601228714,
                    0.03662218898534775,
                    -0.20700213313102722,
                    -0.008442461490631104,
                    -0.004852893762290478,
                    0.14820754528045654,
                    0.0017176559194922447,
                    -0.14464373886585236,
                    0.00824769027531147,
                    -0.03191292658448219,
                    0.04783647134900093,
                    -0.14265939593315125,
                    0.032697200775146484,
                    -0.0002229450037702918,
                    0.19497723877429962,
                    -0.016774822026491165,
                    -0.0033942721784114838,
                    -0.09118060022592545,
                    -0.18878953158855438,
                    0.003892848500981927,
                    -0.047610361129045486,
                    -0.031004365533590317,
                    0.1384577602148056,
                    -0.16980043053627014,
                    -0.0010898998007178307,
                    -0.14633657038211823,
                    0.09886986017227173,
                    0.10561312735080719,
                    0.09452853351831436,
                    -0.16360090672969818,
                    0.05688278004527092,
                    -0.45721325278282166,
                    0.004357765428721905,
                    0.019723128527402878,
                    0.008194144815206528,
                    -0.0569072924554348,
                    -0.022885801270604134,
                    0.11003448814153671,
                    -0.014005035161972046,
                    -0.5123430490493774,
                    -0.10558128356933594,
                    0.03441602736711502,
                    0.04633151367306709,
                    0.12080767005681992,
                    -0.29189571738243103,
                    -0.5888908505439758,
                    -0.03999774903059006,
                    -0.11762135475873947,
                    -0.6123160123825073,
                    0.05975044518709183,
                    0.46967989206314087,
                    -0.12894439697265625,
                    0.029625048860907555,
                    0.06279227882623672,
                    0.031759098172187805,
                    -0.04467498138546944,
                    0.04766172915697098,
                    -0.0818241685628891,
                    0.5480905771255493,
                    -0.03828035667538643,
                    0.22956788539886475,
                    0.0009823195869103074,
                    0.21263575553894043,
                    -0.006158261094242334,
                    -0.08373536169528961,
                    0.04183022677898407,
                    -0.05475382134318352,
                    -0.0051809498108923435,
                    -0.1404232680797577,
                    0.2671898901462555,
                    0.2713375985622406,
                    0.0093130674213171,
                    0.06128186732530594,
                    0.11039616167545319,
                    -0.09242521971464157,
                    -0.09554887562990189,
                    -0.08593142032623291,
                    -0.04816678911447525,
                    -0.07324159890413284,
                    0.017901917919516563,
                    0.09535810351371765,
                    -0.13423900306224823,
                    0.1083090528845787,
                    0.4588036835193634,
                    -0.013104262761771679,
                    -0.32256221771240234,
                    0.027985546737909317,
                    0.04588879272341728,
                    0.34169164299964905,
                    -0.11757040023803711,
                    0.05247979238629341,
                    -0.05064088851213455,
                    0.12665124237537384,
                    -0.08322015404701233,
                    -0.04750043526291847,
                    0.017665481194853783,
                    0.03366344794631004,
                    -0.13210922479629517,
                    0.13920597732067108,
                    0.23186227679252625,
                    -0.3523974120616913,
                    -0.09554889798164368,
                    0.12176188081502914,
                    0.13736173510551453,
                    -0.048033419996500015,
                    -0.0445760115981102,
                    -0.22710108757019043,
                    -0.1335265338420868,
                    0.1695231944322586,
                    -0.012099001556634903,
                    -0.08895993232727051,
                    -0.1109931617975235,
                    -0.31194812059402466,
                    -0.1330818086862564,
                    0.057673122733831406,
                    0.1319408416748047,
                    -0.04889867827296257,
                    -0.1915467530488968,
                    -0.020445724949240685,
                    0.1293543428182602,
                    0.014239340089261532,
                    0.32837367057800293,
                    -0.2763630151748657,
                    -0.14536701142787933,
                    0.12303920835256577,
                    0.16665025055408478,
                    -0.14898347854614258,
                    0.09110746532678604,
                    -0.27973672747612,
                    0.05474357679486275,
                    0.14030691981315613,
                    -0.06324269622564316,
                    0.09162130951881409,
                    -0.1524604856967926,
                    -0.13577879965305328,
                    0.09179423749446869,
                    0.1342954784631729,
                    -0.04910166934132576,
                    0.02246898040175438,
                    0.1623455137014389,
                    0.019019819796085358,
                    0.10520028322935104,
                    0.30745065212249756,
                    0.005304093472659588,
                    0.22156250476837158,
                    -0.06669837981462479,
                    -0.023668339475989342,
                    0.27664878964424133,
                    -0.15624119341373444,
                    -0.01860022358596325,
                    0.168768510222435,
                    0.18988937139511108,
                    0.11477494239807129,
                    0.09821892529726028,
                    0.24415044486522675,
                    0.1354476362466812,
                    -0.0005931741325184703,
                    -0.07466420531272888,
                    -0.16678304970264435,
                    0.08365420252084732,
                    -0.03704177215695381,
                    -0.01636219583451748,
                    0.07142529636621475,
                    -0.09092207998037338,
                    -0.09081095457077026,
                    0.15463213622570038,
                    -0.1886819452047348,
                    -0.17244930565357208,
                    -0.04685325175523758,
                    0.0066651091910898685,
                    0.003201842773705721,
                    0.0036900052800774574,
                    0.09449177235364914,
                    0.09149733185768127,
                    -0.08468780666589737,
                    -0.0048972065560519695,
                    0.07813207805156708,
                    -0.1005992442369461,
                    0.23587973415851593,
                    -0.12268947064876556,
                    -0.05961631238460541,
                    -0.19316890835762024,
                    -0.06673401594161987,
                    -0.21266575157642365,
                    -0.05764318257570267,
                    -0.006964763626456261,
                    -0.010066494345664978,
                    -0.1339845061302185,
                    0.23774728178977966,
                    0.18771952390670776,
                    -0.07058364897966385,
                    0.08469998836517334,
                    -0.0625564306974411,
                    0.10492894053459167,
                    -0.05379367992281914,
                    -0.055412765592336655,
                    0.09181510657072067,
                    -0.057158105075359344,
                    -0.20153754949569702,
                    0.16209381818771362,
                    -0.13512030243873596,
                    -0.06594209372997284,
                    0.10746601223945618,
                    -0.18626217544078827,
                    -0.07785584032535553,
                    -0.09577638655900955,
                    0.01457329373806715,
                    0.09913668781518936,
                    0.12941224873065948,
                    0.1350630223751068,
                    -0.059798821806907654,
                    -0.13646723330020905,
                    -0.16792552173137665,
                    -0.07039684802293777,
                    0.01907912828028202,
                    -0.02256626822054386,
                    -0.13415305316448212,
                    0.10575351864099503,
                    -0.06987877935171127,
                    0.22144336998462677,
                    -0.18922317028045654,
                    -0.100554920732975,
                    -0.002213400788605213,
                    -0.011117057874798775,
                    -0.013459197245538235,
                    -0.11348951607942581,
                    0.08133362978696823,
                    -0.009540504775941372,
                    0.0002449011954013258,
                    0.07906698435544968,
                    0.2647113502025604,
                    -0.08911345899105072,
                    0.008945222944021225,
                    0.13066983222961426,
                    0.009538563899695873,
                    -0.12355872243642807,
                    0.012763623148202896,
                    -0.05112349987030029,
                    0.058194711804389954,
                    -0.10451699048280716,
                    -0.016514107584953308,
                    -0.12581990659236908,
                    -0.010555158369243145,
                    -0.0017972413916140795,
                    0.07069007307291031,
                    0.09933868795633316,
                    0.028172548860311508,
                    0.13939210772514343,
                    0.22396880388259888,
                    0.005317309871315956,
                    -0.1562710553407669,
                    0.1319219470024109,
                    -0.0024179047904908657,
                    -0.06714432686567307,
                    -0.021712685003876686,
                    0.13538335263729095,
                    0.19288748502731323,
                    -0.10511576384305954,
                    0.19817687571048737,
                    0.15686069428920746,
                    -0.001323286327533424,
                    0.10393374413251877,
                    0.00504652364179492,
                    0.1693648397922516,
                    -0.1264343112707138,
                    -0.16935792565345764,
                    0.22576399147510529,
                    -0.1251671314239502,
                    0.18990258872509003,
                    0.004455195739865303,
                    -0.03981262445449829,
                    -0.11290083080530167,
                    -0.009565173648297787,
                    0.004990927875041962,
                    -0.2852875590324402,
                    -0.009602952748537064,
                    -0.20004352927207947,
                    0.07590878009796143,
                    0.1452186107635498,
                    -0.13907024264335632,
                    -0.0054928152821958065,
                    0.011059543117880821,
                    -0.0024682022631168365,
                    -0.16251592338085175,
                    -0.003828846151009202,
                    0.01841685362160206,
                    0.1373572051525116,
                    0.14596308767795563,
                    -0.023683449253439903,
                    0.026252424344420433,
                    0.10568712651729584,
                    -0.22002583742141724,
                    0.41170012950897217,
                    0.19824345409870148,
                    0.0051241349428892136,
                    0.37482985854148865,
                    0.11102008074522018,
                    0.09686017781496048,
                    0.002529503544792533,
                    -0.0015115559799596667,
                    -0.3828069269657135,
                    0.06492985785007477,
                    -0.04036961495876312,
                    -0.11110679060220718,
                    -0.21456153690814972,
                    0.04738393798470497,
                    -0.2823948562145233,
                    0.0006874232785776258,
                    0.02847268618643284,
                    -0.09112779796123505,
                    -0.05009738728404045,
                    -0.18328024446964264,
                    -0.02563166804611683,
                    0.22383789718151093,
                    -0.3167341351509094,
                    0.124302938580513,
                    -0.25378721952438354,
                    -0.11044573783874512,
                    -0.07059371471405029,
                    -0.02395138330757618,
                    0.24190600216388702,
                    0.02652694657444954,
                    0.010921412147581577,
                    0.16219152510166168,
                    -0.19320110976696014,
                    -0.10944386571645737,
                    0.16435232758522034,
                    0.1324230283498764,
                    0.012584147974848747,
                    -0.018909122794866562,
                    -0.06226103752851486,
                    -0.021225523203611374,
                    -0.036128249019384384,
                    0.17767462134361267,
                    -0.06949678063392639,
                    0.041408296674489975,
                    -0.3071841895580292,
                    0.03265664726495743,
                    -0.1734399050474167,
                    -0.30641311407089233,
                    -0.03652167692780495,
                    0.1407560408115387,
                    -0.09346440434455872,
                    0.03409259393811226,
                    0.11134245991706848,
                    -0.09796004742383957,
                    0.1808120608329773,
                    -0.16282443702220917,
                    0.09070037305355072,
                    -0.11006893217563629,
                    -0.0005695829750038683,
                    -0.012035145424306393,
                    -0.00423125084489584,
                    -0.07376468181610107,
                    0.20330537855625153,
                    -0.0007991275633685291,
                    0.00433881813660264,
                    0.007005880121141672,
                    0.11524530500173569,
                    -0.009656241163611412,
                    0.06299146264791489,
                    -0.14925917983055115,
                    -0.07454270124435425,
                    0.037145595997571945,
                    0.009457070380449295,
                    -0.05486175790429115,
                    0.10652842372655869,
                    -0.010980094783008099,
                    0.0024131734389811754,
                    -0.207023024559021,
                    -0.009109731763601303,
                    -0.17649586498737335,
                    0.12954333424568176,
                    0.1366029679775238,
                    0.23394820094108582,
                    -0.07188037037849426,
                    -0.01685946434736252,
                    0.0034576798789203167,
                    -0.11582247167825699,
                    -0.15077660977840424,
                    -0.007571904454380274,
                    -0.04352187365293503,
                    0.09346407651901245,
                    -0.18169304728507996,
                    -0.02745678462088108,
                    -0.25350967049598694,
                    -0.0938713327050209,
                    0.03888029605150223,
                    0.008776684291660786,
                    -0.06365076452493668,
                    0.007408767938613892,
                    -0.1796317845582962,
                    -0.03318452462553978,
                    0.04096653684973717,
                    0.12459013611078262,
                    -0.026629412546753883,
                    -0.05695771425962448,
                    0.0017336547607555985,
                    -0.16647203266620636,
                    -0.17177657783031464,
                    -0.01810975931584835,
                    -0.2080962210893631,
                    0.15740396082401276,
                    -0.007370595820248127,
                    -0.14918828010559082,
                    0.03329432010650635,
                    -0.11246123164892197,
                    0.032627273350954056,
                    -0.004197641741484404,
                    0.001681566471233964,
                    -0.10437574982643127,
                    -0.12393436580896378,
                    -0.029546063393354416,
                    0.1658131331205368,
                    0.0003449385112617165,
                    -0.004718564450740814,
                    0.11271513253450394,
                    0.13061338663101196,
                    -0.06676197052001953,
                    0.003443538909777999,
                    0.0025037152227014303,
                    0.04696465656161308,
                    -0.12310995161533356,
                    0.045953504741191864,
                    0.009226908907294273,
                    -0.2015593945980072,
                    0.10964354127645493,
                    -0.07074795663356781,
                    0.0006660334183834493,
                    0.015831850469112396,
                    0.08694504201412201,
                    0.14818398654460907,
                    0.005878760479390621,
                    0.1254841685295105,
                    0.0003635673492681235,
                    -0.14476291835308075,
                    -0.03663850203156471,
                    0.0009847854962572455,
                    -0.03366001695394516,
                    -0.1624343991279602,
                    0.12414068728685379,
                    -0.002418689662590623,
                    0.05536722391843796,
                    0.03791307657957077,
                    -0.0010929990094155073,
                    0.11527854949235916,
                    0.042173147201538086,
                    0.02628306858241558,
                    -0.10920029133558273,
                    -0.09622959792613983,
                    0.06473559141159058,
                    0.06798051297664642,
                    0.006163080222904682,
                    -0.05144448205828667,
                    -0.0013740335125476122,
                    -0.12778392434120178,
                    0.036806609481573105,
                    0.14198127388954163,
                    0.1608579158782959,
                    0.09392523020505905,
                    -0.021807100623846054,
                    -0.0007259616395458579,
                    -0.04488530382514,
                    -0.08846233785152435,
                    -0.0022845484782010317,
                    0.1295495331287384,
                    0.11532033979892731,
                    -0.0012577917659655213,
                    -0.12493055313825607,
                    -0.10441494733095169,
                    0.13171398639678955,
                    -0.008346675895154476,
                    -0.001620129100047052,
                    0.07614707946777344,
                    -0.10448005050420761,
                    -0.03591052442789078,
                    -0.1993197798728943,
                    -0.07947133481502533,
                    0.12192492932081223,
                    0.14168308675289154,
                    0.013643226586282253,
                    -0.026454567909240723,
                    0.16836217045783997,
                    0.08030467480421066,
                    -0.03724655881524086,
                    0.19118843972682953,
                    -0.2071159929037094,
                    0.3934054374694824,
                    -0.10740358382463455,
                    -0.054501768201589584,
                    0.07559074461460114,
                    -0.15825778245925903,
                    0.3250654339790344,
                    0.3327234387397766,
                    0.020977595821022987,
                    -0.09044589102268219,
                    0.26715973019599915,
                    -0.13757546246051788,
                    -0.12714000046253204,
                    -0.04629767686128616,
                    -0.08337365835905075,
                    0.037679824978113174,
                    0.010366464033722878,
                    0.2323320358991623,
                    0.07887875288724899,
                    0.08039312809705734,
                    -0.3572394847869873,
                    -0.18375368416309357,
                    0.08787913620471954,
                    -0.03332213684916496,
                    0.04636990651488304,
                    -0.0712316483259201,
                    0.003864871570840478,
                    -0.10208936780691147,
                    -0.060197703540325165,
                    0.10963211953639984,
                    0.14800123870372772,
                    0.131271094083786,
                    -0.20862586796283722,
                    0.35080191493034363,
                    -0.051094360649585724,
                    0.2141263782978058,
                    -0.08843065798282623,
                    -0.15337730944156647,
                    -0.16811631619930267,
                    0.22155243158340454,
                    -0.29307299852371216,
                    -0.2297080159187317,
                    0.3518521189689636,
                    -0.11035953462123871,
                    0.029078086838126183,
                    0.055373188108205795,
                    0.10900921374559402,
                    -0.20908886194229126,
                    0.03139963001012802,
                    -0.07339519262313843,
                    0.01435425691306591,
                    -0.12149682641029358,
                    0.018495259806513786,
                    -0.09285986423492432,
                    0.06776648759841919,
                    -0.1544952690601349,
                    0.0022186567075550556,
                    0.0045800297521054745,
                    -0.08055465668439865,
                    -0.1711273342370987,
                    0.014398851431906223,
                    0.000751812185626477,
                    1.920100476127118e-05,
                    -0.06591862440109253,
                    -0.11708532273769379,
                    0.09155942499637604,
                    0.03857918083667755,
                    -0.11348919570446014,
                    0.16922526061534882,
                    -0.16656681895256042,
                    0.006983090192079544,
                    0.0227299015969038,
                    -0.18444329500198364,
                    0.024706242606043816,
                    -0.0039409613236784935,
                    0.07558033615350723,
                    0.005091957747936249,
                    0.11153886467218399,
                    0.148702472448349,
                    0.07046154886484146,
                    -0.11725638061761856,
                    -0.11998612433671951,
                    -0.049354225397109985,
                    0.0020709261298179626,
                    0.015083854086697102,
                    -0.21360981464385986,
                    -0.0016054207226261497,
                    -0.06644989550113678,
                    -0.10224280506372452,
                    0.08114323019981384,
                    0.014917182736098766,
                    -0.13973964750766754,
                    0.11120136082172394,
                    0.09626846015453339,
                    -0.001006463193334639,
                    0.028875621035695076,
                    0.005685175769031048,
                    -0.05421185865998268,
                    -0.0449390634894371,
                    0.16909462213516235,
                    -0.17525604367256165,
                    0.05238838121294975,
                    -0.00986246857792139,
                    -0.0015349837485700846,
                    0.10428258031606674,
                    -0.033486854285001755,
                    -0.010596993379294872,
                    0.0004140879609622061,
                    -0.17749495804309845,
                    0.005688045639544725,
                    0.08677172660827637,
                    -0.03297128528356552,
                    0.014354322105646133,
                    -0.16054609417915344,
                    0.004454740323126316,
                    0.18028007447719574,
                    -0.00438443198800087,
                    0.16087272763252258,
                    -0.16682183742523193,
                    -0.06409413367509842,
                    -0.00011474169150460511,
                    0.002616564277559519,
                    0.03149285912513733,
                    -0.08101281523704529,
                    -0.1711900681257248,
                    0.0005552631337195635,
                    0.0018060976872220635,
                    -0.10423590987920761,
                    -0.08041681349277496,
                    -0.026044178754091263,
                    2.2554864699486643e-05,
                    -0.16772888600826263,
                    -0.11249245703220367,
                    -0.2039606273174286,
                    0.015907011926174164,
                    -0.00648655416443944,
                    -0.13201335072517395,
                    -0.006386582273989916,
                    -0.0059915813617408276,
                    -0.006194396875798702,
                    0.0031640827655792236,
                    -0.1533878892660141,
                    0.1416640281677246,
                    -0.060457952320575714,
                    0.04613110050559044,
                    -0.155706524848938,
                    -0.003589724190533161,
                    0.0014630729565396905,
                    -0.03775149583816528,
                    -0.14524874091148376,
                    -0.005111118778586388,
                    0.027538184076547623,
                    0.040433622896671295,
                    -0.11765909940004349,
                    -0.021648850291967392,
                    -0.08933603018522263,
                    -0.012739289551973343,
                    -0.15007534623146057,
                    0.0016831455286592245,
                    0.15857546031475067,
                    0.007508265320211649,
                    -0.1553380787372589,
                    -0.17035295069217682,
                    -0.04158727452158928,
                    0.13887053728103638,
                    0.12530948221683502,
                    0.031691957265138626,
                    0.0015813467325642705,
                    0.04506202042102814,
                    0.1184559166431427,
                    -0.02179843559861183,
                    -0.0117260767146945,
                    -0.026098746806383133,
                    0.0021023245062679052,
                    0.0625101700425148,
                    -0.09995896369218826,
                    -0.13868959248065948,
                    -0.06104445829987526,
                    -0.00459393672645092,
                    -0.023379219695925713,
                    0.16877755522727966,
                    -0.09208324551582336,
                    -0.10107284784317017,
                    0.18802011013031006,
                    -0.0029937298968434334,
                    -0.007933325134217739,
                    -0.06103106960654259,
                    -0.08141948282718658,
                    0.02037830278277397,
                    -0.0022573305759578943,
                    4.418031949171564e-06,
                    0.09011673927307129,
                    0.17313680052757263,
                    0.12533226609230042,
                    -0.08753076940774918,
                    -0.016826244071125984,
                    -0.09771282970905304,
                    0.012438332661986351,
                    0.0020760938059538603,
                    -0.0015185207594186068,
                    -0.1751554310321808,
                    0.2063870131969452,
                    -0.001320389797911048,
                    0.007377607747912407,
                    -0.006469113752245903,
                    -0.21700112521648407,
                    0.05715538188815117,
                    0.10060861706733704,
                    -0.07986286282539368,
                    0.014401182532310486,
                    0.1217750683426857,
                    0.0018997556762769818,
                    0.00686808954924345,
                    0.06412000209093094,
                    -0.0013002894120290875,
                    -0.013083301484584808,
                    -0.06585513800382614,
                    0.16984784603118896,
                    0.09168080240488052,
                    0.13820472359657288,
                    0.206526979804039,
                    0.21667952835559845,
                    0.005000500474125147,
                    -0.045808687806129456,
                    0.001052133273333311,
                    0.021886955946683884,
                    -0.05791990086436272,
                    -0.04356328025460243,
                    0.09814764559268951,
                    0.01761334389448166,
                    0.14798611402511597,
                    0.0031496461015194654,
                    -0.1270899474620819,
                    0.13158679008483887,
                    -0.004277848172932863,
                    -0.09627760946750641,
                    0.09765690565109253,
                    -0.00443626893684268,
                    0.08647899329662323,
                    -0.043709948658943176,
                    0.14520899951457977,
                    -0.05149749293923378,
                    0.0007898265612311661,
                    0.19334107637405396,
                    0.18257707357406616,
                    -0.10630962997674942,
                    -0.18057547509670258,
                    -0.19450326263904572,
                    0.000498170149512589,
                    0.0008600730798207223,
                    0.14742149412631989,
                    0.036522552371025085,
                    -0.15238860249519348,
                    -6.800254050176591e-05,
                    -0.004514335189014673,
                    0.2108912169933319,
                    0.0875527560710907,
                    -0.017595281824469566,
                    -0.11634951829910278,
                    0.10153936594724655,
                    0.10829110443592072,
                    -0.008876126259565353,
                    -0.006520053371787071,
                    0.015980219468474388,
                    -0.029782157391309738,
                    0.10254257917404175,
                    -0.011789354495704174,
                    -0.20202606916427612,
                    0.004805866628885269,
                    0.1291351169347763,
                    -0.0585663728415966,
                    0.08650943636894226,
                    0.11658792197704315,
                    -0.1323346197605133,
                    0.2132590115070343,
                    0.0007376073626801372,
                    -0.033878426998853683,
                    -0.0443364642560482,
                    0.004864847287535667,
                    -0.18960626423358917,
                    -0.08487138152122498,
                    0.10079995542764664,
                    0.04165032133460045,
                    0.02581346593797207,
                    0.17026835680007935,
                    -0.09845713526010513,
                    -0.0038461124058812857,
                    -0.08870096504688263,
                    -0.004269804805517197,
                    -0.13773658871650696,
                    0.09094855189323425,
                    0.07282755523920059,
                    -0.0846080332994461,
                    0.1344437152147293,
                    -0.13275142014026642,
                    0.0002641391765791923,
                    0.01631641387939453,
                    -0.1549552083015442,
                    -0.002799859270453453,
                    0.08172119408845901,
                    -0.014450723305344582,
                    0.00603875145316124,
                    -0.19294917583465576,
                    0.12528635561466217,
                    0.10314711183309555,
                    0.17137545347213745,
                    0.008381735533475876,
                    0.008681677281856537,
                    0.15257875621318817,
                    0.1773531585931778,
                    -0.004465794190764427,
                    0.14207696914672852,
                    -0.0005141996080055833,
                    0.0001318864815402776,
                    -0.06443219631910324,
                    0.04128192737698555,
                    -0.03402317687869072,
                    0.003669349243864417,
                    -0.0012819180265069008,
                    -0.011568375863134861,
                    0.00837813038378954,
                    0.0015641783829778433,
                    -0.16463054716587067,
                    0.15310800075531006,
                    -0.1481594741344452,
                    -0.12301664799451828,
                    2.019466228375677e-05,
                    0.04134581983089447,
                    0.0026538993697613478,
                    -0.0665610060095787,
                    -0.00675542838871479,
                    0.08875442296266556,
                    0.004524050746113062,
                    -0.12530598044395447,
                    0.08138394355773926,
                    0.07716652750968933,
                    0.021533608436584473,
                    -0.2561857998371124,
                    0.172955721616745,
                    -0.0006134393624961376,
                    0.05854874104261398,
                    0.12576457858085632,
                    -0.00013154797488823533,
                    -0.0012225497048348188,
                    0.06661348789930344,
                    0.16357295215129852,
                    -0.049819402396678925,
                    0.09145786613225937,
                    -0.15506477653980255,
                    -0.17658863961696625,
                    0.004890101496130228,
                    -0.055551428347826004,
                    -0.0004645715525839478,
                    -0.0923355370759964,
                    -0.18995386362075806,
                    -0.06666867434978485,
                    -0.07877780497074127,
                    -0.19012363255023956,
                    -0.09598514437675476,
                    0.00013219378888607025,
                    -0.006195133551955223,
                    0.1235739067196846,
                    -0.013238418847322464,
                    -0.053234271705150604,
                    0.11530371755361557,
                    0.0026417591143399477,
                    0.02276862971484661,
                    -0.07692047208547592,
                    -0.1845611035823822,
                    0.1353134959936142,
                    0.006237822584807873,
                    -0.12984699010849,
                    0.07448504120111465,
                    0.14057236909866333,
                    -0.04446769505739212,
                    -0.06763556599617004,
                    -0.00894718524068594,
                    -0.22666871547698975,
                    -0.06665913015604019,
                    0.02441675402224064,
                    0.11952704936265945,
                    -0.22302204370498657,
                    0.5077897906303406,
                    0.13327409327030182,
                    0.033763349056243896,
                    0.05386389046907425,
                    0.1311408132314682,
                    0.13545213639736176,
                    0.21332378685474396,
                    -0.15836603939533234,
                    0.12932884693145752,
                    -0.06607016175985336,
                    -0.06823893636465073,
                    0.23173105716705322,
                    0.4313575327396393,
                    -0.19613921642303467,
                    0.14723911881446838,
                    -0.16216585040092468,
                    0.10786385834217072,
                    -0.008903566747903824,
                    0.01479286141693592,
                    -0.2412329763174057,
                    -0.009778548032045364,
                    -0.33671247959136963,
                    0.004107055254280567,
                    0.14706465601921082,
                    0.16488230228424072,
                    0.028678936883807182,
                    -0.05808378383517265,
                    0.02147817425429821,
                    0.051491979509592056,
                    -0.20277057588100433,
                    0.03842206671833992,
                    -0.07364723831415176,
                    -0.2277192920446396,
                    -0.008902818895876408,
                    0.14436811208724976,
                    0.09528525173664093,
                    0.16622646152973175,
                    0.06841865181922913,
                    -0.045549895614385605,
                    0.11596619337797165,
                    0.027797821909189224,
                    -0.12083061784505844,
                    0.1649092435836792,
                    -0.13050128519535065,
                    -0.10792213678359985,
                    -0.047575902193784714,
                    0.047052282840013504,
                    -0.029728742316365242,
                    0.01247077714651823,
                    0.13168965280056,
                    0.12562908232212067,
                    0.12159767001867294,
                    -0.16336241364479065,
                    0.09291614592075348,
                    0.026601769030094147,
                    -0.16488678753376007,
                    -0.08670376241207123,
                    0.06814248114824295,
                    0.0003571957931853831,
                    -0.008888592943549156,
                    -0.09167282283306122,
                    -0.059342160820961,
                    0.07293947786092758,
                    8.772820729063824e-05,
                    -0.0026838211342692375,
                    0.00833550002425909,
                    -0.1290065199136734,
                    0.034044187515974045,
                    -0.07056444883346558,
                    -0.07092458009719849,
                    -0.07579365372657776,
                    -0.0657651275396347,
                    -0.0002925358130596578,
                    0.01439558994024992,
                    0.09568127244710922,
                    -0.10976333916187286,
                    -0.0015109846135601401,
                    0.0010982941603288054,
                    -0.0019443280762061477,
                    0.05740247666835785,
                    0.18097925186157227,
                    0.1923883706331253,
                    -0.03979796916246414,
                    -0.19939345121383667,
                    -0.03736390173435211,
                    -0.0004115057527087629,
                    0.00623736809939146,
                    -0.12861604988574982,
                    -0.0012942941393703222,
                    -0.06716834008693695,
                    0.06902647763490677,
                    -0.006933520548045635,
                    0.030051952227950096,
                    -0.12350866198539734,
                    0.050097864121198654,
                    -0.030032731592655182,
                    0.003270669374614954,
                    -0.1417565643787384,
                    -0.0013188602169975638,
                    -0.1961689442396164,
                    0.15785560011863708,
                    -0.12398173660039902,
                    0.05209898203611374,
                    0.03619518131017685,
                    -0.13334788382053375,
                    -0.0002577846753410995,
                    -0.028173580765724182,
                    0.014197091571986675,
                    -0.0034625499974936247,
                    -0.10684658586978912,
                    -0.07826706022024155,
                    0.0004438353644218296,
                    -0.0037062650080770254,
                    -0.022782601416110992,
                    0.07008678466081619,
                    -0.07027821242809296,
                    0.006573617924004793,
                    -0.026780394837260246,
                    0.10859084129333496,
                    0.1388603150844574,
                    0.11026129871606827,
                    -0.06255590170621872,
                    0.3144173324108124,
                    -0.36335524916648865,
                    0.10381867736577988,
                    -0.15217946469783783,
                    0.11319535225629807,
                    -0.11638028174638748,
                    -0.007655206602066755,
                    0.033395975828170776,
                    0.003331130836158991,
                    -0.33865609765052795,
                    -0.16825854778289795,
                    0.13476386666297913,
                    0.06689060479402542,
                    0.18925225734710693,
                    -0.02747233957052231,
                    -0.5880706906318665,
                    -0.14319361746311188,
                    0.08945873379707336,
                    -0.48600924015045166,
                    -0.039008356630802155,
                    0.39980173110961914,
                    -0.01024884358048439,
                    0.03387610614299774,
                    0.22277571260929108,
                    0.1130640059709549,
                    0.11603997647762299,
                    -0.029879258945584297,
                    -0.04699769243597984,
                    0.22733767330646515,
                    -0.22870101034641266,
                    -0.051117926836013794,
                    0.16279876232147217,
                    0.10234160721302032,
                    0.07963166385889053,
                    -0.27636152505874634,
                    0.044990766793489456,
                    -0.23777325451374054,
                    0.01696794666349888,
                    0.12191645801067352,
                    0.226301372051239,
                    -0.27685579657554626,
                    -0.11786482483148575,
                    0.08008267730474472,
                    -0.11284101009368896,
                    0.07791462540626526,
                    -0.03318425640463829,
                    0.11877914518117905,
                    -0.4111362397670746,
                    -0.2849395275115967,
                    0.11635066568851471,
                    -0.4079650044441223,
                    0.032851751893758774,
                    -0.1777983158826828,
                    0.1828281730413437,
                    -0.004492487292736769,
                    -0.10949775576591492,
                    0.022238396108150482,
                    -0.1613498032093048,
                    0.48809194564819336,
                    0.11222004145383835,
                    -0.2365960329771042,
                    -0.19501973688602448,
                    -0.05835551768541336,
                    -0.03357551619410515,
                    0.004617561586201191,
                    -0.0007022274658083916,
                    -0.07050153613090515,
                    -0.027999432757496834,
                    -0.013850592076778412,
                    0.007632084656506777,
                    -0.00699578458443284,
                    0.023529063910245895,
                    -0.06024701148271561,
                    -0.26606714725494385,
                    -0.16623245179653168,
                    -0.030547020956873894,
                    0.07176456600427628,
                    0.07690463215112686,
                    -0.01680886559188366,
                    0.015712853521108627,
                    0.08818721026182175,
                    0.11537598073482513,
                    -0.0030722583178430796,
                    -0.11069168895483017,
                    0.001049495185725391,
                    -0.05339576676487923,
                    -0.216139554977417,
                    -0.05922572687268257,
                    0.06604484468698502,
                    -0.016770338639616966,
                    0.019488124176859856,
                    -0.000463282223790884,
                    -0.014771314337849617,
                    -0.13368317484855652,
                    0.006240876857191324,
                    -0.04375277832150459,
                    -0.14829596877098083,
                    0.11080503463745117,
                    -0.006380799692124128,
                    0.0548352412879467,
                    0.02490687556564808,
                    -0.04880449175834656,
                    -0.00437538605183363,
                    -0.18598538637161255,
                    -0.0041772169061005116,
                    -0.14411936700344086,
                    -0.18272443115711212,
                    -0.0411047488451004,
                    -0.08841874450445175,
                    0.20368918776512146,
                    -0.13951902091503143,
                    -0.0010926577961072326,
                    -0.09201288223266602,
                    0.18916407227516174,
                    0.009475640952587128,
                    -0.05607009679079056,
                    0.2552798390388489,
                    0.008547852747142315,
                    0.16617508232593536,
                    0.16200152039527893,
                    -0.19897545874118805,
                    0.12305603176355362,
                    0.007201340515166521,
                    -0.16241669654846191,
                    -0.029213054105639458,
                    -0.040249232202768326,
                    0.08723770081996918,
                    0.056733403354883194,
                    0.3629983365535736,
                    -0.47342345118522644,
                    -0.010974186472594738,
                    -0.031470268964767456,
                    0.09377437084913254,
                    -0.022106941789388657,
                    -0.5831732153892517,
                    -0.06347158551216125,
                    -0.170854389667511,
                    -0.21443313360214233,
                    0.010844572447240353,
                    -0.04823490232229233,
                    -0.1883687824010849,
                    -0.04526403546333313,
                    0.1338369995355606,
                    -0.018723350018262863,
                    0.008121320977807045,
                    0.009335150942206383,
                    -0.1715555340051651,
                    -0.10134382545948029,
                    0.6806837916374207,
                    -0.061972808092832565,
                    -0.005045600235462189,
                    0.07097183167934418,
                    -0.05525127798318863,
                    0.1603441685438156,
                    0.07899686694145203,
                    0.07639886438846588,
                    0.18866458535194397,
                    -0.07488956302404404,
                    0.26771098375320435,
                    0.007631940301507711,
