[
    {
        "class": "keras.layers.core.dense.Dense",
        "config": {
            "name": "dense_23",
            "trainable": true,
            "dtype": "float32",
            "units": 64,
            "activation": "tanh",
            "use_bias": true,
            "kernel_initializer": {
                "class_name": "GlorotUniform",
                "config": {
                    "seed": null
                }
            },
            "bias_initializer": {
                "class_name": "Zeros",
                "config": {}
            },
            "kernel_regularizer": null,
            "bias_regularizer": null,
            "activity_regularizer": null,
            "kernel_constraint": null,
            "bias_constraint": null
        },
        "weights": [
            {
                "_type": "ndarray",
                "shape": [
                    2,
                    64
                ],
                "dtype": "float32",
                "data": [
                    0.16677679121494293,
                    -0.04348285496234894,
                    0.385954350233078,
                    0.340508371591568,
                    0.00020671155652962625,
                    0.1965915858745575,
                    0.39979881048202515,
                    0.061401646584272385,
                    0.0010697250254452229,
                    -0.027539826929569244,
                    0.00024145026691257954,
                    0.13413868844509125,
                    0.5456932783126831,
                    0.09431815892457962,
                    0.0010041067143902183,
                    0.00014922430273145437,
                    -0.15811851620674133,
                    0.0007052758592180908,
                    0.4303211569786072,
                    -0.2396998256444931,
                    0.34422653913497925,
                    -0.5899231433868408,
                    -0.0001533088507130742,
                    0.32644104957580566,
                    -0.14160043001174927,
                    0.0002752489235717803,
                    0.02800106629729271,
                    1.807733679015655e-05,
                    0.0009285431588068604,
                    -7.211436604848132e-05,
                    -0.4790579676628113,
                    -0.00038322521140798926,
                    -0.0001776209392119199,
                    -0.000724290031939745,
                    0.0002551331417635083,
                    0.0008925426518544555,
                    0.0006664821994490921,
                    5.405483170761727e-05,
                    -0.0003528899105731398,
                    0.0016630652826279402,
                    0.0829833373427391,
                    0.0005927671445533633,
                    -0.12017019838094711,
                    0.0008055893704295158,
                    -0.2933809757232666,
                    -0.0001527866697870195,
                    0.09334839880466461,
                    0.0012585038784891367,
                    0.0006839024135842919,
                    0.4520537853240967,
                    0.3365756571292877,
                    0.0005761974025517702,
                    -0.39535003900527954,
                    0.00045375959598459303,
                    -0.17606444656848907,
                    -0.0004526869743131101,
                    0.30701586604118347,
                    0.000245480245212093,
                    -0.523314893245697,
                    -0.15173959732055664,
                    -0.0007587748114019632,
                    -0.0001697748084552586,
                    -0.00032152619678527117,
                    0.0011833517346531153,
                    0.051970332860946655,
                    -0.37911924719810486,
                    -0.30746644735336304,
                    -0.26549041271209717,
                    3.6857662053080276e-05,
                    0.31196966767311096,
                    0.28509387373924255,
                    0.26989835500717163,
                    -0.0002601956366561353,
                    -0.08737239241600037,
                    0.00018010420899372548,
                    -0.14074169099330902,
                    -0.2958405315876007,
                    -0.48345911502838135,
                    0.00039066586759872735,
                    0.0014494473580271006,
                    0.684515118598938,
                    0.0005360888899303973,
                    -0.38322097063064575,
                    -0.08103442192077637,
                    0.40343499183654785,
                    0.06916359812021255,
                    -0.000835397164337337,
                    0.31518304347991943,
                    -0.050315387547016144,
                    -0.0008253681007772684,
                    -0.21800890564918518,
                    -0.0009692028979770839,
                    0.0030591897666454315,
                    0.0007121461094357073,
                    0.17832939326763153,
                    -0.0008217471768148243,
                    0.0006437482661567628,
                    0.00010643156565492973,
                    -0.0006183739751577377,
                    -0.0006871951627545059,
                    0.001895808964036405,
                    0.00040718974196352065,
                    0.0003227697452530265,
                    0.002473028376698494,
                    0.2843623757362366,
                    0.00041389864054508507,
                    -0.06221533939242363,
                    -0.0007536793127655983,
                    -0.38878610730171204,
                    0.0016203889390453696,
                    0.5164777636528015,
                    -4.56472480436787e-05,
                    0.001640810864046216,
                    -0.15085642039775848,
                    0.11868452280759811,
                    0.0011920207180082798,
                    0.2448742538690567,
                    0.0002693867718335241,
                    -0.13342247903347015,
                    -0.0013558190548792481,
                    0.07168571650981903,
                    0.0009878132259473205,
                    -0.10060177743434906,
                    0.5399807691574097,
                    -0.0012499066069722176,
                    0.0007976536871865392,
                    -0.0006319608073681593,
                    0.0007935407920740545
                ]
            },
            {
                "_type": "ndarray",
                "shape": [
                    64
                ],
                "dtype": "float32",
                "data": [
                    -0.003381966846063733,
                    -0.17835162580013275,
                    0.27532389760017395,
                    0.2239111363887787,
                    -1.0888786164287012e-05,
                    -0.12985238432884216,
                    0.2771696150302887,
                    0.06650591641664505,
                    0.0008924425346776843,
                    -0.02121579833328724,
                    -0.0003234663454350084,
                    -0.12793663144111633,
                    -0.4742637574672699,
                    -0.29932063817977905,
                    0.0008499008836224675,
                    -0.0003392319777049124,
                    0.4779176712036133,
                    0.00029413768788799644,
                    0.3459741771221161,
                    0.027526695281267166,
                    -0.3222982883453369,
                    0.36382681131362915,
                    -0.00025191126042045653,
                    -0.24456997215747833,
                    0.014297096990048885,
                    0.00021224348165560514,
                    0.05317544564604759,
                    2.0555567914470885e-07,
                    0.0007778062717989087,
                    -5.464921923703514e-05,
                    -0.26795798540115356,
                    -0.00010381988977314904,
                    -7.510383875342086e-05,
                    -0.00039756385376676917,
                    0.00012363905261736363,
                    0.0005729414406232536,
                    0.002403438091278076,
                    0.00029879232170060277,
                    -0.00013914449664298445,
                    -0.0009369337349198759,
                    0.11649961024522781,
                    0.0004999470547772944,
                    0.0026369569823145866,
                    0.0006997971213422716,
                    0.2309238314628601,
                    -4.4128148147137836e-05,
                    0.3071291446685791,
                    0.001116443076170981,
                    0.0004910918651148677,
                    0.27194151282310486,
                    0.04799188673496246,
                    0.0001776830031303689,
                    0.32181528210639954,
                    0.0003843481536023319,
                    0.0029414899181574583,
                    -0.0002934069198090583,
                    -0.07817628234624863,
                    -3.3907163015101105e-05,
                    0.2763141095638275,
                    0.3495435416698456,
                    -0.00038574988138861954,
                    -0.00015228957636281848,
                    -0.00014905932766851038,
                    0.0007236304227262735
                ]
            }
        ]
    },
    {
        "class": "keras.layers.core.dense.Dense",
        "config": {
            "name": "dense_24",
            "trainable": true,
            "dtype": "float32",
            "units": 64,
            "activation": "tanh",
            "use_bias": true,
            "kernel_initializer": {
                "class_name": "GlorotUniform",
                "config": {
                    "seed": null
                }
            },
            "bias_initializer": {
                "class_name": "Zeros",
                "config": {}
            },
            "kernel_regularizer": null,
            "bias_regularizer": null,
            "activity_regularizer": null,
            "kernel_constraint": null,
            "bias_constraint": null
        },
        "weights": [
            {
                "_type": "ndarray",
                "shape": [
                    64,
                    64
                ],
                "dtype": "float32",
                "data": [
                    -0.17599111795425415,
                    -0.04963255301117897,
                    -0.12847816944122314,
                    0.32871735095977783,
                    -0.06471862643957138,
                    0.10335628688335419,
                    0.32345137000083923,
                    -0.16891838610172272,
                    -0.09223179519176483,
                    -0.014551940374076366,
                    0.2500357925891876,
                    -0.16968147456645966,
                    0.044767167419195175,
                    0.03671107068657875,
                    0.039321720600128174,
                    -0.17134800553321838,
                    -0.2928854823112488,
                    -0.0814703181385994,
                    -0.19702261686325073,
                    0.31542521715164185,
                    0.11504962295293808,
                    -0.06096687540411949,
                    0.058673206716775894,
                    0.1036355048418045,
                    -0.11242754012346268,
                    0.1352614462375641,
                    -0.19321401417255402,
                    0.07195571064949036,
                    -0.147520050406456,
                    -0.02195822075009346,
                    0.014000751078128815,
                    -0.10465922206640244,
                    -0.015970461070537567,
                    -0.2539925277233124,
                    -0.019088322296738625,
                    -0.15263597667217255,
                    -0.18266882002353668,
                    -0.0226877611130476,
                    0.31810396909713745,
                    0.11348076909780502,
                    -0.07448052614927292,
                    -0.2038765400648117,
                    0.12705133855342865,
                    0.017754608765244484,
                    0.1874791830778122,
                    0.016598468646407127,
                    -0.08214870095252991,
                    -0.21784956753253937,
                    -0.38835522532463074,
                    -0.09941565245389938,
                    -0.13866251707077026,
                    -0.13349640369415283,
                    -0.1181463673710823,
                    0.26862719655036926,
                    -0.007427518256008625,
                    0.2303166538476944,
                    0.09244854003190994,
                    0.18004581332206726,
                    -0.2052145004272461,
                    -0.541816234588623,
                    -0.2715609669685364,
                    0.029057739302515984,
                    -0.10368206351995468,
                    0.1434554010629654,
                    -0.11202769726514816,
                    -0.24692240357398987,
                    -0.039309971034526825,
                    -0.37176939845085144,
                    -0.10295823961496353,
                    -0.13579802215099335,
                    0.18318752944469452,
                    -0.2780744731426239,
                    0.12774865329265594,
                    -0.08195548504590988,
                    0.0756109207868576,
                    -0.004326018039137125,
                    0.30220720171928406,
                    -0.029528459534049034,
                    0.025580938905477524,
                    0.2436453104019165,
                    0.15546756982803345,
                    0.10168971866369247,
                    -0.022099951282143593,
                    -0.23192188143730164,
                    0.0351974293589592,
                    0.012554263696074486,
                    -0.10841678082942963,
                    -0.1657654196023941,
                    0.2763760983943939,
                    -0.491632878780365,
                    -0.15424825251102448,
                    0.004854157567024231,
                    0.20248883962631226,
                    0.09176495671272278,
                    0.19117482006549835,
                    -0.09603124111890793,
                    0.014551649801433086,
                    -0.1512247771024704,
                    -0.1660185158252716,
                    0.12912976741790771,
                    0.12367721647024155,
                    -0.12714044749736786,
                    -0.0745893344283104,
                    -0.10921155661344528,
                    0.06073605269193649,
                    -0.17940625548362732,
                    -0.07476188242435455,
                    0.14948055148124695,
                    -0.0013677196111530066,
                    0.4303392171859741,
                    -0.08523581922054291,
                    -0.0411299392580986,
                    0.3789767026901245,
                    0.08424867689609528,
                    -0.00802190788090229,
                    0.2718726396560669,
                    -0.018107187002897263,
                    -0.12530049681663513,
                    -0.3983372449874878,
                    0.09407723695039749,
                    -0.18233567476272583,
                    -0.24429574608802795,
                    -0.0970550999045372,
                    -1.3197511434555054,
                    -0.13785196840763092,
                    0.006239406298846006,
                    -0.012344719842076302,
                    0.17377209663391113,
                    0.1726388782262802,
                    0.14158685505390167,
                    0.04145094379782677,
                    -0.37264543771743774,
                    -0.031538791954517365,
                    0.08287625014781952,
                    0.24038204550743103,
                    -0.006351777818053961,
                    0.0017147406470030546,
                    -0.1622876673936844,
                    -0.16651181876659393,
                    0.04211529716849327,
                    -0.27475014328956604,
                    0.047997526824474335,
                    -0.06720937043428421,
                    0.09588582068681717,
                    0.3891793489456177,
                    -0.1419197916984558,
                    0.1210060566663742,
                    0.4638431966304779,
                    0.16843779385089874,
                    0.13991785049438477,
                    -0.16051045060157776,
                    -0.03681911155581474,
                    -0.022033067420125008,
                    -0.11309897154569626,
                    0.12088797986507416,
                    -0.12851586937904358,
                    -0.02948939986526966,
                    -0.029391461983323097,
                    0.005223229993134737,
                    -0.0447993129491806,
                    -0.07952749729156494,
                    0.11792163550853729,
                    -0.10794207453727722,
                    -0.18918536603450775,
                    0.03794575482606888,
                    -0.02781023271381855,
                    0.9265356063842773,
                    0.1360941380262375,
                    -0.009217108599841595,
                    -0.18368203938007355,
                    0.19828854501247406,
                    0.04061344638466835,
                    0.6603232026100159,
                    0.3888104557991028,
                    -0.04422735422849655,
                    0.127569779753685,
                    -0.7472128868103027,
                    -0.12316276133060455,
                    0.17608870565891266,
                    -0.1559159904718399,
                    -0.8797749280929565,
                    0.3762623071670532,
                    -0.43317851424217224,
                    -0.1467960774898529,
                    -0.04749318212270737,
                    -0.1116809993982315,
                    0.009554466232657433,
                    -0.0836445614695549,
                    -0.003558012191206217,
                    -0.15092723071575165,
                    -0.271273136138916,
                    -0.06858506053686142,
                    -0.20375105738639832,
                    0.1867450624704361,
                    -0.15118809044361115,
                    -0.3508603870868683,
                    0.007347220554947853,
                    -0.014300251379609108,
                    0.25748351216316223,
                    -0.25008609890937805,
                    -0.1290006935596466,
                    -0.021784232929348946,
                    0.1194450855255127,
                    -0.09549319744110107,
                    -0.12501993775367737,
                    0.1341274380683899,
                    -0.10106068849563599,
                    0.1309700757265091,
                    0.3352378010749817,
                    -0.11724363267421722,
                    -0.003428943455219269,
                    0.4222206473350525,
                    -0.12349072098731995,
                    -0.2752622365951538,
                    -0.03336549177765846,
                    -0.05248347669839859,
                    0.016822857782244682,
                    0.19984203577041626,
                    -0.10979631543159485,
                    0.09663999825716019,
                    -0.13581572473049164,
                    -0.16220802068710327,
                    0.11327065527439117,
                    -0.08958378434181213,
                    -0.1257648468017578,
                    -0.05568309873342514,
                    0.03583034500479698,
                    0.020126456394791603,
                    0.07329145818948746,
                    0.09159111976623535,
                    0.7168271541595459,
                    -0.21987415850162506,
                    0.12561453878879547,
                    -0.22858813405036926,
                    -0.03202624246478081,
                    -0.18821774423122406,
                    0.4857806861400604,
                    0.40369564294815063,
                    0.14751610159873962,
                    -0.07124613970518112,
                    -0.7784450650215149,
                    -0.13900062441825867,
                    -0.1567794233560562,
                    0.16402852535247803,
                    -0.7857718467712402,
                    0.39702945947647095,
                    -0.3716847598552704,
                    0.15056432783603668,
                    0.08887217938899994,
                    0.15753790736198425,
                    0.04006199166178703,
                    -0.14060334861278534,
                    -0.07786115258932114,
                    -3.988542812294327e-05,
                    0.006067369133234024,
                    0.20060648024082184,
                    -0.05106054246425629,
                    0.12038922309875488,
                    0.11134298145771027,
                    -7.070814172038808e-05,
                    0.0004930989816784859,
                    -0.029721945524215698,
                    -0.00013011862756684422,
                    -0.0004508884157985449,
                    -0.0007552256574854255,
                    0.0715521052479744,
                    0.0352616049349308,
                    -0.09640327095985413,
                    -0.0007188488380052149,
                    -0.005196967627853155,
                    -0.13690663874149323,
                    0.14386507868766785,
                    0.00020157854305580258,
                    -0.12943163514137268,
                    0.03419818356633186,
                    0.0007571826572529972,
                    0.2636886239051819,
                    0.023048019036650658,
                    -0.06114114820957184,
                    -0.07783201336860657,
                    0.00013564678374677896,
                    -9.83143545454368e-05,
                    -0.08557457476854324,
                    -0.14281262457370758,
                    -0.2482539415359497,
                    -7.774031109875068e-05,
                    0.056992094963788986,
                    -0.06378579884767532,
                    0.20335477590560913,
                    0.2107265442609787,
                    -0.06365364789962769,
                    -0.07901005446910858,
                    0.04624975472688675,
                    -0.0944196954369545,
                    -0.0011746843811124563,
                    -0.15890224277973175,
                    0.09731142222881317,
                    -1.3327199667401146e-05,
                    -0.10110484063625336,
                    -0.09280207753181458,
                    -5.0474482122808695e-05,
                    0.0010570373851805925,
                    0.04853217303752899,
                    -9.84393227554392e-06,
                    -0.0006108358502388,
                    -0.07116273790597916,
                    0.047153323888778687,
                    -0.001120918313972652,
                    -0.00026099238311871886,
                    -0.0005388021236285567,
                    0.00031976186437532306,
                    0.07782840728759766,
                    0.08773349225521088,
                    -0.038904059678316116,
                    -0.12612175941467285,
                    0.0006701518432237208,
                    0.0626855120062828,
                    -0.03644504398107529,
                    0.2627902328968048,
                    0.1493307501077652,
                    -0.012285366654396057,
                    -0.09101799130439758,
                    -0.20785576105117798,
                    0.3181181848049164,
                    0.04281669110059738,
                    -0.10156258195638657,
                    0.21783843636512756,
                    0.2560015916824341,
                    -0.08085089921951294,
                    0.03713015839457512,
                    0.011770782992243767,
                    -0.13221792876720428,
                    -0.5191331505775452,
                    -0.04455536603927612,
                    0.05195315182209015,
                    0.05807691067457199,
                    -0.21444830298423767,
                    -0.13743135333061218,
                    0.0659673735499382,
                    -0.02430139295756817,
                    -0.07264705747365952,
                    0.10833996534347534,
                    0.09404057264328003,
                    0.20714899897575378,
                    -0.2833874821662903,
                    0.2017691284418106,
                    0.002319376915693283,
                    0.030144602060317993,
                    -0.1661258339881897,
                    -0.2959033250808716,
                    0.04223429039120674,
                    0.24080251157283783,
                    0.12503260374069214,
                    -0.14137311279773712,
                    0.12146347016096115,
                    0.10313881188631058,
                    -0.03697434812784195,
                    -0.1268913447856903,
                    0.060908377170562744,
                    -0.1977711319923401,
                    0.12628903985023499,
                    -0.3667904734611511,
                    -0.015675270929932594,
                    -0.017314625903964043,
                    0.048279792070388794,
                    -0.14320240914821625,
                    0.13060809671878815,
                    -0.6759554743766785,
                    0.06444980204105377,
                    -0.07205259054899216,
                    -0.05008341372013092,
                    -0.05903715640306473,
                    0.7088447213172913,
                    0.2991386353969574,
                    0.4487486183643341,
                    -0.02594512142241001,
                    -0.2240302860736847,
                    0.0861433893442154,
                    0.07098285108804703,
                    0.40360772609710693,
                    0.2530379593372345,
                    0.015618441626429558,
                    0.173002228140831,
                    0.030675776302814484,
                    -0.06959857046604156,
                    -0.0932241752743721,
                    -0.12105816602706909,
                    0.33081650733947754,
                    -0.32352203130722046,
                    -0.048044852912425995,
                    0.08345642685890198,
                    0.34199362993240356,
                    -0.01854509860277176,
                    0.02524588070809841,
                    -0.07680070400238037,
                    0.022429604083299637,
                    -0.0858175978064537,
                    0.07486569136381149,
                    -0.11767572909593582,
                    0.03117906115949154,
                    -0.1392172873020172,
                    -0.09446500986814499,
                    -0.05520834028720856,
                    0.5393823385238647,
                    -0.02211720682680607,
                    -0.04397069290280342,
                    -0.01171863079071045,
                    0.04382709041237831,
                    -0.1584169566631317,
                    0.6087561249732971,
                    0.07940346747636795,
                    0.0916849821805954,
                    0.08265987783670425,
                    -0.1021692082285881,
                    -0.07981108874082565,
                    0.005160713568329811,
                    0.05968967080116272,
                    0.12180793285369873,
                    0.05474035441875458,
                    -0.03578409180045128,
                    0.12169348448514938,
                    0.12572486698627472,
                    0.6144929528236389,
                    -0.06142387166619301,
                    -0.14099067449569702,
                    -0.3168872594833374,
                    -0.04738854244351387,
                    -0.036765534430742264,
                    0.38539043068885803,
                    -0.26957011222839355,
                    -0.040968552231788635,
                    0.01756678707897663,
                    -1.204357385635376,
                    0.001543728169053793,
                    0.06311838328838348,
                    -0.010871407575905323,
                    -0.17273370921611786,
                    0.32289496064186096,
                    -0.014206328429281712,
                    -0.07832445949316025,
                    -0.08095739781856537,
                    -0.013471662998199463,
                    0.16470451653003693,
                    0.21138939261436462,
                    0.017484012991189957,
                    -0.08288548141717911,
                    0.03111438639461994,
                    0.038967326283454895,
                    -0.1941300928592682,
                    -0.15370380878448486,
                    -0.13658224046230316,
                    0.4074936807155609,
                    0.10094740241765976,
                    -0.006354037672281265,
                    -0.03729935735464096,
                    0.3691633641719818,
                    0.1281997114419937,
                    -0.10621485114097595,
                    -0.23122437298297882,
                    -0.126186341047287,
                    -0.3553224802017212,
                    -0.07677658647298813,
                    0.15443795919418335,
                    0.16193318367004395,
                    -0.2634369432926178,
                    0.2111109346151352,
                    -0.12359295785427094,
                    0.09185231477022171,
                    -0.08424021303653717,
                    -0.16741368174552917,
                    -0.16943305730819702,
                    -0.19076457619667053,
                    -0.26294398307800293,
                    0.3705807328224182,
                    0.1318405419588089,
                    -0.19866591691970825,
                    0.12746261060237885,
                    0.034574612975120544,
                    0.07332274317741394,
                    -0.16899476945400238,
                    -0.1078253760933876,
                    0.04656318575143814,
                    -0.08666627109050751,
                    -0.13229142129421234,
                    -0.07430873066186905,
                    0.07230157405138016,
                    0.07639408856630325,
                    0.10980924963951111,
                    0.1755138486623764,
                    -0.10939903557300568,
                    0.10826128721237183,
                    0.0712096318602562,
                    -0.00335582229308784,
                    -0.30689555406570435,
                    -0.18143531680107117,
                    -0.011731977574527264,
                    -0.17006953060626984,
                    -0.09324217587709427,
                    -0.08686323463916779,
                    -0.06253895163536072,
                    0.3957156836986542,
                    -0.0377720482647419,
                    0.0007720633875578642,
                    0.0018564374186098576,
                    -0.07639959454536438,
                    0.08438141644001007,
                    -0.1939014494419098,
                    1.0235705375671387,
                    -0.016510630026459694,
                    -0.22909080982208252,
                    -0.2823016941547394,
                    -0.08629575371742249,
                    0.20068657398223877,
                    0.16771088540554047,
                    -0.010635982267558575,
                    0.0005093883373774588,
                    -0.0005901394179090858,
                    -0.13199064135551453,
                    0.0012264021206647158,
                    -8.209556835936382e-05,
                    -0.00019651370530482382,
                    -0.09636609256267548,
                    0.012779315933585167,
                    0.27185720205307007,
                    -0.0014897091314196587,
                    -0.12528401613235474,
                    0.023585811257362366,
                    -0.0698784813284874,
                    -0.0007791218813508749,
                    0.08375805616378784,
                    0.22736793756484985,
                    -2.2881795302964747e-05,
                    -0.14135123789310455,
                    -0.17708911001682281,
                    -0.1916302591562271,
                    -0.15123863518238068,
                    0.00022382473980542272,
                    -3.944489799323492e-05,
                    0.010195599868893623,
                    -0.15528936684131622,
                    -0.23830340802669525,
                    0.0024730609729886055,
                    -0.14102403819561005,
                    -0.09062392264604568,
                    0.10997724533081055,
                    0.1149221882224083,
                    0.014726083725690842,
                    0.22668494284152985,
                    0.15132974088191986,
                    0.06743940711021423,
                    -0.0016784154577180743,
                    -0.08699601888656616,
                    0.015049182809889317,
                    -0.001552832662127912,
                    0.007311227265745401,
                    0.14960169792175293,
                    -0.0010146015556529164,
                    -2.8598156859516166e-05,
                    0.2297924906015396,
                    0.0005127094918861985,
                    -0.0010253177024424076,
                    -0.15994861721992493,
                    0.19871649146080017,
                    -0.0007509069400839508,
                    -0.0004581479006446898,
                    0.00017944093269761652,
                    -0.0005538252298720181,
                    -0.048144321888685226,
                    0.05165210738778114,
                    -0.11860395967960358,
                    -0.14303633570671082,
                    0.00038663382292725146,
                    0.3887789845466614,
                    -0.19303348660469055,
                    -0.0944405198097229,
                    -0.05487574264407158,
                    0.12140992283821106,
                    9.317341027781367e-05,
                    0.12369297444820404,
                    -0.307681143283844,
                    0.3769999146461487,
                    0.12258942425251007,
                    -0.057334691286087036,
                    -0.057281579822301865,
                    -0.2947128713130951,
                    -0.1593579351902008,
                    0.0006895720725879073,
                    -0.10597708076238632,
                    0.1560160368680954,
                    0.02276654914021492,
                    -0.05352913588285446,
                    0.1220657229423523,
                    0.266969233751297,
                    0.14154155552387238,
                    -0.025072716176509857,
                    -0.14188021421432495,
                    -0.09267695993185043,
                    0.005000467877835035,
                    0.05581418424844742,
                    -0.044041723012924194,
                    -0.03733924776315689,
                    -0.0948583334684372,
                    -0.16972780227661133,
                    -0.05853627994656563,
                    -0.1449756920337677,
                    -0.1004306748509407,
                    0.14008493721485138,
                    -0.04321017116308212,
                    0.08723504841327667,
                    0.05097221955657005,
                    -0.01531225722283125,
                    0.08511729538440704,
                    -0.17535655200481415,
                    0.02123459056019783,
                    0.0493292436003685,
                    0.0860075056552887,
                    0.1196124404668808,
                    -0.056841615587472916,
                    0.19422659277915955,
                    0.09894382953643799,
                    -0.042440470308065414,
                    0.08965203911066055,
                    0.1319098025560379,
                    0.008710433728992939,
                    0.07173289358615875,
                    -0.23072701692581177,
                    -0.10941062867641449,
                    -0.09904400259256363,
                    -0.34161892533302307,
                    0.22718758881092072,
                    -0.16855153441429138,
                    0.1844625473022461,
                    0.17739646136760712,
                    -0.04428810253739357,
                    -0.12499049305915833,
                    -0.11401747912168503,
                    -0.30777814984321594,
                    0.09617264568805695,
                    0.1277637779712677,
                    0.06624878942966461,
                    0.17825447022914886,
                    0.23875325918197632,
                    -0.03850220888853073,
                    0.009440967813134193,
                    0.021807722747325897,
                    0.07115398347377777,
                    -0.027607623487710953,
                    -0.004686572588980198,
                    -0.016043366864323616,
                    -0.11072218418121338,
                    0.14633195102214813,
                    -0.08241762220859528,
                    -0.008619720116257668,
                    0.06907568871974945,
                    0.03358691930770874,
                    0.1420833319425583,
                    -0.006284257862716913,
                    -0.05572418123483658,
                    0.12232176959514618,
                    0.0031794204842299223,
                    0.03035654127597809,
                    -0.3229454755783081,
                    -0.1762211173772812,
                    -0.021514642983675003,
                    0.005613418761640787,
                    -5.605420301435515e-05,
                    0.021072372794151306,
                    0.18250855803489685,
                    0.27178114652633667,
                    0.019951535388827324,
                    -0.17384983599185944,
                    0.08172862976789474,
                    -0.08464748412370682,
                    0.2153100222349167,
                    -0.08914142847061157,
                    0.06587687879800797,
                    -0.16230055689811707,
                    -0.07140710204839706,
                    -0.014934915117919445,
                    -0.019545866176486015,
                    0.07001152634620667,
                    -0.017221607267856598,
                    0.018470676615834236,
                    0.11520443856716156,
                    0.012507855892181396,
                    -0.0007270692731253803,
                    -0.0018107483629137278,
                    0.002659717807546258,
                    -0.01505970861762762,
                    0.09907098114490509,
                    0.16338974237442017,
                    -0.015645457431674004,
                    -0.001177509780973196,
                    0.0014961878769099712,
                    -0.006093787029385567,
                    0.24309685826301575,
                    -0.02883661724627018,
                    0.2107040137052536,
                    -0.08062966912984848,
                    -0.0458233468234539,
                    -0.03131895512342453,
                    0.20777274668216705,
                    -0.27126529812812805,
                    -0.11212119460105896,
                    0.1791071742773056,
                    -0.053299903869628906,
                    -0.09679769724607468,
                    -0.2440871298313141,
                    0.001198244164697826,
                    -0.01991531252861023,
                    0.6507735848426819,
                    -0.10699905455112457,
                    -0.2330964207649231,
                    -0.14094902575016022,
                    0.1690453588962555,
                    0.013732226565480232,
                    0.03333417698740959,
                    -0.16472281515598297,
                    -0.000519845518283546,
                    0.11765831708908081,
                    -0.04405297711491585,
                    0.028105348348617554,
                    -0.03239583224058151,
                    -0.004557289183139801,
                    -0.18498007953166962,
                    0.15699468553066254,
                    -0.09700024127960205,
                    -0.02887003868818283,
                    0.15097901225090027,
                    -0.16746000945568085,
                    0.15921297669410706,
                    0.10097693651914597,
                    -0.01705165207386017,
                    -0.11530447006225586,
                    -0.11437700688838959,
                    0.23416303098201752,
                    0.05644164979457855,
                    0.06581959873437881,
                    0.05888531357049942,
                    -0.003209333634003997,
                    0.12537242472171783,
                    -0.17210501432418823,
                    0.12904654443264008,
                    -0.03017103299498558,
                    0.00363545143045485,
                    -0.054714303463697433,
                    -0.19240687787532806,
                    -0.012190353125333786,
                    0.35579732060432434,
                    0.2665351331233978,
                    -0.11517070978879929,
                    -0.28195369243621826,
                    0.17020438611507416,
                    0.09185783565044403,
                    -0.07905083894729614,
                    0.2747933566570282,
                    -0.05192182585597038,
                    0.2235240787267685,
                    -0.0807916447520256,
                    0.026577318087220192,
                    0.015009326860308647,
                    -0.03437217324972153,
                    0.06575857847929001,
                    -1.2387611865997314,
                    0.06154697760939598,
                    0.09910300374031067,
                    0.02915099449455738,
                    -0.29088953137397766,
                    -0.1433127224445343,
                    -0.01560880709439516,
                    -0.045608844608068466,
                    -0.06742122769355774,
                    0.013159433379769325,
                    -0.017132047563791275,
                    2.126678466796875,
                    -0.18675152957439423,
                    0.03190453350543976,
                    -0.028271209448575974,
                    0.06990712136030197,
                    -0.010279952548444271,
                    -0.16235338151454926,
                    0.042152997106313705,
                    -0.02381354197859764,
                    -0.04476125165820122,
                    -0.3141205906867981,
                    -0.021231474354863167,
                    -0.10294295847415924,
                    -0.013013617135584354,
                    0.07689249515533447,
                    0.1178072914481163,
                    0.06440920382738113,
                    -0.08032584190368652,
                    0.13002216815948486,
                    -0.7101998329162598,
                    0.010443584062159061,
                    -0.01936071179807186,
                    -0.07083596289157867,
                    -0.4700584411621094,
                    -0.09550844877958298,
                    0.019898639991879463,
                    0.035911500453948975,
                    -0.07751559466123581,
                    0.07865181565284729,
                    -0.0644531175494194,
                    -0.0438290573656559,
                    0.06190323084592819,
                    0.21699321269989014,
                    -0.03887714445590973,
                    -0.05095265433192253,
                    -0.6858521699905396,
                    -0.13108359277248383,
                    -0.1038258820772171,
                    0.04370029270648956,
                    0.024923736229538918,
                    0.005721388850361109,
                    -1.6205459833145142,
                    0.23172448575496674,
                    0.040187131613492966,
                    0.05968259274959564,
                    0.4019157290458679,
                    0.09242042154073715,
                    0.3440588116645813,
                    0.03076210804283619,
                    -0.05925673991441727,
                    0.07322518527507782,
                    0.1250181347131729,
                    0.02004306949675083,
                    -1.90980863571167,
                    0.05752589926123619,
                    0.13675199449062347,
                    -0.03564365580677986,
                    0.08444542437791824,
                    -0.043706417083740234,
                    -0.009833311662077904,
                    0.17017272114753723,
                    -0.1494506150484085,
                    -0.017595915123820305,
                    -0.2192666381597519,
                    0.29465025663375854,
                    -0.319265216588974,
                    0.04791824147105217,
                    0.01735645718872547,
                    -0.17860047519207,
                    0.14919811487197876,
                    0.2118137627840042,
                    -0.15782858431339264,
                    0.059386029839515686,
                    -0.17070554196834564,
                    -0.1560916304588318,
                    0.01602465845644474,
                    0.14018996059894562,
                    -0.026980172842741013,
                    -0.023778818547725677,
                    0.0616040974855423,
                    0.13985735177993774,
                    -0.20385155081748962,
                    0.3866478204727173,
                    -0.6920790076255798,
                    0.01695975847542286,
                    0.08664964884519577,
                    0.2130943089723587,
                    -0.16286787390708923,
                    -0.11154934763908386,
                    0.08552529662847519,
                    0.08947210013866425,
                    -0.1833489090204239,
                    0.025677064433693886,
                    -0.07105791568756104,
                    0.12628516554832458,
                    0.07393782585859299,
                    -0.22379350662231445,
                    0.02481658011674881,
                    0.16584308445453644,
                    -0.25573310256004333,
                    0.022343289107084274,
                    -0.04202583432197571,
                    -0.11809775978326797,
                    0.2761188745498657,
                    -0.05216148495674133,
                    -0.3786475360393524,
                    0.29380732774734497,
                    0.15723420679569244,
                    0.08526412397623062,
                    0.21489232778549194,
                    -0.02907980978488922,
                    0.2623085677623749,
                    -0.31908681988716125,
                    0.2157568782567978,
                    0.020861247554421425,
                    -0.1496337652206421,
                    -0.059929970651865005,
                    -2.3069632053375244,
                    0.1818801611661911,
                    0.0306572113186121,
                    0.20979519188404083,
                    -0.06766735762357712,
                    0.09348329901695251,
                    0.2581060230731964,
                    -0.3575257658958435,
                    0.0006689029396511614,
                    0.0003344323777128011,
                    0.2081674039363861,
                    -0.0004172333574388176,
                    -0.00046361639397218823,
                    -0.0006733698537573218,
                    -0.010483202524483204,
                    0.010996570810675621,
                    -0.20014305412769318,
                    -0.001658997847698629,
                    -0.1076243668794632,
                    0.11850452423095703,
                    0.15811926126480103,
                    -0.0015053045935928822,
                    -0.1412375122308731,
                    -0.1541917324066162,
                    0.00045717073953710496,
                    0.05319362133741379,
                    -0.038525260984897614,
                    0.13743622601032257,
                    0.16665533185005188,
                    0.0004249012272339314,
                    -0.0003366844612173736,
                    -0.00553842494264245,
                    -0.09523145854473114,
                    0.12335235625505447,
                    0.0014519031392410398,
                    0.14306116104125977,
                    0.10826309025287628,
                    -0.12917880713939667,
                    0.1306399703025818,
                    0.15314950048923492,
                    0.08618343621492386,
                    0.021665342152118683,
                    -0.0707063376903534,
                    -0.0025262439157813787,
                    -0.016961300745606422,
                    -0.13854330778121948,
                    -0.0005952727515250444,
                    -0.07915422320365906,
                    -0.17655546963214874,
                    -0.0005296619492582977,
                    9.471976954955608e-05,
                    0.01011684164404869,
                    0.00036712471046485007,
                    -0.0015718921786174178,
                    -0.027028487995266914,
                    -0.12246445566415787,
                    -0.0011425097472965717,
                    -0.0014549518236890435,
                    0.0003061078314203769,
                    -0.0006295263883657753,
                    0.0011958176037296653,
                    -0.0069473059847950935,
                    0.10463014245033264,
                    0.0032822636421769857,
                    -0.0014671083772554994,
                    0.011865067295730114,
                    -0.13397599756717682,
                    -0.07000686228275299,
                    0.27546316385269165,
                    0.19082951545715332,
                    0.21003568172454834,
                    -0.12458433955907822,
                    0.0012537179281935096,
                    0.0010863712523132563,
                    0.12664003670215607,
                    0.0008998170960694551,
                    2.9319724490051158e-05,
                    -0.001052861101925373,
                    -0.17256155610084534,
                    -0.009128249250352383,
                    0.11309099942445755,
                    -0.0007949761347845197,
                    -0.10011659562587738,
                    -0.10319238901138306,
                    -0.03138322755694389,
                    0.0009055701084434986,
                    0.07803326845169067,
                    -0.166023850440979,
                    0.0008199514704756439,
                    -0.07360387593507767,
                    0.10011079162359238,
                    0.08713041990995407,
                    0.043795015662908554,
                    0.0007771739037707448,
                    -0.0006150127155706286,
                    -0.027816452085971832,
                    -0.1482839435338974,
                    -0.19340933859348297,
                    0.0017504048300907016,
                    -0.022727398201823235,
                    0.21665668487548828,
                    -0.13184067606925964,
                    0.03587788715958595,
                    -0.06318983435630798,
                    -0.19678688049316406,
                    -0.03468959406018257,
                    -0.07717689126729965,
                    0.0007987348362803459,
                    0.1337173581123352,
                    0.17082718014717102,
                    -0.0008149986970238388,
                    -0.08957305550575256,
                    0.05691798776388168,
                    -0.0007686969474889338,
                    0.0020646871998906136,
                    -0.04832268878817558,
                    0.00039649204700253904,
                    0.0016799692530184984,
                    0.04086882621049881,
                    -0.04308388754725456,
                    0.0007348947692662477,
                    -0.0007885677041485906,
                    0.00024651476996950805,
                    0.00013619054516311735,
                    -0.0032800757326185703,
                    -0.12467619776725769,
                    0.18344886600971222,
                    0.021315939724445343,
                    0.0012261552037671208,
                    0.027464311569929123,
                    -0.0580911710858345,
                    0.08913834393024445,
                    -0.20245270431041718,
                    -0.0432412251830101,
                    -0.08528170734643936,
                    -0.0274021215736866,
                    0.22194214165210724,
                    -0.10680616647005081,
                    -0.025102775543928146,
                    -0.6698391437530518,
                    0.6639075875282288,
                    -0.1767411231994629,
                    0.028500856831669807,
                    0.002067715395241976,
                    0.014381231740117073,
                    -0.5430049300193787,
                    -0.17120175063610077,
                    -0.028568310663104057,
                    -0.14539869129657745,
                    -0.07645249366760254,
                    0.09863525629043579,
                    0.09520772099494934,
                    0.36746665835380554,
                    -0.10502277314662933,
                    0.1113901138305664,
                    0.09551745653152466,
                    -0.01930122636258602,
                    -0.38169345259666443,
                    1.2030833959579468,
                    -0.004244593903422356,
                    -0.006037292070686817,
                    0.06502820551395416,
                    0.06773106008768082,
                    0.030523966997861862,
                    0.04130178689956665,
                    0.09443241357803345,
                    0.02972405031323433,
                    0.1792992204427719,
                    -0.009538128040730953,
                    0.12659209966659546,
                    0.012753740884363651,
                    0.3829815685749054,
                    -0.06318722665309906,
                    -0.06731817126274109,
                    0.37771129608154297,
                    -0.006123579107224941,
                    0.1332423985004425,
                    0.020512674003839493,
                    -0.43549713492393494,
                    -0.15110358595848083,
                    0.6973651051521301,
                    -0.3835500180721283,
                    0.10863884538412094,
                    0.04419103264808655,
                    -0.37647175788879395,
                    0.0335579551756382,
                    0.20264177024364471,
                    0.25075259804725647,
                    0.20547839999198914,
                    0.07074979692697525,
                    -0.08105352520942688,
                    0.2092360258102417,
                    3.302091121673584,
                    0.05098233371973038,
                    -0.04091869294643402,
                    0.04737359285354614,
                    -0.022980261594057083,
                    0.03117446042597294,
                    -0.08787035942077637,
                    0.19056421518325806,
                    0.0031985752284526825,
                    -0.008918719366192818,
                    -0.11810538172721863,
                    -0.00022211976465769112,
                    0.00023399374913424253,
                    0.0010251853382214904,
                    0.13115841150283813,
                    -0.12150365114212036,
                    -0.04668969660997391,
                    0.0010020190384238958,
                    -0.13308881223201752,
                    0.17387492954730988,
                    0.1168033704161644,
                    0.00022884993813931942,
                    -0.1834072470664978,
                    0.0749528706073761,
                    0.0007579545490443707,
                    0.13847564160823822,
                    0.3108587861061096,
                    0.022524459287524223,
                    0.1607871651649475,
                    -0.0013659503310918808,
                    -0.00042556747212074697,
                    0.03954262658953667,
                    0.1551615595817566,
                    -0.10556279867887497,
                    0.0028490303084254265,
                    0.1223115473985672,
                    -0.00838394369930029,
                    0.14603769779205322,
                    0.1751265674829483,
                    -0.10426893830299377,
                    -0.11658280342817307,
                    0.12426266819238663,
                    -0.17403081059455872,
                    -0.0017977142706513405,
                    -0.1746591329574585,
                    0.13113091886043549,
                    -0.0026279313024133444,
                    0.02784089744091034,
                    -0.11374208331108093,
                    -0.0033312004525214434,
                    -0.0009062953176908195,
                    -0.15851712226867676,
                    0.00031990709248930216,
                    0.0003614498127717525,
                    0.18034163117408752,
                    0.059362784028053284,
                    -0.002954889554530382,
                    -0.00032538524828851223,
                    0.0006256622727960348,
                    -0.0014477168442681432,
                    -0.15211130678653717,
                    -0.16410253942012787,
                    -0.22750233113765717,
                    0.004508004058152437,
                    0.0052956040017306805,
                    0.17371433973312378,
                    0.10742264986038208,
                    0.35049739480018616,
                    0.01699518971145153,
                    -0.04089590534567833,
                    -0.13571111857891083,
                    -0.0742332935333252,
                    -0.4446922242641449,
                    0.009643768891692162,
                    -0.1517716646194458,
                    0.3513013422489166,
                    -0.25980329513549805,
                    0.3052264451980591,
                    0.11830766499042511,
                    -0.16166426241397858,
                    -0.002305252943187952,
                    -0.17460526525974274,
                    0.03727295622229576,
                    0.03531262278556824,
                    -0.1214757114648819,
                    0.538524866104126,
                    0.033022984862327576,
                    -0.11051962524652481,
                    0.44269248843193054,
                    0.04981923848390579,
                    0.0292240921407938,
                    0.09853664040565491,
                    0.05173037573695183,
                    0.14606760442256927,
                    -0.010754496790468693,
                    0.030713506042957306,
                    0.026076285168528557,
                    0.022086188197135925,
                    -0.18875551223754883,
                    -0.07228920608758926,
                    0.07514173537492752,
                    0.05851209536194801,
                    -0.0656123161315918,
                    0.006831882521510124,
                    0.043886762112379074,
                    -0.16036979854106903,
                    0.1033383458852768,
                    0.9270028471946716,
                    0.06505312770605087,
                    -0.09791301935911179,
                    -0.07629216462373734,
                    -0.09707558155059814,
                    -0.07294103503227234,
                    0.5842133164405823,
                    0.5028853416442871,
                    -0.02643047645688057,
                    0.10296051949262619,
                    -1.1623280048370361,
                    0.08855713158845901,
                    -0.08748520165681839,
                    -0.17995691299438477,
                    -0.9445878267288208,
                    0.3059751093387604,
                    -0.7961776852607727,
                    -0.03992736339569092,
                    -0.10556621104478836,
                    0.1163266971707344,
                    -0.13567079603672028,
                    -0.009068811312317848,
                    0.09445643424987793,
                    0.063866525888443,
                    0.11113165318965912,
                    -0.05101974308490753,
                    -0.0035107985604554415,
                    -0.10373307019472122,
                    0.09559688717126846,
                    -0.2061930000782013,
                    -0.03042924590408802,
                    -0.15811489522457123,
                    -0.5027568936347961,
                    0.04464399814605713,
                    0.16073498129844666,
                    -0.017212530598044395,
                    -0.11746443808078766,
                    0.14698974788188934,
                    0.3997560739517212,
                    0.05788416415452957,
                    -0.10102413594722748,
                    -0.10095392167568207,
                    0.1976018249988556,
                    -0.06618016958236694,
                    0.022240249440073967,
                    -0.10819152742624283,
                    -0.20897847414016724,
                    -0.04214496910572052,
                    0.16729243099689484,
                    -0.01222971547394991,
                    0.3664824068546295,
                    -0.20614773035049438,
                    0.04141080006957054,
                    -0.04842298477888107,
                    -0.12455561757087708,
                    0.17803658545017242,
                    0.10480529814958572,
                    -0.07960405200719833,
                    0.04970909655094147,
                    0.07306118309497833,
                    -0.05339735001325607,
                    -0.26622721552848816,
                    0.12183839082717896,
                    0.010783160105347633,
                    -0.32173624634742737,
                    -0.10237052291631699,
                    -0.02895558997988701,
                    0.28348010778427124,
                    -0.0008487118175253272,
                    -0.017709380015730858,
                    -0.47214096784591675,
                    -0.029796643182635307,
                    -0.06015404313802719,
                    0.348188191652298,
                    0.3712763488292694,
                    -0.1497347354888916,
                    -0.1422685980796814,
                    -0.3385900855064392,
                    -0.02681422047317028,
                    -0.4736694097518921,
                    -0.0651819258928299,
                    -0.10214363783597946,
                    -0.02402874082326889,
                    0.09068580716848373,
                    0.18774133920669556,
                    0.6070590615272522,
                    0.1216367781162262,
                    0.1038857251405716,
                    7.110342266969383e-05,
                    0.01558407861739397,
                    -0.12184730917215347,
                    -0.06261701136827469,
                    0.10694190859794617,
                    0.5627703070640564,
                    0.052834946662187576,
                    0.002977744210511446,
                    0.8652204275131226,
                    0.12013549357652664,
                    -0.0038596305530518293,
                    -0.017542025074362755,
                    -0.08664969354867935,
                    0.05293837562203407,
                    -0.4408958852291107,
                    -0.05120844021439552,
                    0.09092245995998383,
                    -0.0882590040564537,
                    -0.8369055986404419,
                    0.0722954124212265,
                    0.01800866611301899,
                    0.06532381474971771,
                    0.020761964842677116,
                    -0.04274110868573189,
                    -0.09848497062921524,
                    -0.09991557896137238,
                    -0.1668178290128708,
                    0.003071269951760769,
                    -0.13392561674118042,
                    0.16957658529281616,
                    0.13362008333206177,
                    -0.22439873218536377,
                    -0.14862202107906342,
                    -0.16231900453567505,
                    0.045247942209243774,
                    0.0987490564584732,
                    0.010881844907999039,
                    -0.08828449249267578,
                    0.01492129173129797,
                    -0.08836928009986877,
                    -0.1885659098625183,
                    0.06593915075063705,
                    -0.08277587592601776,
                    -0.39345264434814453,
                    -0.11026743054389954,
                    0.03549707680940628,
                    -0.040659647434949875,
                    -0.33900055289268494,
                    0.03219813480973244,
                    -1.029283046722412,
                    0.09800135344266891,
                    -0.06079091504216194,
                    0.0033067159820348024,
                    -0.1257796436548233,
                    1.0231856107711792,
                    0.08508637547492981,
                    0.6432275176048279,
                    0.11147435009479523,
                    0.14922289550304413,
                    -0.08275289833545685,
                    0.119359590113163,
                    0.2550961375236511,
                    -0.1597485989332199,
                    0.05854828283190727,
                    -0.05850284546613693,
                    0.21060648560523987,
                    -0.11666703224182129,
                    -0.01780744642019272,
                    -0.1894613802433014,
                    -0.09332743287086487,
                    0.12663185596466064,
                    -0.004646241664886475,
                    -1.614426612854004,
                    0.30734774470329285,
                    -0.007508885581046343,
                    0.05612245202064514,
                    0.00028689857572317123,
                    -0.03248034790158272,
                    0.4434766471385956,
                    -0.05198133364319801,
                    -8.45615522848675e-06,
                    0.07498238980770111,
                    0.4183059632778168,
                    0.03266512230038643,
                    -0.0502459779381752,
                    -0.2887210249900818,
                    0.015919120982289314,
                    0.1241188496351242,
                    -0.0787249505519867,
                    -0.20885692536830902,
                    -0.009661263786256313,
                    0.38235247135162354,
                    0.09260588139295578,
                    -0.06215909495949745,
                    -0.043234530836343765,
                    0.631406843662262,
                    0.015406512655317783,
                    -0.005248246714472771,
                    0.08533871918916702,
                    -0.09537237137556076,
                    -0.041777003556489944,
                    -0.07707994431257248,
                    -0.12011587619781494,
                    0.046508707106113434,
                    -0.13688024878501892,
                    -0.1405850052833557,
                    -0.06261582672595978,
                    0.6126050353050232,
                    -0.17045536637306213,
                    0.022025400772690773,
                    -0.3342348635196686,
                    -0.22413568198680878,
                    -0.002262679859995842,
                    0.9980885982513428,
                    -0.03044949471950531,
                    0.013339265249669552,
                    -0.08050031960010529,
                    -0.4713408946990967,
                    -0.14563924074172974,
                    -0.4204663038253784,
                    -0.23262107372283936,
                    0.10883773863315582,
                    0.13662762939929962,
                    0.11803412437438965,
                    -0.05580485612154007,
                    1.193928599357605,
                    -0.04384198412299156,
                    0.18064722418785095,
                    -0.06187911331653595,
                    0.07003121078014374,
                    -0.2459001988172531,
                    0.0755184143781662,
                    -0.13608117401599884,
                    0.0008811316220089793,
                    -0.002925887005403638,
                    -0.1952170729637146,
                    0.0012364070862531662,
                    -0.00014414922043215483,
                    -4.519525828072801e-05,
                    -0.06612201035022736,
                    -0.04074696823954582,
                    0.04846284165978432,
                    0.00020863491226918995,
                    0.011910904198884964,
                    0.2182256281375885,
                    0.22332435846328735,
                    0.0008991314098238945,
                    0.22659319639205933,
                    -0.10956300050020218,
                    0.0002398578799329698,
                    0.22545693814754486,
                    -0.05666381120681763,
                    -0.24475757777690887,
                    0.22402344644069672,
                    -0.0006118392338976264,
                    0.00015783391427248716,
                    -0.10055547952651978,
                    0.11733338236808777,
                    -0.04982394725084305,
                    0.0006642445223405957,
                    -0.06608585268259048,
                    0.051639437675476074,
                    0.13633760809898376,
                    -0.08162685483694077,
                    -0.14261546730995178,
                    0.12935322523117065,
                    0.10644926875829697,
                    -0.09818082302808762,
                    0.0011438321089372039,
                    0.09625415503978729,
                    0.06734981387853622,
                    -0.0010927373077720404,
                    -0.20279812812805176,
                    -0.13868588209152222,
                    -0.0008405413827858865,
                    0.0010937624610960484,
                    0.10178347676992416,
                    -0.00011087044549640268,
                    0.0013563885586336255,
                    0.16026410460472107,
                    0.15720197558403015,
                    -0.001517180004157126,
                    0.0007610160973854363,
                    -0.0007247259491123259,
                    0.00017207277414854616,
                    -0.006160412915050983,
                    0.16515985131263733,
                    -0.0820774957537651,
                    -0.18074558675289154,
                    0.002831341465935111,
                    0.12622979283332825,
                    0.1550438404083252,
                    0.11574526876211166,
                    -0.0574323944747448,
                    0.17357860505580902,
                    0.19198836386203766,
                    0.062312692403793335,
                    0.2996983230113983,
                    -0.030729103833436966,
                    0.08828295767307281,
                    0.7624889016151428,
                    0.1836177110671997,
                    0.06478984653949738,
                    -0.08013295382261276,
                    0.1872488111257553,
                    -0.11571016162633896,
                    -0.44619908928871155,
                    0.1617726981639862,
                    -0.18387797474861145,
                    0.14484861493110657,
                    -0.7567434906959534,
                    0.08558351546525955,
                    0.12304116040468216,
                    0.12259458005428314,
                    0.11562718451023102,
                    0.21747712790966034,
                    0.2051105499267578,
                    -0.008765124715864658,
                    -0.4063519239425659,
                    -0.14035113155841827,
                    0.152247816324234,
                    -0.16693034768104553,
                    -0.034069329500198364,
                    -0.22086350619792938,
                    0.02830059826374054,
                    0.025559725239872932,
                    0.061001088470220566,
                    -0.04101588577032089,
                    0.05151020362973213,
                    -0.023376010358333588,
                    0.08788750320672989,
                    -0.04433097317814827,
                    0.04585260525345802,
                    -0.08502192050218582,
                    -0.07960265874862671,
                    -0.29265692830085754,
                    0.17392902076244354,
                    0.08710300922393799,
                    0.03689184784889221,
                    -0.2430296093225479,
                    -0.004538028966635466,
                    -0.8801867365837097,
                    -0.07057461887598038,
                    0.14214108884334564,
                    0.1742410510778427,
                    0.11170602589845657,
                    0.7285915017127991,
                    0.1274387091398239,
                    0.4876116216182709,
                    -0.08051170408725739,
                    0.052013251930475235,
                    -0.04302553832530975,
                    0.12235645949840546,
                    0.2080135941505432,
                    0.06874959915876389,
                    0.03325245529413223,
                    -0.059565819799900055,
                    -0.20577813684940338,
                    -0.04719126969575882,
                    -0.14335015416145325,
                    0.051694683730602264,
                    -0.2122945636510849,
                    0.026175839826464653,
                    0.17113524675369263,
                    -0.6259830594062805,
                    -0.04142674803733826,
                    0.12135741114616394,
                    0.08120753616094589,
                    0.011790317483246326,
                    0.08076155930757523,
                    0.15023602545261383,
                    -0.13785701990127563,
                    0.12217628955841064,
                    -0.11505457013845444,
                    0.07177656143903732,
                    0.05403678119182587,
                    -0.08957567065954208,
                    -0.0034710178151726723,
                    0.21854326128959656,
                    -0.07605985552072525,
                    0.03260725364089012,
                    -0.09445274621248245,
                    -0.015016329474747181,
                    -0.11566655337810516,
                    -0.11064255982637405,
                    0.17513063549995422,
                    -0.01785750314593315,
                    0.2286527007818222,
                    0.05818271264433861,
                    -0.05065979063510895,
                    0.10171851515769958,
                    -0.0018544765189290047,
                    -0.11709831655025482,
                    -0.03665216639637947,
                    -0.19286765158176422,
                    0.14278440177440643,
                    -0.2628507912158966,
                    -0.28082698583602905,
                    0.014812393113970757,
                    0.07839255034923553,
                    0.2051379680633545,
                    -0.002825469709932804,
                    -0.21967601776123047,
                    0.02527930960059166,
                    -0.11920354515314102,
                    0.3223261833190918,
                    0.27564847469329834,
                    -0.04912305995821953,
                    0.12251406908035278,
                    -0.026697151362895966,
                    0.07067227363586426,
                    -0.330683171749115,
                    -0.04940714314579964,
                    -0.089150071144104,
                    -0.06634683161973953,
                    0.032973919063806534,
                    0.051320288330316544,
                    0.41956841945648193,
                    0.1646176427602768,
                    0.0455777645111084,
                    0.05565221235156059,
                    0.13095782697200775,
                    -0.05334063246846199,
                    0.06610994786024094,
                    -0.13317590951919556,
                    -0.00037004315527155995,
                    -0.00024831818882375956,
                    0.09821270406246185,
                    -0.0010007728124037385,
                    0.00023828345001675189,
                    0.0012725397245958447,
                    0.08325754851102829,
                    -0.00453387014567852,
                    -0.12171978503465652,
                    0.0009653317974880338,
                    -0.08403626829385757,
                    -0.025836898013949394,
                    -0.0364205464720726,
                    -0.0004853763384744525,
                    -0.09009706974029541,
                    -0.06056038290262222,
                    -0.0003334123466629535,
                    0.05598768591880798,
                    0.062138885259628296,
                    -0.05544638633728027,
                    0.05654771998524666,
                    -0.00019403629994485527,
                    0.000146974140079692,
                    0.07514742761850357,
                    0.04691244289278984,
                    0.07472378760576248,
                    -0.000499625108204782,
                    0.07259903848171234,
                    0.06826303154230118,
                    -0.03995028883218765,
                    0.0525830052793026,
                    -0.043899428099393845,
                    -0.048961468040943146,
                    -0.07016065716743469,
                    0.1593923717737198,
                    0.0003982595808338374,
                    0.05708538740873337,
                    -0.15384796261787415,
                    0.00045137369306758046,
                    -0.06277167797088623,
                    -0.1289834976196289,
                    5.93853292230051e-05,
                    -0.0010301037691533566,
                    0.1668846756219864,
                    -0.00017651915550231934,
                    0.0004357991274446249,
                    -0.1768871247768402,
                    -0.094054214656353,
                    0.00017197741544805467,
                    0.0004818998568225652,
                    0.00021174835273995996,
                    -0.0003516252036206424,
                    0.003881328972056508,
                    0.049654100090265274,
                    0.1305447369813919,
                    0.023101583123207092,
                    -0.0004123313119634986,
                    0.008112022653222084,
                    0.005638995673507452,
                    0.058778997510671616,
                    0.03370269015431404,
                    -0.02262175641953945,
                    0.06897745281457901,
                    0.09119654446840286,
                    -0.07008355855941772,
                    0.34796053171157837,
                    0.030757257714867592,
                    0.291279137134552,
                    -0.3623916208744049,
                    0.07025109231472015,
                    0.09339027851819992,
                    -0.025045547634363174,
                    -0.03712550923228264,
                    0.08765564113855362,
                    0.09491803497076035,
                    0.13512611389160156,
                    0.04660366103053093,
                    0.08653836697340012,
                    0.08857393264770508,
                    -0.15552297234535217,
                    0.08415384590625763,
                    0.12018289417028427,
                    -0.07355900853872299,
                    -0.06716763973236084,
                    0.1968410462141037,
                    0.05515451356768608,
                    -0.0358615517616272,
                    -0.06212799251079559,
                    0.12976659834384918,
                    -0.1768697053194046,
                    -0.005756876431405544,
                    -0.08795145899057388,
                    -0.03496585413813591,
                    -0.032411474734544754,
                    0.032424844801425934,
                    0.1322794109582901,
                    -0.03040604665875435,
                    0.09234533458948135,
                    0.10145135223865509,
                    0.3125596344470978,
                    0.18866848945617676,
                    0.16815730929374695,
                    0.013583137653768063,
                    -0.046702343970537186,
                    -0.07748198509216309,
                    0.024659015238285065,
                    0.3471629023551941,
                    0.03551512956619263,
                    0.16973777115345,
                    -0.131296768784523,
                    -0.04861833155155182,
                    0.14019669592380524,
                    -0.14324000477790833,
                    -0.574897050857544,
                    -0.06760159879922867,
                    -0.13806408643722534,
                    0.13524451851844788,
                    0.036545660346746445,
                    0.00988443847745657,
                    0.06781815737485886,
                    -0.4946991503238678,
                    -0.09776177257299423,
                    -0.14374026656150818,
                    0.000553598627448082,
                    -0.028966207057237625,
                    -0.06749037653207779,
                    0.016518523916602135,
                    0.0045557483099401,
                    -0.0009361726115457714,
                    -0.00013842467160429806,
                    0.01566426269710064,
                    -0.0005889885942451656,
                    0.0001977574429474771,
                    0.0015680479118600488,
                    0.1655724197626114,
                    0.0037917238660156727,
                    -0.01627836748957634,
                    0.0009939279407262802,
                    0.10629932582378387,
                    0.034373436123132706,
                    0.054549869149923325,
                    -6.455612310674042e-05,
                    -0.14413757622241974,
                    0.09141974151134491,
                    -0.0003239343350287527,
                    -0.07619134336709976,
                    -0.01672673039138317,
                    -0.04714057222008705,
                    -0.1592286229133606,
                    -7.305763574549928e-05,
                    0.0002911713090725243,
                    -0.08564643561840057,
                    -0.07539710402488708,
                    -0.08705325424671173,
                    -0.0017276478465646505,
                    -0.029156122356653214,
                    0.04219543933868408,
                    -0.09971215575933456,
                    -0.1411774903535843,
                    -0.08813472837209702,
                    0.12763628363609314,
                    -0.1330484002828598,
                    0.07946950197219849,
                    0.0005084295989945531,
                    0.059556152671575546,
                    -0.16788484156131744,
                    0.001230709720402956,
                    -0.10122212767601013,
                    0.08135690540075302,
                    0.0006280383677221835,
                    -0.0012109087547287345,
                    -0.14300790429115295,
                    -0.0003657357592601329,
                    0.0003636292240116745,
                    -0.08436869829893112,
                    -0.14101570844650269,
                    1.7658614524407312e-05,
                    0.0008608548087067902,
                    -0.00025228815502487123,
                    3.3835662179626524e-05,
                    -0.00021194946020841599,
                    0.09893970936536789,
                    -0.03959834575653076,
                    -0.012326115742325783,
                    0.0002152597880922258,
                    0.0010522411903366446,
                    0.08252990990877151,
                    -0.04932401701807976,
                    0.07246970385313034,
                    0.06697430461645126,
                    -0.037180908024311066,
                    -0.201033815741539,
                    -0.0004939801874570549,
                    0.004060288425534964,
                    0.12240245938301086,
                    0.0038139051757752895,
                    -2.6685673219617456e-05,
                    -0.00020586226310115308,
                    -0.0639571025967598,
                    0.02016862854361534,
                    -0.14882557094097137,
                    -0.001129366923123598,
                    0.1873594969511032,
                    -0.17025278508663177,
                    -0.01271094474941492,
                    -0.0018395832739770412,
                    0.13179008662700653,
                    0.15938977897167206,
                    0.0012198901968076825,
                    0.20027247071266174,
                    -0.014000091701745987,
                    0.07082924246788025,
                    0.11634378135204315,
                    0.0010387623915448785,
                    -0.001194545067846775,
                    -0.030415497720241547,
                    0.11199894547462463,
                    0.09079252928495407,
                    0.001407034695148468,
                    -0.07413848489522934,
                    -0.20204998552799225,
                    -0.11621616780757904,
                    0.03208540752530098,
                    0.007092336192727089,
                    0.08527055382728577,
                    -0.2078847438097,
                    0.07729005068540573,
                    -0.0018230155110359192,
                    0.10365364700555801,
                    0.17238806188106537,
                    0.0007297999109141529,
                    0.033887848258018494,
                    -0.035842496901750565,
                    -0.0017561034765094519,
                    0.0013918050099164248,
                    0.14127536118030548,
                    0.0007717770640738308,
                    -0.0006995843141339719,
                    -0.08936502784490585,
                    0.07516106218099594,
                    0.003360952716320753,
                    -0.0033918770495802164,
                    0.002239752095192671,
                    0.0005480055115185678,
                    -0.25837498903274536,
                    -0.09355810284614563,
                    -0.017377730458974838,
                    0.0013908151304349303,
                    0.0036047720350325108,
                    0.06583251804113388,
                    -0.12259405851364136,
                    0.2056150734424591,
                    0.18168973922729492,
                    0.0587579719722271,
                    0.01793576218187809,
                    -0.17351290583610535,
                    0.0008437455981038511,
                    0.0007571383030153811,
                    0.07460322976112366,
                    -7.014219960410628e-08,
                    -3.0345672712428495e-05,
                    -0.0008244719938375056,
                    -0.02498052455484867,
                    -0.0007816578727215528,
                    -0.17100681364536285,
                    -0.000582159380428493,
                    -0.14697155356407166,
                    0.12522998452186584,
                    0.002541954629123211,
                    0.00038457405753433704,
                    -0.028854072093963623,
                    -0.05600554123520851,
                    0.0001654953957768157,
                    0.05993873253464699,
                    -0.0016522066434845328,
                    0.07822827994823456,
                    0.05217763036489487,
                    0.0003515598364174366,
                    -0.00019886059453710914,
                    -0.11238321661949158,
                    -0.08116836100816727,
                    0.057358287274837494,
                    0.0013565042754635215,
                    0.04277121275663376,
                    0.11317500472068787,
                    0.09370794147253036,
                    0.0034984576050192118,
                    0.07541996985673904,
                    0.02454945631325245,
                    0.08394882082939148,
                    -0.05486627668142319,
                    0.0002000719541683793,
                    -0.012805283069610596,
                    -0.009033477865159512,
                    -0.0010756234405562282,
                    -0.08370471745729446,
                    -0.0013636747607961297,
                    4.924184759147465e-05,
                    0.0005033168126828969,
                    -0.12140319496393204,
                    0.0003041973104700446,
                    1.394859646097757e-05,
                    -0.09063506126403809,
                    0.03028046153485775,
                    -8.491172775393352e-05,
                    -0.00026625595637597144,
                    0.0001602268312126398,
                    -0.0002879117091652006,
                    -0.003546647261828184,
                    0.027510441839694977,
                    -0.024074357002973557,
                    0.010396928526461124,
                    -0.0008448299486190081,
                    0.008151131682097912,
                    -0.06984443217515945,
                    -0.028712596744298935,
                    0.03778531774878502,
                    0.013971712440252304,
                    0.14528563618659973,
                    -0.05914232134819031,
                    0.35826122760772705,
                    0.24627810716629028,
                    -0.15029270946979523,
                    -0.4270535409450531,
                    -0.07840313762426376,
                    -0.23336200416088104,
                    0.014102100394666195,
                    -0.04557746648788452,
                    0.029342874884605408,
                    0.22953364253044128,
                    0.039315737783908844,
                    -0.054869405925273895,
                    0.1269335299730301,
                    -0.011891502887010574,
                    -0.1573209911584854,
                    0.15734797716140747,
                    -0.48210084438323975,
                    0.13883952796459198,
                    0.17938928306102753,
                    -0.11139406263828278,
                    -0.10663312673568726,
                    0.012278260663151741,
                    -0.13691595196723938,
                    -0.1037834882736206,
                    0.011541102081537247,
                    0.06266341358423233,
                    0.18977327644824982,
                    0.07605738192796707,
                    0.06318537890911102,
                    -0.08551675826311111,
                    0.09709826111793518,
                    0.06773657351732254,
                    0.009585329331457615,
                    -0.14958582818508148,
                    0.09186413884162903,
                    -0.796487033367157,
                    0.01603548228740692,
                    0.0531906858086586,
                    0.2963276207447052,
                    -0.013281894847750664,
                    -0.03461587429046631,
                    -0.3253520429134369,
                    -0.3352052569389343,
                    -0.051497187465429306,
                    0.14042894542217255,
                    0.9442534446716309,
                    0.018021224066615105,
                    -0.09921076148748398,
                    0.04606100544333458,
                    0.6841489672660828,
                    -0.33076515793800354,
                    0.602641761302948,
                    0.22531232237815857,
                    -0.08246229588985443,
                    0.15177670121192932,
                    -0.05612366646528244,
                    0.06407161802053452,
                    -0.11783576011657715,
                    -0.11172947287559509,
                    -0.054028816521167755,
                    -0.00257399445399642,
                    0.025056080892682076,
                    0.16668443381786346,
                    0.1445877104997635,
                    -0.0009759404929354787,
                    -6.879391730763018e-05,
                    -0.032562244683504105,
                    -0.0003688765282277018,
                    5.6651831982890144e-05,
                    0.0002358218189328909,
                    0.004997411742806435,
                    -0.001271046232432127,
                    0.049539197236299515,
                    0.0014396663755178452,
                    -0.10041841864585876,
                    0.06093214452266693,
                    -0.037030547857284546,
                    -0.00020402504014782608,
                    0.010075503028929234,
                    -0.03729099780321121,
                    -0.00047749662189744413,
                    -0.04788290336728096,
                    0.04473979026079178,
                    -0.0400400273501873,
                    0.02383902110159397,
                    -4.997616269974969e-05,
                    0.00030563431209884584,
                    0.1269783228635788,
                    -0.08429315686225891,
                    -0.13544851541519165,
                    -0.001639102236367762,
                    -0.059152692556381226,
                    0.1602792739868164,
                    -0.08003811538219452,
                    0.05566101521253586,
                    0.09785541892051697,
                    0.15517884492874146,
                    -0.049415361136198044,
                    -0.10020677745342255,
                    0.0006107842200435698,
                    0.03336411342024803,
                    -0.0790736973285675,
                    0.0010369825176894665,
                    0.1445704996585846,
                    0.04074050486087799,
                    0.0008466951549053192,
                    -0.001329821883700788,
                    0.18256494402885437,
                    -0.00037007007631473243,
                    0.00019078866171184927,
                    0.07182004302740097,
                    0.16264182329177856,
                    0.0005151569494046271,
                    0.0008968074689619243,
                    7.771157834213227e-05,
                    0.0003033663670066744,
                    -0.006448172032833099,
                    -0.18703466653823853,
                    -0.12587332725524902,
                    0.0008567146142013371,
                    -0.0006412424263544381,
                    -0.0051994482055306435,
                    0.1432453989982605,
                    -0.03864195570349693,
                    -0.10964671522378922,
                    -0.13097114861011505,
                    -0.15164770185947418,
                    -0.1526937037706375,
                    -0.004425826016813517,
                    0.01387784630060196,
                    -0.1435614824295044,
                    -0.0027064073365181684,
                    0.0013256316306069493,
                    0.006540937349200249,
                    0.04757678508758545,
                    0.13515718281269073,
                    0.24136999249458313,
                    0.0025871125981211662,
                    0.13335534930229187,
                    -0.04775738716125488,
                    0.09610143303871155,
                    -0.0021123189944773912,
                    -0.015669086948037148,
                    0.024822022765874863,
                    -0.0006680888473056257,
                    0.03955937176942825,
                    0.1538342833518982,
                    -0.15522341430187225,
                    -0.12640170753002167,
                    -0.00030195823637768626,
                    0.0008389427093788981,
                    0.2165067493915558,
                    0.06263866275548935,
                    0.26864898204803467,
                    -0.010374643839895725,
                    0.14684051275253296,
                    -0.13445428013801575,
                    0.0042334445752203465,
                    0.018407922238111496,
                    -0.04556838795542717,
                    -0.027140218764543533,
                    0.07640289515256882,
                    -0.13790903985500336,
                    0.0006529656238853931,
                    0.14583469927310944,
                    -0.1248246505856514,
                    0.009123653173446655,
                    -0.19620934128761292,
                    0.07346660643815994,
                    0.0027090043295174837,
                    0.0008939827675931156,
                    -0.03464971482753754,
                    -0.0007019396871328354,
                    -0.00023743388010188937,
                    -0.23276078701019287,
                    0.1149354875087738,
                    0.009779379703104496,
                    -0.0003431447548791766,
                    -0.001202996470965445,
                    0.00018419630941934884,
                    0.03641514480113983,
                    -0.03537866473197937,
                    -0.09912493824958801,
                    0.33155637979507446,
                    -0.013338846154510975,
                    -0.12124153226613998,
                    0.04185377061367035,
                    0.3585805594921112,
                    -0.13361142575740814,
                    -0.17186760902404785,
                    0.04093135893344879,
                    -0.11960829794406891,
                    -0.00038955785566940904,
                    0.0012651962460950017,
                    0.14571644365787506,
                    0.001484267064370215,
                    0.00042205926729366183,
                    -5.207851427257992e-05,
                    0.011714487336575985,
                    -0.020124202594161034,
                    0.053408171981573105,
                    0.0014134617522358894,
                    0.16291621327400208,
                    0.2096879780292511,
                    0.1106419563293457,
                    0.0013366875937208533,
                    -0.0631880834698677,
                    -0.017477700486779213,
                    -0.00017474807100370526,
                    0.1494830697774887,
                    0.27462509274482727,
                    -0.17937947809696198,
                    -0.11393959075212479,
                    0.00023917914950288832,
                    -2.758838945737807e-06,
                    -0.11688069999217987,
                    -0.10222486406564713,
                    -0.06646066159009933,
                    -0.0010377948638051748,
                    -0.03824984282255173,
                    0.22772762179374695,
                    -0.042493730783462524,
                    -0.21077993512153625,
